-3.14159, -2.35619, -1.5708, -0.785398, 0, 0.785398, 1.5708, 2.35619, 3.14159, 
-3.14159, -2.35619, -1.5708, -0.785398, 0, 0.785398, 1.5708, 2.35619, 3.14159, 
0, 0.035, 0.06, 0.09, 0.13, 0.18, 0.25, 
0, 0.035, 0.06, 0.09, 0.13, 0.18, 0.25, 
0.00205579, 0.00099757, -0.00872151, -0.014654, 0.0022112, -0.00128179, 0.00944448, 0.00709432, 0.000680681, -0.000581535, -0.0115715, -0.00780354, 0.00369871, 0.0106962, 0.0125121, 0.00643135, -0.00729895, -0.0104749, -0.00118363, 0.000262668, 0.0123373, 0.0109139, 0.00720495, -0.000189413, -0.0102362, -0.0124776, -0.00484404, -0.00341579, 0.00579726, 0.00565155, 0.000238427, -0.00751327, -0.00594254, -0.00342978, 0.00156611, 0.000659341, -0.00372318, -0.00046445, -0.00614695, -0.00928353, 0.000498886, 0.00804764, 0.0081798, 0.00741627, -0.00171713, -0.00398669, -0.00744495, -0.00713532, 0.00742574, 0.0126935, 0.0119306, 0.00392386, -0.00263436, -0.00792753, -0.00302466, 0.00267993, 0.00456463, 0.00887357, -0.0041673, -0.0159671, -0.00934402, -0.00637287, -0.00230287, -0.00399203, -0.00129021, 0.000379519, -0.00951101, -0.0099183, -0.00514511, 0.00833843, 0.00859649, 0.001265, -0.00472056, -0.00361852, -0.0117271, -0.0124294, -0.000485721, 0.00845183, 0.0137647, 0.00118312, -0.0109817, -0.0122396, -0.00297924, -0.00431736, 0.0044718, 0.0101116, 0.0102793, -0.00422721, -0.0104468, -0.00999901, -0.00157581, -0.00454528, 0.00313705, 0.00679512, 0.00338258, -0.00882756, -0.00734746, -0.00178983, 0.000571804, -0.00277032, -0.0035164, 0.0047994, -0.00327515, -0.00827259, -0.00541397, 0.00278769, 0.00577349, -0.000316729, -0.00369324, 0.00508862, -0.00620449, -0.00934048, 0.000179651, 0.0100801, 0.00500137, -0.00451032, -0.00859082, -0.00468723, 0.00200169, -0.00663356, 0.000948839, 0.00774271, -0.00431643, 0.0059843, -0.00906367, -0.00318834, 0.00413496, -0.00118124, -0.00691107, -0.000216851, -0.0061216, -0.00909407, -4.18072e-05, 0.00572517, 0.0100062, -0.00171422, -0.00669419, -0.00490024, -0.00964029, -0.0127571, -0.00988202, 0.0029197, 0.00872868, -0.00265054, -0.00930617, -0.00933637, -0.00295897, -0.00935191, -0.00486803, 0.00474181, 0.0046081, -0.00707021, -0.0112223, -0.00674399, -0.00192979, -0.00842064, -0.00405686, 0.00348943, 0.000280356, -0.0116517, -0.00942282, -0.00551203, 0.00137733, -0.00694872, -0.00843589, 0.000693933, -0.00350226, -0.00943757, -0.00978362, 0.00122387, 0.000929594, -0.00304846, -0.00724074, -0.00179557, -0.00425481, -0.0108818, -0.00229912, 0.00297034, 0.0014888, -0.00965677, -0.0145093, -0.00694361, -0.000459805, -0.00772044, -0.000745541, -0.00159274, 0.00229488, -0.00400927, -0.0048992, -0.00606274, 0.00220198, -0.00581474, -0.00609569, -0.00352962, -0.00236511, -0.0151278, -0.00210258, -0.00487671, 0.00742915, -0.00335501, -0.00640769, -0.00359968, -0.0061264, -0.0112908, -0.0107032, -0.00076377, 0.00385945, -0.00404935, -0.0101642, -0.00564055, -0.0029574, -0.00936107, -0.0099415, 0.0015439, 0.00485577, -0.00995867, -0.00971446, -0.00571981, 0.000257218, -0.0103085, -0.00716199, -0.000110328, -0.000723489, -0.0109322, -0.00873785, -0.00272679, 0.00117407, -0.00747613, -0.00957394, -0.00274435, -0.00433207, -0.00675271, -0.00544509, 0.00120286, 0.00375516, -0.00865569, -0.0106647, -0.00255259, -0.0030857, -0.00774081, -0.00382495, -0.00106287, 0.00442864, -0.0138182, -0.0135152, -0.00633296, -0.0019379, -0.00878527, -0.00337703, 0.00387915, -0.00126525, 0.000781283, -0.0199255, -0.00442332, 0.00192303, -0.00603161, -0.00396683, -0.00300224, -0.00186522, 0, 0, 0, 0.00408897, -0.00470382, -0.00638474, -0.00292116, -0.00347564, -0.0059222, -0.0184663, -0.00786328, 0.000998009, -0.000610427, -0.00493528, -0.0053179, -0.00179522, -0.00715642, -0.0072768, -0.00474186, 0.00860575, -0.0114056, -0.00917015, -0.00323031, -0.000549014, -0.00954114, -0.00699862, 0.00295381, 0.000105561, -0.00671112, -0.00306258, -0.00269276, 0.00126952, -0.00625686, -0.00756121, -0.00168774, -0.00419602, -0.0102412, -0.0059522, -0.00237671, 0.00349968, -0.00785008, -0.0104007, -0.00187961, -0.00338596, -0.00848908, -0.00513532, -0.00125585, -0.00178872, -0.00795986, -0.0118475, -0.00736043, -0.000982801, -0.00699462, -0.00760426, 0.00148783, 0, 0, 0, -0.00601237, 0.00122853, -0.00528069, 0, 7.15077e-05, 0, 0, 0, 0, 0, -0.00404125, -0.00670046, -0.00582558, -0.00274624, -0.00446449, -0.0129635, 0, 0.000324934, -0.00431035, -0.00919038, -0.00328467, -0.00115954, -0.00742085, -0.00672383, 9.3737e-05, 0.00458786, 0.00440775, -0.0103477, -0.00146323, 0.00221985, -0.00268207, -0.00758336, 0.00243101, 0.00839689, 0, 0, -0.0142219, 0.00859661, -0.00290292, -0.00711474, -0.00337776, -0.00323421, -0.00567432, -0.000689081, -0.00190168, 0.00305568, -0.00516099, -0.00624046, -0.00336698, -0.00455943, -0.00890124, -0.00378697, -0.00262738, 0, -0.00160388, -0.00729835, -0.00562509, 0.00139742, -0.00850143, 0, 0, 0, 0, 0, 0, -0.00334881, 0, -0.00187924, -0.00323006, -0.0117234, -0.0111643, 0.00245823, -0.00333534, 0.00272671, 0.00323984, 0.00346383, -0.000759459, -0.0120947, -0.0056304, 0.0020386, 0.00760573, 0.011233, 0.00735412, -0.00464672, -0.00923356, -0.00316746, 0.00156556, 0.00869347, 0.008642, 0.00787462, 2.2982e-06, -0.00791563, -0.0087414, -0.00424771, -0.00172044, 0.00313215, 5.44344e-05, -0.00499003, -0.00601375, -0.00693269, -0.00317546, 0.00264535, 0.00242892, 0.00265126, -0.00363885, -0.0083079, -0.00672007, 0.00157092, 0.00741399, 0.00575414, 0.00879279, 0.00556655, -0.000357454, -0.00704904, -0.00329256, 0.00717199, 0.0120867, 0.0068407, 0.0071658, -0.00220243, -0.00696956, -0.00308596, 0.00607424, 0.00270156, 0.00250452, -0.00571223, -0.00801031, -0.00582594, -0.00885995, -0.00414667, 0.00150871, -0.0026687, -0.000519754, -0.0110204, -0.0108407, -0.00305475, -0.000892268, 0.00641207, 0.00351217, -0.000522118, -0.00515622, -0.0153225, -0.0103924, 0.000167223, 0.00643547, 0.0118404, 0.00591331, -0.010253, -0.0128641, -0.00490661, -0.000632026, 0.00443625, 0.00980511, 0.00836433, -0.00236039, -0.0101893, -0.00958957, -0.00135347, -0.0012631, 0.00479904, 0.0031192, -0.000967989, -0.00743531, -0.00737419, -0.00176387, 0.00338424, 0.00102098, -0.00179437, -0.00111003, -0.00751104, -0.00943164, -0.00426911, 0.00584192, 0.00598413, 0.0026876, 0.00131341, -0.00420773, -0.00845469, -0.00830424, 0.00406068, 0.00992655, 0.00464193, -0.00277945, -0.00733857, -0.0107028, -0.00269232, -0.00304591, 0.00307545, 0.0042359, -0.00601676, -0.00698435, -0.00726298, -0.00825379, -0.000885418, 0.000848704, -0.000732902, 0.000703867, -0.0100806, -0.0139233, -0.010878, -0.00109642, 0.00701835, 0.000799078, -0.00307814, -0.00126011, -0.0160773, -0.0143761, -0.00786301, 0.00204058, 0.00974304, 0.000159252, -0.0124984, -0.0116049, -0.00462468, -0.00570209, -0.00136788, 0.00691283, 0.0041245, -0.00643904, -0.012107, -0.0101655, -0.00190824, -0.00217578, 0.000290647, 0.00400556, -0.00173275, -0.0104314, -0.00645991, -0.00245815, 0.00496334, -0.00129777, -0.00341354, 0.000271506, -0.00858627, -0.0123096, -0.00738702, 0.00201272, 0.00411924, -0.00149846, -0.00625726, -0.00443306, -0.00918264, -0.0133512, -0.00175395, 0.00351655, 0.00202285, -0.00770879, -0.0132042, -0.0107145, -0.00339652, -0.00606395, -0.000208125, 0.00300372, -0.00464228, -0.0124865, -0.0127227, -0.00778397, 0.00236163, -0.0024807, -0.00344437, 0.00015275, -0.00822223, -0.0137922, -0.0102834, -0.00328991, 0.00459868, -0.000847623, -0.00427011, -0.00479085, -0.0102589, -0.0154906, -0.00977181, 0.000714553, 0.00761175, -0.00348087, -0.0119084, -0.0100522, -0.00321692, -0.00790234, -0.004595, 0.00417555, 0.00207834, -0.00882091, -0.0117656, -0.00749455, 0.000941665, -0.0059502, -0.00246901, 0.00204671, -0.00135297, -0.0106613, -0.00734459, -0.004346, 0.00399002, -0.00415066, -0.00552176, 0.000178531, -0.00731645, -0.011716, -0.0074897, -0.000370876, 0.00431348, -0.00380332, -0.0101911, -0.00591127, -0.0104823, -0.0121684, -0.00395583, 0.000778958, 0.00246842, -0.00949594, -0.0155982, -0.00993812, -0.00365495, -0.00760436, -0.00250106, 0.00145863, 3.90697e-05, -0.00951494, -0.0124828, -0.00766532, 0.000750456, -0.00431922, -0.00203165, -0.00133028, -0.00542201, -0.00978713, -0.0162826, 0.00275616, 0.00135122, -0.000935719, -0.00303742, -0.00500847, -0.0074505, -0.0127815, -0.00852001, 6.63141e-05, 0.00397056, -0.000993057, -0.0101745, -0.00866486, -0.000416318, -0.00766896, -0.00721528, 0.00202863, -0.000360445, -0.0115194, -0.0121343, -0.00808167, 0.000427561, -0.00469777, -0.00327706, -0.00075366, -0.00238082, -0.00555727, -0.00781414, -0.00629661, 0.00186518, -0.00399914, -0.0083096, -0.00159377, -0.00751004, -0.0103378, -0.0051369, 0.00193104, 0.00334468, -0.00567829, -0.0107109, -0.00656579, -0.00681451, -0.00951428, -0.00407022, -0.000413443, 0.00422072, -0.00972277, -0.0117714, -0.00855241, -0.00338227, -0.00749413, -0.00302483, 0.000572732, -0.00192196, -0.00893836, -0.0101668, -0.00741242, -2.79944e-05, -0.00198374, -0.00076111, -0.00172009, -0.00773944, -0.0084419, -0.00169193, -0.00401055, 0.0020505, -0.00172834, -0.00727493, -0.00602612, -0.00591928, -0.0096944, -0.0106863, 0.00238407, 0.00692385, -0.00346081, -0.0100473, -0.00931252, -0.00256348, -0.00518991, -0.00174502, -0.00106046, 0.00302491, -0.00390396, -0.00643009, -0.00527409, 0.00283638, -0.00481225, -0.00485398, -0.000182953, -0.000832068, -0.0054417, 0.00141759, -0.00258378, 0.00410931, -0.00321706, -0.00594159, -0.00184334, -0.00515967, -0.0141647, -0.00527591, -0.0027422, 0.00738042, -0.00112288, -0.00886402, -0.00706131, -0.0064728, -0.00986394, -0.000117626, -0.000875625, 0.000527978, -0.0032612, -0.0119068, -0.00987678, -0.003597, -0.00867007, -0.00225914, 0.00219131, 0.00217142, -0.0130613, -0.0130724, -0.00743934, 0.00163691, -0.00179349, -0.00513283, -0.00571286, -0.0105867, -0.0106341, -0.0116313, -0.00506859, -0.00292886, -0.00161139, 0.00219704, -0.000540212, -0.00774892, -0.00640733, 0.00508143, 0.000674569, 0.00496967, 0.00272447, -0.00546571, -0.00608466, -0.0034534, 0.00139577, 0.00350521, 0.00311738, 0.00463692, 8.91106e-05, -0.0110334, -0.0107008, -0.00735613, -0.00444554, -0.00189777, -0.00412747, -0.00920317, -0.0100567, -0.0106165, -0.00857829, -0.00619558, -0.00313013, -0.00657888, -0.00890881, -0.0130873, -0.0108564, -0.0032228, 0.00201746, 0.00327664, 0.000219311, 0.00371546, -0.00283286, -0.00622191, -0.006153, 0.00505676, 0.00390187, 0.00342789, -0.00424562, -0.0013553, -0.00599178, -0.00219483, 0.00408356, -0.00150319, -0.00290053, -0.00989065, -0.00819811, -0.0112429, -0.0125357, -0.00861967, -0.00307072, -0.00160307, -0.00349551, -0.0131901, -0.0115115, -0.00673328, -0.00460794, 0.000774702, 0.00220651, -0.000523574, -0.00096918, -0.0140885, -0.0096713, -0.00116374, 0.00250182, 0.00715753, 0.00391414, -0.0118681, -0.0145183, -0.00540666, 0.000464682, 0.00472264, 0.00714928, 0.00527899, -0.00363792, -0.0147327, -0.0144988, -0.00555445, -0.00338929, 0.000926609, -0.00159394, -0.00658117, -0.0100814, -0.0119027, -0.00984566, 0.000236227, 0.000410293, -0.00342219, -0.00636626, -0.010965, -0.0128384, -0.00425235, -0.000721537, 0.00238453, 0.00237514, -0.00153322, -0.00486803, -0.0118169, -0.00966449, 0.00383517, 0.00606103, 0.00394366, -0.00173427, -0.00809457, -0.0107228, -0.00305191, -0.000128716, 0.000996672, -0.000672521, -0.00780473, -0.00929951, -0.00972686, -0.0121852, -0.00590363, -0.00146258, -0.00057629, -0.000586442, -0.0130176, -0.0148529, -0.0102525, -0.00547529, 0.00348413, 0.00233257, -0.00167423, -0.00501515, -0.0163225, -0.0135233, -0.00683176, 0.00114345, 0.00686338, 0.0011515, -0.0123363, -0.0150309, -0.00719234, -0.000754377, 0.00277905, 0.00581095, 0.00116521, -0.00643643, -0.01493, -0.0140719, -0.00340863, 0.001295, 0.000699019, 0.00109888, -0.00533283, -0.0144858, -0.0129983, -0.00706096, -0.000585385, 0.000553166, -0.00161057, -0.0007182, -0.0122512, -0.0145586, -0.00698273, -0.00104582, 0.00402678, -0.00171182, -0.00259638, -0.00515538, -0.0134974, -0.0131974, 0.00197089, 0.00449713, 6.18059e-05, -0.00604849, -0.0123469, -0.0145722, -0.00556588, -0.00188574, 0.00166124, 0.000933097, -0.0093404, -0.0127478, -0.0137982, -0.0109223, -0.00276364, 0.000586163, -0.000113987, 0.000388259, -0.0112862, -0.0156675, -0.0110602, -0.0032223, 0.00349029, 0.00138026, -0.00254617, -0.00364663, -0.0146307, -0.0159228, -0.00946372, -0.00266223, 0.0063612, 0.00032645, -0.0122912, -0.0142049, -0.00421433, -0.00394556, -0.00140192, 0.00230329, 0.00153336, -0.00846155, -0.0131075, -0.0115053, 0.000614496, 0.000341132, 0.000807601, 0.00261758, -0.00452479, -0.0152741, -0.0125647, -0.00741458, 0.00207493, 9.10415e-05, -0.00175271, -0.00112093, -0.0111487, -0.0169479, -0.00832213, -0.00266026, 0.0041422, -0.00274399, -0.00555138, -0.00345272, -0.0125932, -0.0141514, 0.000471829, 0.00528124, 0.00195791, -0.00788043, -0.0150566, -0.0136087, -0.00334689, -0.00461995, 2.95397e-05, 0.0014951, -0.00338571, -0.016805, -0.015607, -0.0116868, 0.000439677, 0.000604508, 0.000805029, -0.00120225, -0.00831006, -0.0142128, -0.00895719, -0.00406065, 0.00502594, 0.000346618, -0.00173112, -0.00193211, -0.0110447, -0.0134816, -0.0099986, -0.00305313, 0.00458565, -2.01566e-05, -0.013059, -0.0118742, -0.00166557, -0.00376565, -0.002818, 0.00340344, -0.000373314, -0.00805088, -0.0134081, -0.0106149, 0.00335036, -0.000315705, -0.000236924, 0.00165549, -0.00450446, -0.0129011, -0.0102196, -0.00547795, 0.00382832, 0.000372581, -0.00152766, 0.000829418, -0.00972262, -0.0132758, -0.00783302, -0.00296561, 0.00338173, -0.00302157, -0.00774105, -0.00349446, -0.0108259, -0.0122005, -0.00261523, -0.000394567, 0.00307392, -0.00880269, -0.0142165, -0.0121609, -0.00267736, -0.00483644, 0.000340047, 0.00149283, -0.00572472, -0.010304, -0.01599, -0.0103075, 0.000419919, -5.60766e-05, 0.000550553, -0.000591363, -0.00537778, -0.00941143, -0.00696836, -0.00743102, 0.00202835, 0.000750811, -0.00581888, -0.00206339, -0.00635568, -0.00963931, -0.00889593, -0.0008312, 0.00593024, 0.0010581, -0.0110044, -0.0123828, 0.000619812, -0.00134748, -0.00137277, 0.00150266, 0.00348998, -0.00761705, -0.0101568, -0.0110289, 0.00317177, 0.00158303, 0.000442141, 0.000295486, -0.00453549, -0.0109548, -0.0104753, -0.00668143, 0.00545371, 0.00138523, -0.00168037, -0.00125892, -0.00833432, -0.00959627, -0.0087346, -0.00759215, 0.00437719, -0.000228637, -0.00584125, -0.00529255, -0.00885337, -0.012239, -0.00139421, 0.00094091, 0.00299697, -0.00340539, -0.0125532, -0.0122506, -0.00422452, -0.00479271, -0.000930229, 0.00108262, -0.000795097, -0.000357695, -0.0128765, -0.010406, 0.00117553, 0.0016058, -0.00464115, -0.00470955, -0.0122734, -0.00684012, -0.00684563, -0.00999414, -0.0048105, -0.00194144, -9.52179e-05, -0.00241684, -0.00586437, -0.00325485, 0.000621439, -0.000144209, 0.00493974, 0.00146123, -0.0024732, -0.00606216, -0.00285308, -4.04346e-05, 0.00950659, 0.00220593, 5.12375e-06, -0.00135549, -0.00934374, -0.0109356, -0.00633482, -0.00890227, -0.00573818, -0.00606046, -0.00800505, -0.0136048, -0.00882794, -0.0117852, -0.00633971, -0.00473752, -0.00636136, -0.0101856, -0.0128956, -0.011354, -0.000717621, 0.000288498, 0.00113397, -0.00375689, -0.0011477, -0.00421059, -0.00719093, -0.00497938, 0.00371919, 0.00710731, 0.00253401, 0.00112506, -0.00350467, -0.00340671, -0.00281382, 0.00152081, -0.00614668, -0.0054057, -0.00901984, -0.015786, -0.0124763, -0.00938674, -0.00792579, -0.00651386, -0.0031704, -0.00390784, -0.0109361, -0.00988485, -0.00459297, -0.00561537, -0.00177932, -0.00132016, -0.00187126, -0.00370676, -0.0110087, -0.00780097, -0.000139081, -0.000870759, 0.0034365, 0.00206015, -0.0086866, -0.00999391, -0.00186645, 0.00238557, 0.00442276, 0.00613527, 0.004851, -0.00283497, -0.0144005, -0.013715, -0.00725057, -0.00418957, -0.00131069, -0.00473741, -0.00696561, -0.0110523, -0.0122848, -0.00817326, -0.00477503, -0.00373848, -0.00573276, -0.00779469, -0.0121311, -0.0115893, -0.00439261, -0.00139793, 0.00173727, 0.00178636, -0.00197615, -0.00501193, -0.00955229, -0.00846876, 0.0023833, 0.00387886, 0.00311245, -0.00122068, -0.0056797, -0.00972556, -0.00198869, 0.000224673, -0.00139479, -0.00276903, -0.00735723, -0.00632213, -0.0130645, -0.0115248, -0.00819201, -0.00212114, -0.00134776, -0.00246488, -0.013362, -0.015143, -0.00837105, -0.00702039, 0.00134265, 0.00271479, 0.000330443, -0.000777049, -0.0149415, -0.0125509, -0.00795261, -0.00180499, 0.00395079, 0.00223246, -0.00990886, -0.013363, 0.00012458, 0.0017837, 0.00227305, 0.00320208, 0.00365359, -0.00447913, -0.0156637, -0.014575, -0.00313511, 0.000405267, 0.000250896, -0.00116608, -0.00977152, -0.0127407, -0.0113571, -0.00946215, -0.00304132, -0.00104646, -0.00207708, -0.00405041, -0.0133509, -0.0165979, -0.00742527, -0.00210574, 0.00252952, -0.000780536, -0.000802542, -0.00198753, -0.0129436, -0.0120791, 0.00214098, 0.00282513, 0.00136058, -0.00743301, -0.0108775, -0.0122464, -0.00296083, 0.000599277, -0.000492736, -0.00072062, -0.00912679, -0.010526, -0.0141845, -0.0137411, -0.00255086, 9.63378e-05, 0.00234983, -0.00210673, -0.0129424, -0.0163617, -0.0113537, -0.00528952, 0.00331173, 0.00148712, -0.000985602, -0.00565926, -0.0155979, -0.0160224, -0.0085221, -0.00181482, 0.00300152, -0.00043584, -0.0138374, -0.0136987, -0.00311979, -0.00112565, 0.000907667, 0.00272949, -0.00132099, -0.00721181, -0.0172019, -0.0147766, -3.18527e-05, -0.000112793, 0.00206505, 8.82976e-07, -0.00631608, -0.0157739, -0.0154777, -0.00960897, 0.000860313, -0.000818209, -0.000782895, -0.00179957, -0.0137996, -0.0153587, -0.00823926, -0.00365487, 0.00126261, -0.00184622, -0.00323709, -0.00237396, -0.0145628, -0.0130918, 0.000546972, 0.0030753, -0.00112109, -0.00926208, -0.0137178, -0.0161186, -0.000852737, -0.00436587, 0.00127283, 0.000616195, -0.0087042, -0.015824, -0.0169212, -0.0131243, -0.00177786, -0.00151791, 0.000652504, 0.000310482, -0.0102999, -0.0125025, -0.0130334, -0.00359765, 0.00374176, 0.00265668, -0.00262196, 0.000576132, -0.012098, -0.0133423, -0.0119833, -0.00141015, 0.00288315, -0.000224659, -0.0127142, -0.0152395, -0.000609275, -0.00302265, 0.00144226, 0.00352913, 0.00366389, -0.00779189, -0.0154588, -0.0139988, 0.00064877, 0.00240131, 0.00109391, 0.00119089, -0.00771048, -0.0155827, -0.0119857, -0.0096184, 0.00324149, 0.000221378, -4.05377e-05, 0.000107715, -0.0111137, -0.0141148, -0.00751744, -0.0034596, 0.00353589, -0.00135128, -0.00457489, -0.00420885, -0.0143368, -0.0154857, -0.000577768, 0.00289956, -0.000248019, -0.0099349, -0.0141474, -0.0150368, -0.00167964, -0.00193581, 0.00220375, 0.000296122, -0.00625878, -0.0111291, -0.0147646, -0.011861, 0.00121822, 0.00215005, 0.000609657, 2.12471e-05, -0.00880712, -0.0108142, -0.00480345, -0.00538309, 0.0033596, 0.00445098, -0.00188536, -0.00318415, -0.00950318, -0.00899346, -0.00729156, -0.000879007, 0.00338509, 0.00108676, -0.0132819, -0.0132568, 0.0011622, 0.0014203, 0.000575796, 0.00329479, 0.000889972, -0.00718619, -0.0138536, -0.0121007, 0.00440346, 0.00560748, 0.00344345, 0.00279345, -0.00619546, -0.0076305, -0.00868858, -0.00912058, 0.00481829, 0.00400387, 0.00222348, 0.00133774, -0.0109632, -0.018645, -0.00651072, -0.00543722, 0.00573322, 0.00120391, -0.00302681, -0.00212298, -0.010849, -0.0132236, 0.000665563, 0.0033894, 0.00259363, -0.00380486, -0.0137729, -0.0133266, -0.00294928, -0.00208459, 0.00271633, -0.000336945, -0.00585252, -0.00840489, -0.0121072, -0.0120052, 0.00232843, 0.00241024, -0.00370328, -0.00444334, -0.00707663, 0, 0, -0.00341494, -0.00365218, -0.00228434, -0.000679204, -0.00311184, -0.00364609, -0.00532525, 0, 0.00155144, -0.00269195, -7.70498e-05, -0.000489192, -0.00316029, -0.00045583, 0.00275012, 0.00585051, 0.00188853, 0.00435602, -0.000969322, -0.00750239, -0.0100604, -0.00487157, -0.00620545, -0.00280529, -0.00761732, -0.00688411, -0.0036896, -0.00511195, -0.0116921, -0.00527167, -0.0116639, -0.00678572, -0.00904484, -0.0121867, -0.0109906, -0.00228572, 0.00613983, 0.00165689, 0.00310239, -0.00330481, -0.00349581, -0.00404224, -0.0023214, 0.00126201, 0.00461832, 0.00959914, 0, -0.00451844, -0.00350263, -0.00170408, 0.000475405, -0.00609186, -0.00491088, -0.00759213, 0, -0.0129063, -0.00602243, -0.00744287, -0.00569654, -0.00317173, -0.00403748, -0.0103312, -0.0135261, -0.00222922, -0.00658403, -0.00284636, -0.00156987, -0.00192504, -0.00315264, -0.00872293, -0.00731498, -5.84564e-05, 0.000870885, 0.00341601, 0.00306046, -0.00648044, -0.00721476, -0.00131461, 0.00196822, 0.00292763, 0.00278162, 0.00259547, 0.000937989, -0.00939531, -0.011423, -0.00581113, -0.00365281, -0.00180599, -0.0036737, -0.0107577, -0.00835551, -0.010593, -0.00946883, -0.00539482, -0.00320705, -0.00414842, -0.00878809, -0.0119063, -0.0143319, -0.00291886, -0.00246967, 0.00408234, 0.00102037, -0.00283817, -0.00454921, -0.00819866, -0.00477774, 0.000710296, 0.00344307, 0.000320663, -0.00599915, -0.00544053, -0.00876938, -0.00321745, 0.00258091, -0.00220629, -0.00315749, -0.00551247, -0.0101321, -0.0104502, -0.00951688, -0.00632596, -0.00300019, 0.00020794, -0.00298372, -0.0119154, -0.0117335, -0.00911402, -0.0093001, -0.000531685, 0.00333291, -0.000621192, -0.00140232, -0.0106253, -0.0104875, -0.00547996, -0.00324253, 0.00527751, 0.000640653, -0.0074696, -0.00796828, 0.000555521, 0.00408129, 0.00378668, 0.00612976, -0.00115752, -0.00421051, -0.0116522, -0.012641, -0.00218353, 0.000338358, -0.000227449, -0.00336181, -0.00746967, -0.0120405, -0.0126373, -0.00922453, -0.000872637, -0.000906762, -0.00343205, -0.00437945, -0.013814, -0.0146723, -0.00656586, -0.00201538, 0.00323006, 1.71708e-06, -0.00113992, -0.00549618, -0.0116966, -0.0105747, 0.00301994, 0.00133224, -0.00469759, -0.00605002, -0.00930952, -0.0112883, -0.00322793, 0.00089736, 0.000160761, 0.000111053, -0.009419, -0.0139944, -0.0154619, -0.0114124, -0.00376646, -0.000258233, 0.000976712, -0.00134905, -0.013008, -0.0135268, -0.0120467, -0.00665235, 0.00149102, 0.00157574, 0.000311471, -0.000823664, -0.0151851, -0.0128497, -0.00875687, -0.00316336, 0.00342075, 0.00191474, -0.0109301, -0.0139443, 0.00178074, 0.00415337, 0.00348961, 0.00550442, -0.000142202, -0.00612882, -0.0141124, -0.0139463, -0.000338892, 0.00208785, 0.000946911, 0.000462367, -0.00776894, -0.010844, -0.0103042, -0.00869144, 0.000749507, 0.000940675, 0.000480873, -0.00379974, -0.0133996, -0.0165251, -0.00644019, -0.00318798, 0.00303498, 0.0018982, -0.00156637, -0.00500208, -0.0152523, -0.0126579, 0.00139026, 0.00375802, -0.000390397, -0.00763135, -0.0120387, -0.0137229, -0.00383649, -0.0009111, 0.00159665, -0.00135523, -0.0100981, -0.00848498, -0.0172873, -0.014435, -0.00292445, 0.00464903, 0.00210615, -0.00062581, -0.0116787, -0.0118078, -0.0115056, -0.00640965, 0.00348938, 0.00371216, -0.0012169, -0.00201259, -0.0145896, -0.0139333, -0.00702294, -0.000712735, 0.00255846, 0.00171457, -0.0127333, -0.0160297, 0.00019126, 0.00291337, 0.00281439, 0.00358977, 0.000837507, -0.00652634, -0.0144451, -0.0132437, 0.00105065, 0.00278642, 0.00170302, 0.00185715, -0.008327, -0.0150934, -0.0151804, -0.0084686, 0.00264798, 0.00284668, -0.00308915, 4.33576e-05, -0.0142712, -0.0138645, -0.00993909, -0.0032319, 0.00375278, 0.00157424, -0.00450203, -0.00256557, -0.0158078, -0.0144088, 0.0024034, 0.00491658, 0.000396613, -0.00898874, -0.0142747, -0.0164563, -0.00327912, -0.000703625, 0.00222502, 0.0011242, -0.007561, -0.00877473, -0.0147358, -0.0124816, -0.000124473, 0.00237866, 0.00172893, 0.00142544, -0.00919634, -0.0125493, -0.011378, -0.00336888, 0.00464268, 0.00170124, 0.000292472, -0.00415656, -0.0104035, -0.0111885, -0.00958224, 0.000552354, 0.00567371, 0.0037664, -0.0116863, -0.0147495, -0.000562759, 0.00199635, 0.00377426, 0.00293789, -0.000121197, -0.00155283, -0.0143644, -0.0126648, 0.0040602, 0.0063094, 0.00348718, 0.00311733, -0.00624289, -0.010576, -0.012105, -0.00825649, 0.00624581, 0.00600568, 0.0037596, 0.000459286, -0.0126767, -0.0159399, -0.00897036, -0.000273284, 0.00607474, 0.00343396, -0.00184565, -0.00491063, -0.0158973, -0.0141932, 0.00230581, 0.00416, 0.00212781, -0.00528379, -0.0138317, -0.0151566, -0.000515375, -0.000935288, 0.00125504, 0.00171497, -0.0075539, -0.00635296, -0.0134111, -0.0121139, 0.00120601, 0.00262623, -0.00414277, -0.0022835, -0.00879319, 0, 0, 0.000602672, -0.00340439, 0.00256878, -0.00192633, -0.00344941, -0.0032166, 0, 0, -0.000866414, 0.00443239, -0.00134826, 0.00231074, 0.0018261, 0.000744011, 0.00255174, 0, 0.00572579, -0.00287717, 0.00583696, -0.00859826, -0.00622033, -8.66794e-05, 0, 0, -0.00226238, -0.000645758, 0, 0, -0.0149648, -0.0084031, 0, -0.0113915, -0.0108687, -0.0167799, -0.0161129, 0.00170092, 0.000638819, 0.00104674, 0, -0.00159706, -0.00377434, -0.00554913, -0.00406648, 0.00149147, 0.0110216, 0, 0, -0.0122026, 0.000458566, 0.000176637, -0.0010298, -0.00058692, -0.00553961, -0.00314082, 0, 0, -0.000489492, -0.0046521, -0.00534827, -0.00214147, -0.00419451, -0.00644088, -0.0127366, -0.0116868, -0.00179264, -0.00283268, -0.00322813, 0.000100678, -0.00279049, -0.0050609, -0.00648277, -0.00484995, -0.00158838, -0.00240163, 0.000962924, -0.00223796, -0.00595665, 8.15216e-05, 0.00297786, 0.00795939, 0.00856088, 0.00236028, 0.00130041, -0.0109739, -0.012346, -0.00369417, -0.00361178, -0.00331102, -0.00461316, -0.000139497, -0.0135169, -0.00851767, -0.00799813, -0.00760088, -0.00632643, -0.00519909, -0.00933535, -0.0138082, -0.0137903, -0.00561904, -0.00271767, 0.00259938, 0.000353199, -0.00365299, -0.005394, -0.00817311, -0.00985898, 0.000451674, 0.00556479, -0.00184285, -0.00319619, -0.00773541, -0.00665637, -0.00292013, -0.00165451, -0.00219475, -0.00209717, -0.00585254, -0.0120378, -0.00608673, -0.00845877, -0.00627261, -0.00292042, -0.000378449, -0.00147008, -0.0109016, -0.00828588, -0.00949205, -0.00699573, -0.000824089, 0.00119183, 0.000103708, -0.000416696, -0.0093988, -0.00841963, -0.0054403, 0.00174933, 0.00465432, -0.000680238, -0.00533652, -0.00551233, 0.000735013, 0.00478583, 0.00765733, 0.00173061, 0.00581268, -0.000618005, -0.00669296, -0.00983474, -0.000751786, 0.00111489, 0.00215096, 0.000540261, -0.00531345, -0.0136755, -0.0105762, -0.00871344, -0.00237589, -0.000371579, -0.000195206, -0.00676793, -0.0118247, -0.0129115, -0.00933146, -0.00170275, -0.00173162, 0.000416782, -0.000124538, -0.00610352, -0.0098152, -0.00982245, 0.000961734, 0.00398412, -0.00186474, -0.00119424, -0.00919196, -0.00947857, -0.00358153, -0.000635286, 0.000302839, -0.00148212, -0.00222107, -0.0120239, -0.0150477, -0.0106779, -0.00330494, 0.000357654, 0.00234157, -0.00059293, -0.0123708, -0.0121323, -0.011333, -0.00525479, 0.000611585, 0.00294189, 0.00085692, -0.000346365, -0.0117833, -0.0102697, -0.00644735, 0.00129231, 0.00569826, 0.000963461, -0.00706715, -0.0065972, 0.00118731, 0.0043123, 0.00581175, 0.00665316, -8.97552e-05, -0.00675181, -0.0133631, -0.0116417, 0.00149184, 0.00464404, 0.00481571, 0.00027917, -0.00159854, -0.0106967, -0.0151051, -0.00493297, 0.00205809, 0.00114904, 0.00226844, -0.0039065, -0.012152, -0.0165554, -0.00990871, -0.00490035, 0.00172868, 0.000284527, 0.0010364, -0.0038715, -0.013552, -0.0129552, 0.00275255, 0.00285964, -0.00488145, -0.010255, -0.0128524, -0.0121896, -0.00371409, -3.82147e-05, 0.000386775, 0.00126649, -0.00637242, -0.0106561, -0.0144327, -0.0132517, -0.00314356, 0.00123208, 0.00279899, 0.000438584, -0.0108905, -0.0100511, -0.00784817, -0.00361054, 0.00460557, 0.00426882, -2.26762e-06, -0.000950994, -0.0134293, -0.0115057, -0.00876184, -0.00600885, 0.00639087, 0.00280446, -0.00830174, -0.0123844, -7.8639e-05, 0.00379934, 0.00369418, 0.00706002, 0.00123518, -0.00635351, -0.0114211, -0.0129418, 0.00052694, 0.00523693, 0.00523837, 0.00436951, -0.00694977, -0.0121354, -0.0112237, -0.00658243, 0.004392, 0.00285351, 0.00462343, -0.00208681, -0.0144327, -0.0178288, -0.0118251, -0.00869421, 0.00116933, 0.00190741, -0.00129143, -0.00211558, -0.0172205, -0.0154977, 0.00329768, 0.00191177, -0.00268354, -0.00894319, -0.0154782, -0.0157505, -0.00436867, -0.000104653, 0.0029157, 0.00300534, -0.00533394, -0.00853207, -0.0131111, -0.0119391, -0.00121627, 0.00199917, 0.00431637, 0.00145124, -0.00924252, -0.00832424, -0.00926969, -0.00733745, 0.00503653, 0.00525931, 0.0020357, -0.00278518, -0.0147259, -0.0106718, -0.00851378, -0.000165975, 0.00591467, 0.00459252, -0.0113425, -0.0148036, 0.000615144, 0.00342783, 0.00689362, 0.0031744, -0.00213899, -0.00541902, -0.00985842, -0.0129578, 0.00388951, 0.00680399, 0.00533912, 0.00501625, -0.00775423, -0.0179814, 0, -0.00439677, 0.00698792, 0.00500445, 0.00265824, -0.000298986, -0.0146463, -0.0140714, -0.0121944, -0.0129073, 0.00743773, 0.00343242, -0.000739245, -0.0035344, -0.0195583, -0.0145688, 0.00576587, 0.00448302, 0.00131803, -0.00267194, -0.0143283, -0.0163988, -0.00572683, -0.000525112, 0.00347854, 0.0042109, -0.00258727, -0.0047556, -0.0132648, -0.0133346, 0.000634995, 0.0036415, 
0.00304912, 0.00215521, 0.002147, 0.00594367, 0.00794083, 0.00316182, 0.00190602, 0.00159125, 0.00114952, 0.00301863, 0.00138592, 0.00209395, 0.00326185, 0.00172593, 0.00128477, 0.000848476, 0.000810762, 0.00124181, 0.00332357, 0.00217705, 0.00182556, 0.00132672, 0.00152795, 0.00104766, 0.000882832, 0.000777142, 0.00127132, 0.00361255, 0.00168318, 0.000843133, 0.00101089, 0.00104898, 0.00106125, 0.00100405, 0.000876007, 0.00172108, 0.00380338, 0.00126583, 0.000767772, 0.000837153, 0.000974645, 0.00140973, 0.00128883, 0.00182184, 0.0021523, 0.0036454, 0.00116554, 0.000726417, 0.000819075, 0.00128906, 0.00186217, 0.00301559, 0.00197743, 0.00123257, 0.0036903, 0.00118897, 0.00157586, 0.00180254, 0.00337388, 0.00856093, 0.00488466, 0.00183833, 0.00230417, 0.00421007, 0.0017204, 0.00165229, 0.00160908, 0.00243559, 0.00416314, 0.00285411, 0.00158746, 0.00128282, 0.000843521, 0.00142039, 0.000956515, 0.000933112, 0.00143261, 0.00159777, 0.00118721, 0.000747135, 0.000670872, 0.000846419, 0.00132052, 0.000924485, 0.000812024, 0.00118723, 0.00149239, 0.00101151, 0.000839458, 0.00067756, 0.000911207, 0.00103141, 0.000736512, 0.000715616, 0.000987218, 0.00112227, 0.00107349, 0.000985984, 0.000745145, 0.000763214, 0.0011092, 0.000907847, 0.00068371, 0.000853664, 0.000921111, 0.0014066, 0.00108862, 0.000789419, 0.000903628, 0.00132878, 0.000851104, 0.000659373, 0.000721961, 0.00117905, 0.00160832, 0.00139241, 0.000853995, 0.00091271, 0.00123667, 0.000874441, 0.0012864, 0.00161006, 0.00271739, 0.00406315, 0.0023522, 0.00167203, 0.00167113, 0.00192686, 0.0014322, 0.00149973, 0.00174114, 0.00258593, 0.00463051, 0.00319014, 0.00170516, 0.00132501, 0.00084797, 0.000999548, 0.000951267, 0.00098165, 0.00160788, 0.00187366, 0.00141916, 0.000878533, 0.000829628, 0.000850594, 0.000959566, 0.000878713, 0.000932838, 0.00137076, 0.00183217, 0.00135666, 0.00114147, 0.000786917, 0.000827261, 0.000793434, 0.000743571, 0.000847887, 0.00124593, 0.00143351, 0.0013793, 0.00119328, 0.000836557, 0.00074385, 0.000796797, 0.000810065, 0.000771085, 0.00109571, 0.00128126, 0.00156339, 0.0012938, 0.000841286, 0.00081841, 0.000930564, 0.000805542, 0.000775569, 0.000875178, 0.00141436, 0.00192534, 0.00157033, 0.000948859, 0.000949052, 0.000949733, 0.000853548, 0.00152071, 0.00174395, 0.00306456, 0.00460109, 0.00308386, 0.00183057, 0.0015821, 0.00141948, 0.00162659, 0.00184448, 0.00220556, 0.00323433, 0.0068915, 0.00519527, 0.00272811, 0.00170796, 0.000892281, 0.00100567, 0.00106693, 0.00121333, 0.00227677, 0.00256999, 0.00199847, 0.00107344, 0.000995198, 0.00094271, 0.00102098, 0.00091085, 0.00118976, 0.0019579, 0.00243638, 0.00174428, 0.00153159, 0.0010183, 0.000941797, 0.000822724, 0.00085445, 0.00102912, 0.00166308, 0.00196445, 0.001835, 0.00178066, 0.00104408, 0.000831614, 0.000800103, 0.000861216, 0.00100984, 0.00148511, 0.00157929, 0.00207198, 0.00186956, 0.00104262, 0.000934116, 0.000947204, 0.000891068, 0.000937489, 0.0010454, 0.00188897, 0.00272142, 0.00205049, 0.00122351, 0.00101351, 0.000947819, 0.000903129, 0.00182447, 0.00240402, 0.00521287, 0.00520605, 0.00406223, 0.00241912, 0.00190239, 0.00148505, 0.00230613, 0.00281716, 0.00350391, 0, 0, 0, 0.00502448, 0.00264873, 0.00124142, 0.00137573, 0.00135983, 0.00187434, 0.00397436, 0.00463408, 0.00305626, 0.00179632, 0.00154975, 0.00128112, 0.00128404, 0.00136373, 0.00180046, 0.00297893, 0.00410505, 0.00305106, 0.00255424, 0.00172853, 0.00117555, 0.00110123, 0.00118068, 0.0016303, 0.00255012, 0.00288595, 0.00322602, 0.00306328, 0.00160295, 0.00116982, 0.00111291, 0.00115543, 0.0016205, 0.00266688, 0.00255129, 0.00337727, 0.00303515, 0.0016162, 0.00120499, 0.0011165, 0.00115467, 0.00153111, 0.0017064, 0.00396722, 0.00410909, 0.00393614, 0.00175311, 0.00139211, 0.00124121, 0.00115126, 0.00352515, 0.00434209, 0, 0, 0, 0.00363308, 0.00301783, 0.00247435, 0, 0.00468229, 0, 0, 0, 0, 0, 0.00611568, 0.00279435, 0.00206254, 0.00236078, 0.00347223, 0.00533744, 0, 0.00578289, 0.00413621, 0.00319681, 0.00225128, 0.0020586, 0.00233106, 0.00284789, 0.00569036, 0.00836311, 0.00940528, 0.00692292, 0.00322725, 0.00194984, 0.00190166, 0.0019384, 0.00272345, 0.00568395, 0, 0, 0.00526312, 0.00377595, 0.00202505, 0.00161882, 0.00190543, 0.00294052, 0.00706042, 0.00672719, 0.0056935, 0.0055966, 0.00304983, 0.00183133, 0.00183069, 0.00177595, 0.00293397, 0.00426686, 0.00591713, 0, 0.00592384, 0.00266097, 0.00234761, 0.00199305, 0.00223046, 0, 0, 0, 0, 0, 0, 0.00530757, 0, 0.00102731, 0.000871747, 0.000887521, 0.00261231, 0.00438471, 0.00132993, 0.000794549, 0.000756118, 0.000877109, 0.00124838, 0.000928453, 0.00158521, 0.00249901, 0.00143618, 0.00110753, 0.00072465, 0.000681857, 0.00085692, 0.00140922, 0.00168086, 0.00159488, 0.00117331, 0.00140714, 0.000980499, 0.00088878, 0.000685651, 0.000873657, 0.00178546, 0.00132809, 0.000740115, 0.000965304, 0.00108802, 0.00111635, 0.000999739, 0.000774241, 0.0013076, 0.00186239, 0.000865682, 0.000682426, 0.000876303, 0.000970367, 0.00131388, 0.0012119, 0.00155283, 0.0017429, 0.00139823, 0.000839699, 0.000673641, 0.000717419, 0.00115446, 0.00170157, 0.00275179, 0.00162741, 0.000985298, 0.00127184, 0.000910194, 0.000735872, 0.000800796, 0.00141834, 0.00401473, 0.00235456, 0.000841989, 0.000873239, 0.00106557, 0.00153016, 0.000785011, 0.00068929, 0.0011056, 0.0017374, 0.0010896, 0.000665941, 0.000667551, 0.000808298, 0.00226215, 0.000821982, 0.000699574, 0.00110147, 0.00132909, 0.00093875, 0.000619763, 0.000560112, 0.000750015, 0.00193195, 0.000854273, 0.000673161, 0.000924592, 0.0011823, 0.000849202, 0.000736943, 0.000586138, 0.000848651, 0.00136156, 0.000701178, 0.000624053, 0.000845442, 0.00104529, 0.00103146, 0.000843483, 0.000628274, 0.000666408, 0.00146484, 0.000817817, 0.000599173, 0.000734856, 0.000836352, 0.00114871, 0.000933975, 0.000681484, 0.000818586, 0.00214834, 0.000751483, 0.000592403, 0.000629662, 0.000938726, 0.00134888, 0.00118941, 0.000730797, 0.000807844, 0.00199002, 0.000806627, 0.000662291, 0.000666482, 0.00107535, 0.00186648, 0.00112805, 0.000725718, 0.000859556, 0.00135926, 0.000950821, 0.00074994, 0.000741148, 0.00113561, 0.00168503, 0.00119038, 0.000697101, 0.000680139, 0.000722109, 0.0011741, 0.000786723, 0.000694423, 0.0010986, 0.00140573, 0.00101081, 0.000671496, 0.000646249, 0.000737542, 0.00124545, 0.000791973, 0.00069863, 0.000995808, 0.00125958, 0.000948033, 0.000867265, 0.000622098, 0.000778007, 0.00101466, 0.000651691, 0.000675812, 0.000942104, 0.00121152, 0.00113539, 0.000915927, 0.000646577, 0.000667657, 0.00089786, 0.000772247, 0.000635443, 0.000871634, 0.000960343, 0.0011918, 0.000996523, 0.000693091, 0.000816539, 0.00117489, 0.000758549, 0.000633046, 0.000686905, 0.00102154, 0.00141895, 0.00119499, 0.00073828, 0.000817428, 0.0012435, 0.000816829, 0.000671364, 0.000693247, 0.00116656, 0.00175063, 0.00115799, 0.000735976, 0.000799832, 0.000996302, 0.000709624, 0.000725159, 0.000781419, 0.0013083, 0.00203268, 0.00139307, 0.000805981, 0.00066707, 0.000695773, 0.000855915, 0.000782426, 0.000816829, 0.00131472, 0.0016168, 0.00121542, 0.000704996, 0.000685426, 0.000728796, 0.000875544, 0.000768152, 0.000755533, 0.00114146, 0.00159512, 0.00110992, 0.00100296, 0.000708733, 0.000732569, 0.000761976, 0.000655229, 0.000718188, 0.00117677, 0.00137951, 0.00136817, 0.00108252, 0.000731753, 0.000670486, 0.000749513, 0.000714598, 0.000694165, 0.000997488, 0.00113116, 0.00148435, 0.00113987, 0.000749017, 0.000740495, 0.000865415, 0.000724914, 0.000692759, 0.000747141, 0.00118579, 0.00181795, 0.00133997, 0.000805921, 0.000818421, 0.000896035, 0.000768347, 0.000670624, 0.000797824, 0.00150289, 0.00210831, 0.00139475, 0.000805671, 0.000742166, 0.000744465, 0.000780866, 0.000879672, 0.0011125, 0.00226272, 0.0034394, 0.00247118, 0.00107644, 0.00079264, 0.000836532, 0.000877709, 0.000839758, 0.000960972, 0.00185045, 0.0023792, 0.00178024, 0.000963746, 0.000913341, 0.000793581, 0.000862834, 0.000844074, 0.000951604, 0.00168269, 0.00232337, 0.00172918, 0.00161584, 0.00089834, 0.000809667, 0.000770077, 0.000763821, 0.000929869, 0.00182212, 0.00220142, 0.00200689, 0.00157233, 0.000973981, 0.000759685, 0.000763436, 0.000778055, 0.000916793, 0.00164507, 0.00160413, 0.00215666, 0.00169972, 0.000931325, 0.00080444, 0.000829914, 0.000783953, 0.000878629, 0.000968455, 0.00183986, 0.00246815, 0.00188477, 0.000998794, 0.000864805, 0.000884088, 0.000826233, 0.000813558, 0.00109761, 0.00251879, 0.00322904, 0.00222677, 0.00108235, 0.000847874, 0.00074721, 0.00155291, 0.0013795, 0.00204252, 0.00351865, 0.00534203, 0.00463294, 0.00219194, 0.00158535, 0.0013423, 0.00108649, 0.00125253, 0.00140922, 0.00276935, 0.00398462, 0.00284562, 0.0018981, 0.00171605, 0.00115985, 0.00100643, 0.00105716, 0.00148996, 0.00249059, 0.00347283, 0.00357529, 0.00320439, 0.00149564, 0.00107041, 0.000954145, 0.000999507, 0.00145539, 0.00292067, 0.00428696, 0.00371639, 0.0027137, 0.00137189, 0.000997043, 0.0009548, 0.00109152, 0.00144976, 0.00284964, 0.00329977, 0.00345116, 0.00270091, 0.00132504, 0.0010391, 0.00112395, 0.0011559, 0.00161219, 0.00196255, 0.00285479, 0.00375745, 0.00283795, 0.00149686, 0.00123505, 0.00116005, 0.00133359, 0.00175113, 0.00216926, 0.0043169, 0.00566036, 0.00329889, 0.00201682, 0.00148027, 0.00146329, 0.00075362, 0.000809784, 0.000973229, 0.00276121, 0.0041371, 0.00146819, 0.00088626, 0.00071442, 0.000816991, 0.000954704, 0.000914406, 0.00177635, 0.00321779, 0.00191977, 0.00130077, 0.00080123, 0.000801449, 0.000810499, 0.000965163, 0.00159622, 0.00170391, 0.00136951, 0.00172097, 0.00125377, 0.00117533, 0.000837053, 0.000863617, 0.00153333, 0.0013922, 0.000869582, 0.00131224, 0.00143237, 0.00146373, 0.00132898, 0.000951257, 0.00136935, 0.00142645, 0.000847633, 0.000802331, 0.00115866, 0.00120923, 0.00165842, 0.00145511, 0.00177227, 0.00155722, 0.000935561, 0.000811609, 0.000783962, 0.000822211, 0.00129672, 0.00204714, 0.00302919, 0.00169921, 0.000883693, 0.000978533, 0.000821147, 0.000738429, 0.000851118, 0.00169068, 0.00430609, 0.00269309, 0.000943508, 0.000821705, 0.000806744, 0.000904209, 0.000768305, 0.000695857, 0.00120755, 0.00166948, 0.00108996, 0.000657786, 0.000640398, 0.000759836, 0.00117388, 0.00078757, 0.000731182, 0.0011399, 0.00136382, 0.000961934, 0.000651991, 0.000608849, 0.000765126, 0.00129273, 0.000778331, 0.000701833, 0.000997754, 0.00127834, 0.000947311, 0.000843222, 0.000635864, 0.000793231, 0.00104271, 0.000693973, 0.000701401, 0.000958091, 0.00117192, 0.00114313, 0.000930845, 0.000656161, 0.00067206, 0.00105811, 0.000793591, 0.000658236, 0.000877962, 0.000889933, 0.00128925, 0.000975189, 0.000710636, 0.000734142, 0.00118571, 0.000727988, 0.000621302, 0.000646267, 0.000983671, 0.00137465, 0.00117389, 0.000743432, 0.000797055, 0.00120965, 0.000764753, 0.000652733, 0.000655288, 0.00109498, 0.00176818, 0.0011537, 0.000705874, 0.000810492, 0.00093355, 0.00161055, 0.000790555, 0.000683418, 0.00101253, 0.00150745, 0.00103256, 0.00066119, 0.000712403, 0.000831098, 0.00203374, 0.000826332, 0.000719081, 0.00103984, 0.00130658, 0.000939207, 0.00068598, 0.000664207, 0.000740315, 0.00195795, 0.000852933, 0.000661226, 0.000943933, 0.00126756, 0.000947139, 0.000905489, 0.000637715, 0.00084801, 0.00154267, 0.000726276, 0.000677112, 0.000935986, 0.00115408, 0.00116631, 0.000941337, 0.000684726, 0.000740484, 0.0016522, 0.000842483, 0.000641734, 0.000871536, 0.000935503, 0.0012144, 0.000976549, 0.000673432, 0.000861858, 0.00234732, 0.000773924, 0.000640486, 0.000688417, 0.000929945, 0.00133105, 0.00107612, 0.000695161, 0.000795732, 0.00193707, 0.000948642, 0.00070743, 0.000651104, 0.00102877, 0.00148302, 0.00105025, 0.000711254, 0.000838205, 0.00146653, 0.0010227, 0.000789645, 0.000707636, 0.00108758, 0.00160203, 0.00113098, 0.0006968, 0.000703709, 0.000810121, 0.0012306, 0.000805277, 0.000712668, 0.00112947, 0.00147127, 0.00105387, 0.00068229, 0.000652456, 0.000776517, 0.00127445, 0.000802693, 0.00067722, 0.0010172, 0.00133856, 0.000967809, 0.00092503, 0.000681992, 0.000816036, 0.00106649, 0.000705495, 0.000699355, 0.001016, 0.0012775, 0.00122967, 0.000995124, 0.000710675, 0.000707798, 0.00108731, 0.000814318, 0.000658464, 0.000906709, 0.000964952, 0.00136747, 0.00104384, 0.000700809, 0.000812344, 0.00130486, 0.000758523, 0.000636447, 0.000687902, 0.00104098, 0.0014821, 0.00113066, 0.000747784, 0.00077118, 0.00138427, 0.000855521, 0.000734367, 0.000694872, 0.00118428, 0.00157139, 0.00109295, 0.000710713, 0.000791923, 0.00107586, 0.00082995, 0.000763102, 0.000827267, 0.00145871, 0.0020736, 0.00144991, 0.000764859, 0.000708162, 0.000770773, 0.000905085, 0.000843163, 0.000799668, 0.00137857, 0.00188839, 0.00131361, 0.000770934, 0.000737435, 0.000754706, 0.000949789, 0.000783119, 0.000760387, 0.00138626, 0.0019204, 0.00134102, 0.00122413, 0.00077665, 0.000790224, 0.000865189, 0.000706623, 0.000818066, 0.00132625, 0.00181654, 0.00178196, 0.00133071, 0.000832482, 0.000695887, 0.00084453, 0.000778499, 0.000762193, 0.00121542, 0.00132039, 0.00176063, 0.00134355, 0.000765935, 0.000775176, 0.000942212, 0.000735409, 0.000741958, 0.000783144, 0.00133125, 0.00213311, 0.00144193, 0.000816284, 0.000800381, 0.0009443, 0.000773088, 0.000693288, 0.000817634, 0.00151649, 0.00239583, 0.0013362, 0.000823659, 0.000784775, 0.000858084, 0.00096461, 0.000843689, 0.00112401, 0.00202449, 0.00299516, 0.00247087, 0.00112322, 0.00099028, 0.00104523, 0.00094191, 0.000938894, 0.00101601, 0.00187434, 0.00267518, 0.00197987, 0.00129509, 0.00124026, 0.00090272, 0.000851159, 0.000799261, 0.000998458, 0.00188215, 0.00283027, 0.00244436, 0.00213816, 0.00103755, 0.000830328, 0.000768017, 0.000782194, 0.00104491, 0.00198038, 0.00290544, 0.00316558, 0.00202417, 0.00103598, 0.000772719, 0.000740191, 0.000845037, 0.00111395, 0.00217233, 0.00229535, 0.00252452, 0.00183006, 0.000940945, 0.000785832, 0.00087992, 0.000919759, 0.0012314, 0.00131814, 0.00190397, 0.0025842, 0.00190686, 0.00103115, 0.000915128, 0.000958478, 0.00103372, 0.00101914, 0.00108179, 0.00247661, 0.00289515, 0.00210894, 0.00116432, 0.000854273, 0.000972584, 0.000832808, 0.000935659, 0.00118606, 0.00331901, 0.0051915, 0.00212461, 0.0010923, 0.000805209, 0.000845497, 0.000932541, 0.00104188, 0.00218241, 0.00496074, 0.00277769, 0.00174253, 0.00106372, 0.00102812, 0.000947942, 0.00103247, 0.00191923, 0.00260659, 0.00191492, 0.00245911, 0.00185857, 0.00153314, 0.000988609, 0.000931198, 0.00161144, 0.00169924, 0.00109686, 0.00172605, 0.00188996, 0.00190193, 0.00177253, 0.0010988, 0.00167658, 0.00163028, 0.000872455, 0.000989153, 0.00159137, 0.0017137, 0.00234388, 0.00212879, 0.00256306, 0.00164766, 0.000983915, 0.000909719, 0.00102056, 0.00101409, 0.00201058, 0.00277276, 0.00397793, 0.0021908, 0.000957365, 0.000975603, 0.000837907, 0.00081289, 0.00109054, 0.00240772, 0.00567242, 0.00332807, 0.00116197, 0.000875521, 0.000800439, 0.000726227, 0.000720294, 0.000756346, 0.00131726, 0.00184109, 0.00126025, 0.000731214, 0.000661051, 0.000717292, 0.000811012, 0.000764289, 0.000811456, 0.00142101, 0.00167141, 0.00118558, 0.000712883, 0.000718024, 0.000750519, 0.000839146, 0.000781711, 0.00080053, 0.0013332, 0.00162371, 0.00118573, 0.000998315, 0.000691723, 0.000740942, 0.000800657, 0.000661715, 0.000747457, 0.00115001, 0.00139059, 0.00135219, 0.00116634, 0.000745708, 0.000685802, 0.000751303, 0.00075758, 0.000722604, 0.00108074, 0.00117747, 0.00153992, 0.00121499, 0.000797614, 0.000720591, 0.000850101, 0.000716406, 0.000701823, 0.000711561, 0.0011454, 0.00178937, 0.00145258, 0.000797888, 0.000792669, 0.000863864, 0.000728941, 0.00064076, 0.000738904, 0.00131673, 0.00201203, 0.00134478, 0.000771035, 0.000735372, 0.000710535, 0.00105386, 0.000793606, 0.000708004, 0.00110443, 0.00153016, 0.00111046, 0.000675611, 0.000691971, 0.000854088, 0.00128117, 0.00080732, 0.000722671, 0.0011238, 0.00150728, 0.000986245, 0.000717363, 0.000701756, 0.00076346, 0.0012833, 0.000813721, 0.000681955, 0.00105214, 0.00136731, 0.00106994, 0.000904558, 0.000651876, 0.000814521, 0.00116174, 0.000692806, 0.000691302, 0.000994255, 0.00126353, 0.00126209, 0.00101083, 0.000695387, 0.000706359, 0.0011607, 0.000824393, 0.000641684, 0.000928758, 0.00102597, 0.00133175, 0.00103411, 0.000707988, 0.000815346, 0.00131847, 0.000751547, 0.000662204, 0.000693993, 0.000998494, 0.0014256, 0.00112894, 0.000731508, 0.000826373, 0.0012684, 0.000822154, 0.000687531, 0.000680167, 0.00108943, 0.00153626, 0.00103628, 0.00073441, 0.000796451, 0.00119021, 0.00170586, 0.000824002, 0.000707126, 0.000977656, 0.00137626, 0.0010342, 0.000683194, 0.000748783, 0.000872632, 0.00215209, 0.000838092, 0.000708016, 0.00107238, 0.00138963, 0.00098938, 0.000675877, 0.000654759, 0.000805146, 0.00207596, 0.000866084, 0.000664898, 0.00101652, 0.00137235, 0.00102242, 0.000875104, 0.000643449, 0.000926142, 0.00159898, 0.000747723, 0.000668304, 0.000960193, 0.00120569, 0.00123183, 0.000961527, 0.000676758, 0.000741084, 0.00163512, 0.000839288, 0.000647708, 0.000866888, 0.000977196, 0.00134363, 0.000997483, 0.000677082, 0.000882178, 0.00210647, 0.00078546, 0.000636893, 0.000676978, 0.00100959, 0.00144511, 0.00107997, 0.000690676, 0.00079862, 0.00211182, 0.000878071, 0.000719894, 0.000670628, 0.00107789, 0.00141937, 0.000974953, 0.000694771, 0.000878702, 0.0020078, 0.00117869, 0.000826941, 0.000750005, 0.0011616, 0.00179757, 0.00123641, 0.000703422, 0.00075142, 0.00084183, 0.00136836, 0.00088355, 0.000743083, 0.00122115, 0.00180089, 0.00109542, 0.000709814, 0.000713845, 0.000793511, 0.0013135, 0.000861413, 0.000727649, 0.00110429, 0.00174561, 0.00119193, 0.00103298, 0.00069798, 0.000827092, 0.00114486, 0.000728237, 0.000704722, 0.00111713, 0.00149403, 0.00167495, 0.0011205, 0.000708469, 0.000713416, 0.00130243, 0.000830509, 0.000684487, 0.00106635, 0.00115846, 0.00164618, 0.00119683, 0.000715465, 0.000842498, 0.00141568, 0.000772529, 0.000671408, 0.00073516, 0.00110076, 0.00181346, 0.00124016, 0.00076248, 0.000802365, 0.00134308, 0.000817477, 0.00072891, 0.000727543, 0.00122628, 0.00179719, 0.00117584, 0.00073076, 0.000823862, 0.00126215, 0.000937046, 0.000755012, 0.000842908, 0.00143899, 0.00219229, 0.00188077, 0.000881784, 0.000801301, 0.000919488, 0.00098303, 0.000786216, 0.000772942, 0.0014563, 0.00229233, 0.0015167, 0.00100245, 0.00102236, 0.000769268, 0.000877706, 0.000692511, 0.000759733, 0.00150517, 0.00251179, 0.00214288, 0.00159737, 0.000797563, 0.000752244, 0.000722275, 0.000639547, 0.000818145, 0.0015763, 0.00230929, 0.00244243, 0.00151471, 0.000795115, 0.000656756, 0.0007105, 0.000767456, 0.00084579, 0.00165558, 0.0018912, 0.00219558, 0.0013866, 0.000772444, 0.000690373, 0.000927749, 0.000834748, 0.000964582, 0.00101758, 0.00145318, 0.00210983, 0.00145637, 0.000778329, 0.000812541, 0.000958358, 0.000910436, 0.000813537, 0.000815265, 0.00168383, 0.00226958, 0.00140063, 0.000899411, 0.000809662, 0.000894825, 0.00108778, 0.00131597, 0.00170943, 0, 0, 0.00343093, 0.00159393, 0.00116634, 0.00121551, 0.00116783, 0.00152141, 0.00339477, 0, 0.00433702, 0.00338225, 0.00177265, 0.00155677, 0.00125698, 0.00134997, 0.00296468, 0.00507899, 0.00319145, 0.00350543, 0.00303637, 0.00260169, 0.00162825, 0.00134206, 0.00235737, 0.00307412, 0.00181121, 0.00270804, 0.00359409, 0.0031209, 0.003356, 0.00196958, 0.0032074, 0.00254258, 0.00119551, 0.00159136, 0.00266238, 0.00263201, 0.00358916, 0.00343668, 0.00599504, 0.00242358, 0.00118564, 0.00110982, 0.00158989, 0.00153995, 0.00300381, 0.00486608, 0, 0.00352048, 0.00131447, 0.00120124, 0.00118983, 0.00108783, 0.00173158, 0.00381356, 0, 0.00567863, 0.00194566, 0.00124664, 0.00108201, 0.000719963, 0.000772816, 0.000986231, 0.00211312, 0.00301753, 0.00187049, 0.000930943, 0.000754626, 0.000830115, 0.000876688, 0.00086908, 0.00110076, 0.00255093, 0.0024292, 0.00180459, 0.000935045, 0.000894337, 0.000832003, 0.000869072, 0.000900228, 0.00118267, 0.00179737, 0.00225235, 0.00169225, 0.00160348, 0.000928567, 0.000818294, 0.000832476, 0.000808902, 0.000957138, 0.00174853, 0.00217447, 0.00227925, 0.00173313, 0.000975884, 0.000812055, 0.000799159, 0.000846936, 0.000927522, 0.00165128, 0.00163348, 0.00218935, 0.00178154, 0.0011108, 0.000845701, 0.000871532, 0.000799089, 0.000904625, 0.000927832, 0.00175349, 0.0025341, 0.00230597, 0.0011027, 0.000901221, 0.000863286, 0.000813235, 0.000728131, 0.00090707, 0.00199769, 0.00321516, 0.00215583, 0.000941743, 0.000824353, 0.000766826, 0.000804177, 0.000786542, 0.000813512, 0.00131032, 0.0020939, 0.00131805, 0.000718894, 0.000703027, 0.000780185, 0.000958461, 0.000802263, 0.000856928, 0.00144793, 0.00195821, 0.00130138, 0.000784628, 0.000749982, 0.000780334, 0.000952287, 0.000765928, 0.000828072, 0.00132095, 0.00184781, 0.00136006, 0.00128246, 0.000770338, 0.000787687, 0.000832354, 0.000716086, 0.000801034, 0.00128927, 0.00184209, 0.00187127, 0.00127834, 0.000784105, 0.000724019, 0.000807578, 0.000795608, 0.000748367, 0.00129205, 0.0013302, 0.00166418, 0.0012924, 0.000797463, 0.000773969, 0.000959719, 0.000787231, 0.000762189, 0.000810157, 0.00130377, 0.0020244, 0.00145589, 0.000809655, 0.000835464, 0.000912357, 0.000765498, 0.000708833, 0.000738809, 0.00132457, 0.00212284, 0.00140198, 0.000801482, 0.000780927, 0.000828293, 0.00118924, 0.000826527, 0.000760421, 0.00116535, 0.00167926, 0.00112836, 0.000710464, 0.000733694, 0.000870987, 0.00136383, 0.000827861, 0.000770928, 0.00133658, 0.00168547, 0.00116514, 0.000741498, 0.000692235, 0.000806742, 0.00147431, 0.000814764, 0.000688524, 0.00110313, 0.00167601, 0.00116592, 0.00102399, 0.000692785, 0.000845727, 0.00131998, 0.000720858, 0.00071425, 0.0011643, 0.00156783, 0.00159192, 0.00114227, 0.000755911, 0.000759252, 0.0011281, 0.000857102, 0.000687515, 0.00105568, 0.00114852, 0.00168808, 0.00112435, 0.000727311, 0.000858784, 0.00134236, 0.000804434, 0.000700607, 0.00071769, 0.00107798, 0.00177728, 0.00125191, 0.000754617, 0.000820183, 0.00157039, 0.000861938, 0.000730315, 0.000707813, 0.00123147, 0.00173766, 0.00110399, 0.000712409, 0.000799732, 0.00134512, 0.00183076, 0.000853105, 0.000742665, 0.00122909, 0.00183253, 0.00121051, 0.000699592, 0.00076534, 0.00091533, 0.00197805, 0.000879422, 0.000755227, 0.001295, 0.00185725, 0.00118952, 0.00071946, 0.000717464, 0.000832124, 0.00227607, 0.000892315, 0.000722588, 0.00116169, 0.00188847, 0.00116793, 0.00112608, 0.00071309, 0.000955699, 0.00179708, 0.000799224, 0.00074528, 0.00123575, 0.00178789, 0.00183025, 0.00122994, 0.000729059, 0.000784304, 0.00187647, 0.000869536, 0.000699841, 0.00109217, 0.00119312, 0.00201755, 0.00113225, 0.000718728, 0.000888998, 0.00198464, 0.000802103, 0.000693191, 0.000723983, 0.00114849, 0.00196311, 0.00128503, 0.000745965, 0.000864059, 0.00202227, 0.000883604, 0.000779839, 0.000699595, 0.00125977, 0.00190434, 0.00113022, 0.000729474, 0.000902304, 0.00159716, 0.00112908, 0.000753906, 0.000762501, 0.00118131, 0.00216293, 0.00162201, 0.000787847, 0.000758429, 0.000885325, 0.00125394, 0.000781475, 0.000705962, 0.00141935, 0.00249639, 0.00147457, 0.000924207, 0.000892826, 0.000740675, 0.00124484, 0.000707086, 0.000699059, 0.00134978, 0.0023852, 0.00192614, 0.00156104, 0.000773216, 0.000783619, 0.000882053, 0.000632576, 0.00074776, 0.00160541, 0.00301872, 0.00331393, 0.00154627, 0.000711691, 0.000644263, 0.000892215, 0.000832177, 0.000815073, 0.00152846, 0.00198051, 0.00219424, 0.0013102, 0.000661804, 0.000710096, 0.00129842, 0.00080083, 0.000858972, 0.000906524, 0.00140131, 0.00251759, 0.00142275, 0.000693712, 0.000813666, 0.00137697, 0.000923163, 0.000764937, 0.000751499, 0.00148969, 0.00222811, 0.00122664, 0.000809836, 0.000837454, 0.00111165, 0.00152878, 0.00201813, 0.00299166, 0, 0, 0.00561592, 0.00286229, 0.00205622, 0.00201385, 0.00203706, 0.0024412, 0, 0, 0.00628131, 0.00482557, 0.00305427, 0.00296806, 0.00208103, 0.00209363, 0.0049254, 0, 0.00670434, 0.00648048, 0.0052337, 0.00672667, 0.00402624, 0.00274741, 0, 0, 0.0044252, 0.00619749, 0, 0, 0.00658333, 0.00426312, 0, 0.00537738, 0.00247293, 0.0029547, 0.00731568, 0.00602224, 0.00738938, 0.00793456, 0, 0.0057071, 0.00189328, 0.0018744, 0.00330575, 0.00292665, 0.0047564, 0, 0, 0.0069319, 0.00221069, 0.00178848, 0.00196796, 0.00184574, 0.0032353, 0.00578708, 0, 0, 0.00320052, 0.00187906, 0.00179991, 0.000901338, 0.00100674, 0.00142911, 0.00354503, 0.00506447, 0.00279215, 0.00132423, 0.000970749, 0.00103481, 0.00104848, 0.00122466, 0.00189045, 0.00441112, 0.00380323, 0.002479, 0.00138641, 0.00143705, 0.0011634, 0.00107681, 0.00142841, 0.00221527, 0.00320448, 0.00365536, 0.00299617, 0.00349232, 0.00182669, 0.00146669, 0.00153797, 0.00176084, 0.00188961, 0.00371289, 0.00439368, 0.00425926, 0.00336464, 0.00195279, 0.00176428, 0.00147432, 0.00139488, 0.0017074, 0.00298628, 0.00279999, 0.0037853, 0.00300839, 0.00214921, 0.00142383, 0.00115571, 0.00122164, 0.0014887, 0.00145069, 0.00283133, 0.00407848, 0.0051996, 0.00184603, 0.00121032, 0.00103803, 0.001059, 0.000947167, 0.00141445, 0.00252162, 0.0047497, 0.00308682, 0.00136477, 0.000983138, 0.000903583, 0.000737726, 0.000758053, 0.000968473, 0.0020519, 0.00307566, 0.00191018, 0.000934122, 0.000747382, 0.000876187, 0.000857476, 0.000910441, 0.0011365, 0.00245852, 0.00265787, 0.00187332, 0.00101506, 0.00105771, 0.000898523, 0.000944299, 0.000902852, 0.00111537, 0.00185094, 0.00274824, 0.00207918, 0.00228295, 0.00127472, 0.00110049, 0.00100243, 0.00100867, 0.00143595, 0.00250739, 0.00366022, 0.00306848, 0.0024391, 0.00138126, 0.00100376, 0.00093888, 0.0010457, 0.00127593, 0.00220485, 0.00203571, 0.00244811, 0.00196724, 0.0011056, 0.000928618, 0.00102822, 0.000862741, 0.00111385, 0.00106699, 0.00173021, 0.00275737, 0.00263872, 0.00111644, 0.000942935, 0.000940583, 0.000856428, 0.000753571, 0.000967812, 0.00178229, 0.00290368, 0.00195246, 0.00100573, 0.000768186, 0.000741574, 0.000724308, 0.000680244, 0.000782731, 0.00133065, 0.0023173, 0.00137396, 0.0007439, 0.000637617, 0.000735566, 0.000867775, 0.00079271, 0.000834927, 0.00175201, 0.00218487, 0.00140774, 0.000801912, 0.000804995, 0.000777985, 0.000920106, 0.000753074, 0.000828213, 0.00146303, 0.0022808, 0.00147938, 0.0016618, 0.00099973, 0.000928335, 0.000907424, 0.000831155, 0.0010429, 0.00202251, 0.00283742, 0.00266982, 0.00191219, 0.00107692, 0.000829195, 0.00088669, 0.000886192, 0.00101574, 0.00166711, 0.00160849, 0.0021959, 0.0015589, 0.000861474, 0.000784012, 0.000986842, 0.000814938, 0.000869403, 0.000794731, 0.00144916, 0.00244343, 0.00188106, 0.000870817, 0.000828832, 0.000978852, 0.000760356, 0.000649362, 0.000760826, 0.00147102, 0.00214536, 0.00141838, 0.000773932, 0.00069476, 0.000717219, 0.000881646, 0.000687884, 0.000677172, 0.00124952, 0.00219613, 0.0012666, 0.000680297, 0.000636128, 0.000765158, 0.00116463, 0.000753952, 0.000756044, 0.00148266, 0.00220818, 0.00128382, 0.000700756, 0.000747577, 0.000768499, 0.00117452, 0.000800808, 0.000729339, 0.00132449, 0.00234031, 0.00154215, 0.00166688, 0.000888524, 0.000908407, 0.00112733, 0.000774466, 0.000938636, 0.00192402, 0.00302439, 0.0033668, 0.0019392, 0.000960536, 0.000774023, 0.00110351, 0.000901545, 0.000897292, 0.00155112, 0.00156257, 0.00246646, 0.00146894, 0.000769176, 0.000828135, 0.00128678, 0.000792644, 0.00079995, 0.00075797, 0.00138862, 0.00249365, 0.00162755, 0.000793991, 0.000779894, 0.00136342, 0.000843229, 0.000631478, 0.000691264, 0.00137358, 0.0019757, 0.0012381, 0.000686453, 0.000687657, 0.000887495, 0.00106693, 0.000668825, 0.000625297, 0.00107672, 0.00190849, 0.0014692, 0.000642118, 0.000624807, 0.000790439, 0.00152066, 0.000666725, 0.000627199, 0.00136966, 0.00257611, 0.0013795, 0.000824969, 0.000845254, 0.000713086, 0.00156491, 0.000650045, 0.000621606, 0.00137673, 0.00286555, 0.00232202, 0.00260341, 0.000873473, 0.000814419, 0.00100029, 0.000610094, 0.000886987, 0.00266673, 0.00777428, 0, 0.00246719, 0.000822206, 0.000623175, 0.00104364, 0.000853741, 0.000902307, 0.00230878, 0.00235677, 0.00314158, 0.00137594, 0.000648262, 0.00072533, 0.0019382, 0.000766987, 0.000931738, 0.000886543, 0.00141091, 0.00241136, 0.00151923, 0.000664275, 0.000760426, 0.00180255, 0.000888577, 0.00061401, 0.00061542, 0.00145377, 0.00203688, 0.00111116, 0.000668608, 0.000720314, 0.00108777, 
