-3.14159, -2.35619, -1.5708, -0.785398, 0, 0.785398, 1.5708, 2.35619, 3.14159, 
-3.14159, -2.35619, -1.5708, -0.785398, 0, 0.785398, 1.5708, 2.35619, 3.14159, 
0, 0.035, 0.06, 0.09, 0.13, 0.18, 0.25, 
0, 0.035, 0.06, 0.09, 0.13, 0.18, 0.25, 
0.00639193, 0.000646237, -0.00450527, -0.00576666, -0.00685438, 0.00377456, 0.00698826, 0.00637786, 0.00428883, -0.00118488, -0.00829448, -0.00474953, 0.0015168, 0.010215, 0.0143412, 0.00854561, -0.00285869, -0.0062186, 0.00314374, -0.00129972, -0.000414235, 0.00772305, 0.00785796, 0.00196269, -0.0079019, -0.00459453, -0.000110098, 0.000200423, 0.000575717, -0.000907829, -0.00339149, -0.00807753, -0.00619651, -0.000411661, 0.000649841, 0.00161018, -0.00265435, -0.00605615, -0.00730258, -0.0061985, 0.00398519, 0.0130723, 0.00897599, -0.00152258, -0.00475413, 0.000546726, -0.00585831, -0.000390905, 0.00801845, 0.0136756, 0.0064223, -0.00309395, -0.00697283, -0.00562171, 2.63826e-05, 0.00318029, 0.00332925, 0.00722273, 0.00186757, -0.00782139, -0.00746697, -5.05697e-05, 0.00502391, 0.00092726, -0.00259475, 0.00462166, -0.0034942, -0.00733063, -0.00364438, 0.00471781, 0.00885628, 0.00260371, -0.00114693, -0.00203589, -0.00799928, -0.00843045, -0.000151168, 0.0114617, 0.0160059, 0.00483656, -0.00634797, -0.00473953, -0.000530988, -0.0076582, -0.00154776, 0.00644351, 0.00820242, -0.00215578, -0.00659288, -0.00132533, 0.00590522, -0.00470189, -0.00206994, 0.00100348, 0.00141345, -0.00506303, -0.00587819, 0.00232569, 0.00519003, -0.000604694, -0.00602679, -0.00125011, -0.00283352, -0.0093321, -0.000795947, 0.0072329, 0.00735591, 0.000224217, -0.00486346, -0.00130141, -0.00292562, -0.0046054, 0.00134899, 0.0105709, 0.00660938, -0.0049252, -0.00703307, -0.00210101, 0.00234757, -0.00285293, 0.000588465, 0.00698419, 0.00371221, -0.00487208, -0.00344071, -0.00091955, 0.00680952, -0.000483175, -0.00414378, 0.00157818, -0.0050456, -0.0103327, -0.00895262, -0.000868416, 0.00477183, -0.0023912, -0.00502562, -0.00089942, -0.00453184, -0.0122415, -0.00865189, 0.00272812, 0.00754154, -0.00306884, -0.00821925, -0.00528302, -0.00154414, -0.0119239, -0.00864898, 0.000630079, -0.000103171, -0.0076857, -0.00738999, -0.00353687, 0.00343263, -0.00805029, -0.00824965, -0.000452692, -0.00208059, -0.0149415, -0.0079909, 0.000394101, 0.00433782, -0.00536411, -0.0115776, -0.00489939, -0.00631186, -0.0132818, -0.00507794, 0.00388389, 0.00417945, -0.00536823, -0.011389, -0.00464318, -0.00489512, -0.0100408, -0.00340503, 0.00561629, 0.00364932, -0.00897079, -0.0114759, -0.00650589, -0.00156482, -0.00816074, -0.00172719, 0.00552639, 0.000161464, -0.00659344, -0.00873359, -0.00394842, 0.00396836, -0.00431082, -0.00463087, -0.00240967, -0.00399334, -0.0137674, -0.00996969, -0.0041024, 6.86434e-05, -0.00538826, -0.00587401, -0.00281559, -0.00335389, -0.012059, -0.0128506, -0.000230156, -0.000531108, -0.00838847, -0.00820231, -0.00336535, -0.00153048, -0.0117405, -0.00944276, -0.00170137, -0.000843233, -0.00597899, -0.00658966, -0.00272454, 0.00203194, -0.00880727, -0.0115225, -0.00343261, -0.00733077, -0.0134014, -0.00439036, -0.000107791, 0.00180573, -0.00769108, -0.0109208, -0.0040178, -0.00751073, -0.00991182, -0.00508396, -0.000387057, 0.00363109, -0.00781962, -0.0118355, -0.00519982, -0.0063103, -0.00859375, -0.00333112, 0.000546269, -0.00186854, -0.0124555, -0.013814, -0.00766228, -0.00412881, -0.00944919, -0.00275961, 0.00150525, 0.00050057, -0.00802574, -0.0089013, -0.00609347, -0.00110487, -0.00503989, -0.00344369, -0.00474091, -0.0036422, -0.0170059, -0.00953169, -0.00678964, 0.000849143, -0.0062528, -0.00640969, -0.00419571, -0.00133564, -0.0117436, -0.0130473, -0.000760821, 1.76245e-05, -0.00470667, -0.00716487, -0.00632781, -0.000170678, -0.00844699, -0.0106253, -0.00367337, -0.00117503, -0.00733526, -0.00783111, -0.00511371, 0.00274177, -0.00919966, -0.00955107, -0.00610086, -0.00511072, -0.00796531, -0.00758384, -0.000403914, 0.00161902, -0.00801387, -0.0103201, -0.00606769, -0.00469975, -0.00801904, -0.00903369, 3.34571e-05, 0.00205327, -0.00655714, -0.0126208, -0.00543887, -0.00715653, -0.00686606, -0.00381858, 0.00108175, 0.00231312, -0.0133868, -0.0128929, -0.00596861, -0.00431919, -0.00769264, -0.00306401, -0.00259129, 0.00168834, -0.00749386, -0.0122194, -0.00614431, -0.00286842, -0.00655527, -0.0115198, -0.00828476, -0.00461711, 0.00547223, 0, -0.0144815, -0.0020393, -0.00709185, -0.00584728, -0.00563265, -0.00210708, -0.0125296, -0.00996541, -0.00907468, -0.00613903, -0.0047213, -0.00653742, -0.0055077, -0.000191549, -0.0105311, -0.0135674, 0.00133472, 0.00114013, -0.00928442, -0.00580558, -0.0055873, 0.0029249, -0.00866887, -0.00876134, -0.001454, -0.0143096, 0, 0, -0.0156938, -0.00160082, -0.00675893, -0.0111927, -0.00422134, -0.0122809, -0.0128043, -0.00877461, 0.00492604, 0.000610015, -0.0112996, -0.010221, -0.00666958, -0.00553892, -0.00590592, -0.00327742, -0.00578681, 0.0085945, -0.00534053, -0.0098709, -0.00643842, -0.00326453, -0.0070509, -0.00343251, -0.00154323, 0.00675683, 0, -0.00598336, -0.00806007, -0.00204183, -0.00636614, -0.000953844, -0.000762036, -0.00432838, -0.00635749, -0.00490201, -0.00204676, 0.00149728, 0.000329062, 0.00450246, 0.0014333, -0.00393042, -0.00308267, 0.00271129, 0.00796166, 0.0100954, 0.0072758, -0.00313752, -0.00689404, -8.21319e-05, 0.00437446, 0.00529407, 0.00784282, 0.00935652, 0.00240486, -0.00816753, -0.00962707, -0.00802647, -0.00396616, 0.00111065, 1.19239e-05, -0.00291098, -0.00558587, -0.00574014, -0.00201253, -0.00081745, -0.0015916, -0.00547495, -0.00400176, -0.00535101, -0.00400311, 0.00298416, 0.00986532, 0.00683277, 0.00314768, -0.000400953, 1.68671e-05, -0.00477893, -0.00137852, 0.00816361, 0.0139022, 0.0102558, 0.00346538, -0.00137089, -0.0015479, 0.00271255, 0.00694513, 0.00303126, 0.00543003, 0.000553994, -0.00285387, -0.00714146, -0.00522254, -0.00382375, 0.000694934, 0.00027119, 0.00174777, -0.00651908, -0.009323, -0.00684781, 0.000405274, 0.00540394, 0.00406957, 0.00226757, -0.00184742, -0.0119858, -0.00919532, -0.00199795, 0.0074888, 0.0118434, 0.00600236, -0.00634019, -0.00967253, -0.00723284, -0.00215977, 0.00397921, 0.00802914, 0.009465, 0.000303057, -0.00867173, -0.00975694, -0.00162252, -0.00079946, 0.00247131, 0.00247023, 0.00163496, -0.00664212, -0.00685068, -0.00188932, 0.00227123, 0.00151595, -0.000105736, -0.00131331, -0.00470025, -0.00880446, -0.00101493, 0.00741835, 0.00738792, 0.00356316, -0.00111769, -0.0066013, -0.00765305, -0.00794615, 0.00465815, 0.0122157, 0.0102583, 0.00174916, -0.00475928, -0.00773162, -0.00391828, -0.00135973, 0.00421706, 0.00593793, 0.000427666, -0.00412835, -0.00829665, -0.0068421, -0.000475615, 0.000532374, -0.00239181, 0.00385664, -0.00664397, -0.0116867, -0.00967513, -0.00408399, 0.0035106, 0.000921964, -0.00165175, -0.00157295, -0.0122682, -0.0156016, -0.00852665, -3.97575e-05, 0.0065919, 0.00115119, -0.00982976, -0.0113105, -0.00136847, -0.00672108, -0.00443877, 0.00339388, 0.00281779, -0.00516349, -0.0112356, -0.0091854, 0.00126546, -0.00340584, -0.00229949, 0.00190715, -0.00235706, -0.0112205, -0.00763831, -0.00386051, 0.00365164, -0.000302636, -0.00448887, -0.000372459, -0.0086185, -0.0120115, -0.00455987, 0.00421802, 0.00755311, -0.00110085, -0.00856205, -0.00666093, -0.0100969, -0.0131221, 0.00112413, 0.00769362, 0.00518042, -0.00532777, -0.0111443, -0.0122974, -0.00482673, -0.00630288, 0.0014021, 0.00536032, -0.00180343, -0.00963288, -0.0127024, -0.0115141, -0.000398265, -0.00301911, -0.00267134, -0.000983285, -0.00770421, -0.0143241, -0.0107122, -0.00597655, -0.00132824, -0.00132212, -0.00379145, -0.00367327, -0.00866581, -0.0151168, -0.0105578, -0.0023701, 0.00237431, -0.0026287, -0.0113783, -0.0103615, -0.00320337, -0.0100463, -0.00725456, -0.000304816, -0.000483107, -0.00787796, -0.0103089, -0.0103118, 0.0016451, -0.00560408, -0.00537027, 0.00132657, -0.00630701, -0.0100154, -0.00739048, -0.00394361, 0.00325298, -0.00327365, -0.00812281, -0.00138516, -0.00881813, -0.0110439, -0.00683113, 0.00127212, 0.00404157, -0.00401991, -0.0110314, -0.00876131, -0.0116327, -0.0134878, -0.00253621, 0.00392167, 0.00604793, -0.00893718, -0.0142928, -0.0127673, -0.00808819, -0.00836197, 0.00128964, 0.00182242, -0.00257007, -0.0105235, -0.0172535, -0.00969599, -0.00375244, -0.00456958, -0.00281491, -0.00245626, -0.00531591, -0.0125054, -0.0127482, -0.00594854, -0.000807448, -0.00302216, -0.00584785, -0.00559708, -0.00751803, -0.0134799, -0.0126762, -0.00266697, 0.00252627, -0.00321112, -0.00951403, -0.0103128, -0.00227888, -0.0097473, -0.0079735, -0.00059182, -0.00401586, -0.00753789, -0.0115627, -0.00979625, 0.000834277, -0.004969, -0.00547545, -0.000483733, -0.00485124, -0.010389, -0.00856418, -0.00964878, 0.00294423, -0.00465817, -0.00762662, -0.00326898, -0.00918935, -0.0121412, -0.00685385, -0.00512502, 0.00463698, -0.00741768, -0.011434, -0.00837695, -0.0113693, -0.0119364, -0.00306942, 0.00204651, 0.00182006, -0.0121116, -0.0150276, -0.0105632, -0.00918411, -0.00761713, -0.00193946, 0.000882609, 0.000980479, -0.018578, -0.0156347, -0.0121912, -0.00301964, -0.00427601, -0.00158328, -0.00306432, -0.00463864, -0.0105858, -0.0140939, -0.00367965, -0.00285874, -0.00393968, -0.00625409, -0.0046207, -0.00533107, -0.0130359, -0.0153559, -0.00221946, -0.00104811, -0.00345878, -0.0107994, -0.0116057, -0.00343034, -0.00703604, -0.00726849, -0.0072186, 0.000780713, -0.00649938, -0.00686998, -0.0114979, 0.000749824, -0.0050328, -0.00591898, -0.00218558, -0.00167559, -0.007982, -0.0117137, -0.00923635, 0.00353437, -0.00303714, -0.00787619, -0.00377772, -0.00800581, -0.0124842, -0.00719196, 0.000119502, 0.00299166, -0.00453719, -0.0132784, -0.00882044, -0.0103509, -0.0105354, -0.00289024, -0.00033668, 0.00576475, -0.00412305, -0.0167518, -0.0125251, -0.0101803, -0.00789338, 0.000173554, -0.00202112, -0.000867651, -0.000715262, -0.0151216, -0.00833001, -0.00285174, -0.00448775, -0.00312892, -0.003891, -0.00733372, -0.00784443, -0.0085651, -0.00385474, -0.00342194, -0.00166455, 0.00238918, 0.000131637, -0.0040898, -0.00205451, -0.000495181, 0.00300614, 0.00558148, 0.0045288, -0.00274594, -0.00631906, -0.000727556, 0.00221495, 0.00475928, 0.00480761, 0.00470343, 0.0012615, -0.0133717, -0.0130505, -0.0110653, -0.00845971, -0.00645766, -0.0032739, -0.00708855, -0.00868885, -0.00946147, -0.0111407, -0.00808539, -0.00803575, -0.00977688, -0.0110047, -0.0118283, -0.0117645, -0.00111498, 0.000305727, 4.7185e-05, 0.000660402, -0.00239859, -0.00329972, -0.00683706, -0.00452005, 0.00426248, 0.00810919, 0.00134329, -0.0018233, -0.00268692, -0.00385352, -0.000779013, 0.00237038, -0.00247156, -0.00247226, -0.00591553, -0.00851139, -0.0102311, -0.00985699, -0.00752045, -0.00326462, -0.00158657, -0.00349021, -0.0101094, -0.00957355, -0.00782817, -0.0052909, 0.001812, 0.00179007, 0.0027901, -0.000520472, -0.00988339, -0.0092102, -0.00173656, 0.00396732, 0.00927323, 0.00568592, -0.00838104, -0.0121567, -0.00179688, 0.000748772, 0.00456788, 0.00684635, 0.00442074, -0.00187041, -0.0143201, -0.0156079, -0.00858119, -0.00321779, 0.000994138, -0.00249863, -0.00658973, -0.0108044, -0.0110812, -0.0104839, -0.00358663, -0.00176056, -0.00509461, -0.00702823, -0.0119077, -0.0154543, -0.00594959, 0.00108475, 0.00148063, 0.0022578, 0.000404325, -0.00788042, -0.0119399, -0.0105192, 0.00457576, 0.0058549, 0.00221163, -0.00141416, -0.00809955, -0.00890167, -0.00372907, 0.000707756, 0.000277944, 0.000814681, -0.00486692, -0.010103, -0.0118478, -0.0121314, -0.00724426, -0.00276702, 0.00109715, 0.000625085, -0.0111766, -0.0153404, -0.0111457, -0.00702175, 0.00148536, 0.000886894, 0.00134895, -0.000355143, -0.0150748, -0.0145412, -0.00827472, -0.00097556, 0.0030861, 0.00217321, -0.0113241, -0.0146916, -0.00483532, -0.00229771, -0.000207358, 0.00359671, 0.00177685, -0.00693725, -0.014084, -0.01536, -0.00267624, 0.00157568, -0.000129251, -0.000370837, -0.00791899, -0.0148492, -0.010762, -0.00942011, -7.77415e-05, 0.00109641, -0.000783201, -0.00186602, -0.0127707, -0.0164679, -0.00856376, -0.000342412, 0.00246905, 0.00075537, -0.00286416, -0.00190221, -0.0141927, -0.0143546, 0.0013965, 0.00633989, 0.000481472, -0.00602602, -0.0133466, -0.0147936, -0.00296264, -0.0034923, 0.00224768, 0.00267692, -0.00790301, -0.0142105, -0.0154864, -0.0140172, -0.00231779, -0.00135678, 0.000926101, -0.000257312, -0.0109077, -0.0153421, -0.014276, -0.00968063, -0.000384758, -0.000841426, -0.00337987, -0.00217837, -0.0132929, -0.0164056, -0.010828, -0.00338537, 0.00110568, -0.000864583, -0.0131106, -0.0148255, 4.01585e-05, -0.00533349, -0.0019374, 0.00231221, -0.00359693, -0.00875248, -0.0132603, -0.0148342, 0.00131616, -0.0014405, -0.000777961, -0.000417269, -0.00823135, -0.0158623, -0.0115298, -0.0117122, 0.0018279, -0.000789675, -0.00339901, -0.000123963, -0.0126319, -0.0158063, -0.00882288, -0.00697883, 0.00581947, -0.00166023, -0.00674562, -0.00445654, -0.01498, -0.0161388, -0.000172195, 0.00257706, 2.1524e-05, -0.0106711, -0.016704, -0.0167408, -0.00714305, -0.0037729, 0.00302238, 0.00241056, -0.00541171, -0.0145352, -0.0187849, -0.0149578, -0.00337868, -0.000981036, -7.03548e-05, -0.0006063, -0.00906997, -0.0138902, -0.0179886, -0.00854736, -0.00132735, -0.00158178, -0.00314691, -0.00423467, -0.0106126, -0.0158087, -0.0143971, -0.00302412, -0.000160878, -0.000212645, -0.0123387, -0.0135352, 0.000506696, -0.00583382, -0.00369485, 0.000106366, -0.00131032, -0.00954971, -0.0143998, -0.0143094, 0.00108285, -0.00246643, -0.00105687, 0.000317994, -0.00778861, -0.0150051, -0.0120575, -0.0130571, 0.00182472, -0.00109861, -0.00449504, -0.000665942, -0.0127403, -0.0141734, -0.00924856, -0.00791823, 0.00293654, -0.00318791, -0.00834152, -0.00576384, -0.0115875, -0.0131948, 0.000863558, -0.000182405, -0.000600535, -0.0119023, -0.0170126, -0.0135221, -0.00596193, -0.00565036, 0.00414647, 0.00195493, -0.00623271, -0.0151403, -0.0190212, -0.0134144, -0.00120579, 0.00114478, -0.00151068, -0.000254017, -0.00859993, -0.0123666, -0.0159815, -0.0104467, -0.000196099, -0.0029274, -0.00498749, -0.00485754, -0.00751181, -0.0131508, -0.0130522, -0.00439599, 0.00161036, -0.00306414, -0.0122458, -0.0126982, -0.000627761, -0.00463101, -0.00573724, -0.00131879, -0.0036781, -0.00606236, -0.0132607, -0.0123622, 0.00149388, -0.00133649, -0.00225154, -0.00164086, -0.0083117, -0.0154463, -0.0141037, -0.00989689, 0.00311663, 0.000185337, -0.00254585, -0.00150086, -0.00904224, -0.0130059, -0.00831364, -0.00468211, 0.00494663, -0.00319376, -0.00946307, -0.00677315, -0.0120516, -0.0119343, -0.00183532, -0.00112197, -8.70505e-05, -0.0113524, -0.0161821, -0.0128743, -0.0042099, -0.0050181, 0.00290717, 1.81988e-05, -0.00390627, -0.0135605, -0.0172252, -0.012697, -0.00246443, -0.000469315, -0.0056753, -0.00486509, -0.00607668, -0.00387981, -0.00356556, -0.00229919, -0.00494831, -0.00322001, -0.000661676, -0.00370945, -0.0062986, -0.00505578, 0.000265667, -0.00184394, -0.000669395, 0.000512157, -0.00420351, -0.00417885, -0.00170795, 0.0026705, 0.00385945, 0.00372711, 0.00070757, 0.00226168, -0.0125789, -0.0115629, -0.0106603, -0.00950582, -0.00799099, -0.00739982, -0.00981192, -0.00858658, -0.00807049, -0.011104, -0.00928664, -0.0106438, -0.0124725, -0.0124614, -0.0126796, -0.0103996, -0.00324549, -0.00117599, -0.00339982, -0.00137796, -0.00615457, -0.00672174, -0.00540901, -0.00521774, -0.000788783, 0.000802623, -0.00310347, -0.0060297, -0.00862273, -0.00770372, -0.00548759, -1.22257e-05, -0.00555387, -0.00508995, -0.00607161, -0.00859375, -0.0112724, -0.00921106, -0.00872859, -0.00442934, -0.00261165, -0.00432492, -0.00943249, -0.011314, -0.0075324, -0.0072511, -0.00103126, 0.000393755, 0.000759131, -0.00443403, -0.0107769, -0.0098611, -0.00573225, -0.00200816, 0.00335889, 0.0027093, -0.00639615, -0.00913489, -0.00231882, 0.0012325, 0.00436468, 0.00394521, 0.00253531, -0.000613213, -0.0125323, -0.0149357, -0.00919227, -0.00550392, -0.00276295, -0.0063499, -0.00983134, -0.0124252, -0.0143183, -0.0109275, -0.00716253, -0.00492791, -0.00763633, -0.0115823, -0.015274, -0.0149512, -0.00664938, -0.000718705, 0.000571823, -0.00115887, -0.00206055, -0.00838541, -0.0123426, -0.0106437, -8.94005e-05, 0.000890211, -0.00276917, -0.00493942, -0.00817031, -0.0111394, -0.00780378, -0.00262201, -0.00289799, -0.00255807, -0.007715, -0.00971283, -0.011996, -0.0117861, -0.00758175, -0.00537432, 0.000621174, -0.00217601, -0.013273, -0.0143269, -0.0117313, -0.00747731, 0.00177289, 0.00269221, -0.000635548, -0.00218192, -0.0147144, -0.0148971, -0.00932357, -0.00230555, 0.00181294, 0.00248567, -0.0101804, -0.0132609, -0.00227522, 0.000698922, 0.00286352, 0.00243379, 0.00126984, -0.00598109, -0.0164701, -0.0154141, -0.00536008, -0.00157458, -0.000503622, -0.00224091, -0.0099973, -0.0138659, -0.012528, -0.010949, -0.00178684, 0.000861581, -0.00209773, -0.00495264, -0.0179575, -0.0183903, -0.00713595, -0.00274798, 0.00222416, 0.00071819, -0.000998422, -0.00462812, -0.0162864, -0.0154138, -0.000914932, 0.000218926, -0.00230467, -0.00835162, -0.013917, -0.0139537, -0.00426029, -0.00437801, -0.000539518, -0.00165067, -0.00860994, -0.0127967, -0.0159403, -0.0157814, -0.0048524, -0.0013607, 0.000926615, -0.00117778, -0.0128803, -0.0156923, -0.0131953, -0.00827429, 0.00115135, 0.00218361, 0.000267395, -0.00278976, -0.0162466, -0.0168607, -0.0117138, -0.00613538, 0.000473653, -0.00120222, -0.0127509, -0.0159153, -0.00480919, -4.72658e-05, 0.000323905, 0.00245269, -0.00251138, -0.0109975, -0.0159915, -0.0174863, 0.000811412, 0.00423914, 0.00103498, -0.000853363, -0.0112652, -0.0155395, -0.0144755, -0.0124886, 0.00138466, 0.000841625, 0.00176091, -0.00327428, -0.0177713, -0.0187728, -0.00942827, -0.00591451, 0.00390036, -0.000389287, -0.00346656, -0.00451635, -0.0168552, -0.0148993, 5.38269e-05, -0.000810469, -0.00255455, -0.0104605, -0.0160469, -0.0175728, -0.00158807, -0.0023372, 0.00146871, -0.000427898, -0.00714921, -0.0153143, -0.0183374, -0.0157233, -0.00336713, -0.000952844, 0.00238447, 0.000113707, -0.0124196, -0.0143234, -0.0133099, -0.00972152, 0.000853442, 0.00224659, -0.00213554, -0.004352, -0.0150253, -0.0161538, -0.0143085, -0.00912746, -0.000839738, -0.000983619, -0.0138803, -0.0167314, -0.00220526, -0.00253399, -0.000845386, 0.000695328, -0.00679301, -0.00845291, -0.0165761, -0.015486, 0.00150189, 0.00267227, 0.00116887, 0.000830938, -0.012698, -0.015665, -0.0164049, -0.0134068, 0.00230638, 0.00166067, 0.00120918, -0.0015707, -0.0148923, -0.0176422, -0.00894335, -0.00726348, 0.00370439, -0.000937239, -0.0054637, -0.00352627, -0.0147607, -0.0150979, 0.000313976, 0.000897122, -0.0033135, -0.0113679, -0.018828, -0.0169621, -0.00391077, -0.00315693, 0.00263548, -0.000723515, -0.0073186, -0.0184065, -0.0198366, -0.015047, -0.00177955, 0.000880102, 0.0027724, -0.00172027, -0.00909198, -0.0128542, -0.0167288, -0.00850047, 0.00157331, 0.00123129, -0.00134208, -0.00321247, -0.00968507, -0.0140924, -0.0127659, -0.00597298, 0.00165439, -0.00109051, -0.0134748, -0.0152591, 0.00188279, -0.000849975, -0.00118167, 0.0015074, -0.00322908, -0.00581212, -0.0163928, -0.0138053, 0.00339803, 0.00309176, 0.00183774, 0.000125045, -0.0108464, -0.0123025, -0.0177834, -0.0132957, 0.00484443, 0.00252904, 0.000132457, -0.000565488, -0.0141418, -0.0145966, -0.0078962, -0.0055854, 0.00389204, -0.000561706, -0.00488755, -0.0056031, -0.0133253, -0.0140564, 0.00067024, -0.00185114, -0.00109463, -0.0117994, -0.0174445, -0.0152763, -0.00200224, -0.00142419, 0.00316049, 0.000708618, -0.00745255, -0.00722487, -0.0203692, -0.0156885, -0.000324346, 0.00194101, -0.00417097, -0.00510276, -0.00764421, -0.0079971, -0.00322439, -0.00350973, -0.00516754, -0.00302889, -0.00284836, -0.00308611, -0.00573082, -0.007027, -0.00141037, -0.00259468, 0.0037938, 0.000789631, -0.0042734, -0.00305562, -0.00172061, -0.00061853, 0.00444406, 0.00193284, 0.00282015, 0.000349987, -0.00989189, -0.0136543, -0.00846869, -0.00703661, -0.00602654, -0.00837124, -0.00637221, -0.00329695, -0.0100551, -0.0115238, -0.00902947, -0.00955792, -0.0102232, -0.013126, -0.0111895, -0.010828, -0.00250155, -0.0029417, -0.0026817, -0.00502527, -0.00655309, -0.00677269, -0.0066848, -0.00562866, 0.000277946, 0.00505956, 0.00188002, -0.00450144, -0.00392006, -0.00633038, -0.00523751, -0.00200899, -0.00606458, -0.004626, -0.00634776, -0.00661032, -0.0110457, -0.0108187, -0.00572747, -0.00563058, -0.00323869, -0.00595585, -0.00939593, -0.0108329, -0.00924296, -0.00663813, -0.00392307, -0.000298639, -0.000852444, -0.00598215, -0.00895267, -0.00999907, -0.00705721, -0.00134843, -0.000159467, 0.000370284, -0.0048801, -0.00631757, -0.00149746, 0.00173743, 0.0035791, 0.00283755, 2.76816e-05, -0.00195961, -0.0109751, -0.0145547, -0.00948502, -0.00616884, -0.0052647, -0.00581848, -0.0105611, -0.0090408, -0.0128697, -0.0122255, -0.00916933, -0.00590883, -0.00778407, -0.0115515, -0.0151433, -0.015812, -0.00558368, -0.00228672, -0.000445329, -0.000984132, -0.00246539, -0.00692567, -0.0116606, -0.0103881, 0.0011344, 0.00171601, -0.00362947, -0.00536173, -0.00723338, -0.00957432, -0.00712437, -0.00278343, -0.00292952, -0.00306747, -0.00828864, -0.00609301, -0.0114361, -0.0112395, -0.00912424, -0.00472685, -0.000259023, -0.00308776, -0.0124684, -0.0142872, -0.0101701, -0.00896964, 0.00101723, 0.00244663, -0.000220616, -0.00357606, -0.0146024, -0.0130664, -0.0106934, -0.005021, 0.000956808, 0.00107971, -0.00932527, -0.0099358, -0.00224741, 0.00241528, 0.0029839, 0.00351228, -0.000358432, -0.0031074, -0.015439, -0.0154273, -0.00527318, -0.000883588, -0.00107849, -0.00249948, -0.0122839, -0.0151283, -0.0186562, -0.0131572, -0.00390358, -0.00104574, -0.00242462, -0.00752801, -0.0162264, -0.0183832, -0.00655444, -0.00417303, -0.00111926, -0.000499432, -0.000745888, -0.00468249, -0.0124989, -0.0137786, -0.000402291, 0.000861523, -0.0040627, -0.00775326, -0.0102979, -0.0137851, -0.00518388, -0.00243183, -0.00127166, -0.00173983, -0.00972327, -0.012676, -0.0123833, -0.0125509, -0.00468403, -0.00087352, 0.00200885, -0.00176693, -0.0146143, -0.0164644, -0.0138027, -0.0075996, 0.00118562, 0.00293213, -0.00102285, -0.00300607, -0.0160514, -0.0156254, -0.013757, -0.0057356, 0.00105879, 5.19092e-06, -0.0117666, -0.0142679, -0.00144562, 0.00203777, 0.00322298, 0.00409164, -0.00312059, -0.00603199, -0.0136836, -0.0175365, -0.00326884, 0.00105785, 0.00121159, -0.00205195, -0.0103911, -0.0146424, -0.0169132, -0.0129046, -1.30004e-05, 0.000980638, 0.000407109, -0.00471063, -0.0183327, -0.0197809, -0.00903253, -0.00475845, 0.00246114, 0.00108857, -0.00147127, -0.0041008, -0.0170387, -0.0146518, 0.000670841, 0.00137498, -0.00384135, -0.0117416, -0.0152277, -0.015163, -0.00473598, -0.00238685, 0.0016012, -0.000524735, -0.0091901, -0.0169399, -0.0173931, -0.0140027, -0.0013536, 0.00181702, 0.00562973, -0.00102899, -0.0146953, -0.0164375, -0.0165791, -0.00896485, 0.00199391, 0.00263061, -0.000880717, -0.00314649, -0.017576, -0.015822, -0.0139728, -0.00529455, 2.13011e-05, 0.00111953, -0.0138023, -0.0182845, -0.00252353, 0.00132881, 0.00256972, 0.00351225, -0.00120582, -0.00827477, -0.0147884, -0.0175766, 0.00142202, 0.00396256, 0.000694341, -0.000610994, -0.0118458, -0.0148322, -0.0130883, -0.0137086, 0.0014352, 0.00230446, -0.00255598, -0.00337909, -0.0167644, -0.0184617, -0.00873207, -0.00905332, 0.00208256, -0.00071781, -0.00373496, -0.00866261, -0.0182068, -0.0145389, 0.00202149, 0.00107784, -0.00545281, -0.00963319, -0.0170591, -0.0195966, -0.00209466, -0.00204859, 0.00317793, 0.000921856, -0.00701503, -0.0142984, -0.0195283, -0.0144273, -0.00124138, 0.00342248, 0.00210651, -0.000499657, -0.0128759, -0.0143048, -0.0165313, -0.0099545, 0.00294755, 0.00233733, 4.844e-05, -0.00251057, -0.0141087, -0.0147231, -0.0132703, -0.00812513, -0.000154105, 0.00172333, -0.0146192, -0.0181772, -0.00047796, 0.0011226, 0.00303283, 0.00337165, -0.00369273, -0.0088173, -0.0178911, -0.0160232, 0.0036882, 0.00459993, 0.00336821, -0.000359845, -0.0121431, -0.00975989, -0.0205468, -0.0148589, 0.00374371, 0.00441887, 0.0027367, -0.00170493, -0.0159201, -0.0179136, -0.00837413, -0.00729606, 0.00483517, 0.00128576, -0.004972, -0.00582867, -0.0161267, -0.0139154, 0.0028655, 0.00237201, -0.00320142, -0.0104516, -0.0185409, -0.0175831, -0.00107858, 0.00035137, 0.00430009, 0.000979415, -0.00891719, -0.0117368, -0.0183171, -0.0160582, -0.000611058, 0.00378749, -0.00713173, -0.00672777, -0.00635551, 0.00620725, 0, -0.00573345, 0.000605488, -0.00632658, -0.00394374, -0.00314951, -0.00598366, -0.00924061, 0.00442994, -0.00835727, -0.00323348, -0.00298011, 0.00104849, -0.000492329, -0.00371109, -0.00430931, 0.0018037, 0.00398738, -0.00637423, 0.0056423, 0.00235235, -0.0082145, -0.010312, -0.00774849, -0.00655063, -0.0096112, -0.0123263, 0, 0, -0.00396478, -0.0078448, -0.0100352, -0.0129856, -0.0142537, -0.0087618, -0.020588, -0.00392127, 0.00117419, 0.00199107, -0.00954592, -0.00509699, -0.00542574, -0.00802817, -0.00703738, -0.00847784, -0.00139296, -0.00279897, -0.0193902, -0.000604755, -0.00759787, -0.00539675, -0.00480466, -0.00817968, -0.0069372, -0.0141993, 0, -0.0113733, -0.00797288, -0.00862119, -0.00569632, -0.00361517, -0.0082008, -0.00916924, -0.0110977, -0.00446897, -0.00206182, -0.00412125, -0.00171102, -0.00289359, -0.00821937, -0.00906382, -0.0100484, -0.00460095, -0.00293941, -0.00698359, -0.000291345, -0.00374546, -0.00683476, -0.00357762, 0.00143599, 0.00255897, 0.000511758, 0.00281156, -0.00727916, -0.010356, -0.0126182, -0.0076006, -0.00629857, -0.00531828, -0.00782865, -0.00791348, -0.0144906, -0.0194159, -0.0106244, -0.00827915, -0.00614573, -0.00951465, -0.0127107, -0.0173663, -0.0176792, -0.00416504, -0.00608468, -0.00224497, -0.00287151, -0.00432732, -0.00974739, -0.013413, -0.00632121, -0.000687392, 0.00118206, 0.0022348, -0.00472978, -0.00983004, -0.00854425, -0.00666095, -0.0048371, -0.00335626, -0.00485272, -0.0101774, -0.0115254, -0.00873334, -0.0113105, -0.00873485, -0.00424684, -0.00187885, -0.00269729, -0.0108111, -0.0149208, -0.00923805, -0.00980888, -0.00179367, 0.0027614, -0.00066026, -0.00620097, -0.0127505, -0.0125533, -0.010712, -0.00600384, -0.00185569, 0.000995679, -0.00610069, -0.00743477, -0.00171447, 0.00220271, 0.00338894, 0.00438162, -0.00127956, -0.00468377, -0.0122392, -0.0147311, -0.00506413, 0.000320171, 0.000606509, -0.00348112, -0.0086232, -0.0166793, -0.0146977, -0.0110558, -0.00422224, -0.0020487, -0.00189992, -0.00724712, -0.0149404, -0.0192515, -0.0103599, -0.00681969, -0.000988656, -0.000138862, -0.00195729, -0.00646363, -0.0126706, -0.0125255, 0.002649, 0.00122178, -0.00300211, -0.0104103, -0.0130418, -0.0119479, -0.00422528, -0.00200119, -0.0019456, -0.00105589, -0.00880017, -0.0116112, -0.0144341, -0.0130009, -0.0043772, 8.26515e-05, 0.00142302, -0.000300982, -0.0139585, -0.0148804, -0.0112027, -0.00862094, -0.000121621, 0.00394789, -0.00121539, -0.00252055, -0.0151578, -0.0149803, -0.0139732, -0.00577183, -0.000320437, 0.000675519, -0.0102641, -0.00905402, 0.000510838, 0.0033956, 0.00485042, 0.00734637, -0.000589803, -0.00772368, -0.01541, -0.0149057, -0.000575022, 0.00344325, 0.0041527, -0.00115494, -0.0109087, -0.0142457, -0.0138873, -0.0123403, -0.000498968, 0.000306552, -0.000516357, -0.00548889, -0.0191627, -0.01801, -0.0110036, -0.00786454, -0.000581106, -0.00126738, -0.000557024, -0.0028623, -0.015331, -0.0158601, 0.00183282, 0.00115107, -0.0063647, -0.00903731, -0.015062, -0.0136746, -0.00300769, 0.000457749, 0.00126402, -0.000498962, -0.00949571, -0.0162635, -0.0164591, -0.0131778, -0.00197156, 0.00243211, 0.00211807, -1.04448e-05, -0.0156943, -0.0171786, -0.0114735, -0.00819997, 0.00240486, 0.00433844, -0.000252553, -0.00258063, -0.0174099, -0.0164209, -0.0133647, -0.00964503, 0.000351719, 0.00191455, -0.0132936, -0.0140964, -0.000408332, 0.00230915, 0.00415261, 0.00360518, -0.00173281, -0.00773074, -0.0151146, -0.0144448, 0.00122851, 0.00453385, 0.00414619, 0.000500003, -0.0105648, -0.0129518, -0.015934, -0.0128503, 0.00155639, 0.00212871, 0.00256031, -0.0043413, -0.0179348, -0.018133, -0.00855163, -0.00676936, 0.0027426, 0.00187128, -0.0003495, -0.003868, -0.0186497, -0.0149329, 0.00324016, 0.00287947, -0.00674007, -0.0123727, -0.0158738, -0.0168103, -0.00200639, 0.000395673, 0.00330723, 0.00169892, -0.00810196, -0.0132845, -0.0172354, -0.0154752, 0.000956431, 0.002677, 0.00434113, 0.000223777, -0.0156925, -0.0146878, -0.0129737, -0.009905, 0.00453921, 0.00548243, -0.000216682, -0.00357007, -0.0165503, -0.0162422, -0.00975247, -0.00691288, 0.00167083, 0.00275402, -0.0152668, -0.0180613, -0.00108472, 0.00361764, 0.0038949, 0.00233207, -0.00436647, -0.00917044, -0.0147467, -0.0158789, 0.00307568, 0.00670408, 0.00480463, 0.000741427, -0.012054, -0.0138259, -0.0136698, -0.0129052, 0.00564174, 0.00429816, 0.00161109, -0.0018563, -0.0184991, -0.0161913, -0.00855923, -0.0126586, 0.0020544, 0.00103076, -0.00227767, -0.00174383, -0.0190714, -0.0161489, 0.00473048, 0.00289813, -0.00530968, -0.0143956, -0.0193307, -0.0200196, -0.00230374, 0.00169446, 0.00479804, 0.001255, -0.00881505, -0.010383, -0.0174361, -0.015998, 0.00086057, 0.0031787, 
0.00299864, 0.00113835, 0.000852839, 0.000963899, 0.00123318, 0.00103572, 0.000882441, 0.00129541, 0.00120803, 0.00290733, 0.00110699, 0.000834432, 0.00111317, 0.00126823, 0.00100894, 0.000850448, 0.000839435, 0.00109596, 0.00261574, 0.00130542, 0.000940194, 0.00103142, 0.00129647, 0.00109988, 0.000952315, 0.000822823, 0.00127462, 0.00335641, 0.00153998, 0.000870884, 0.00108937, 0.00114418, 0.00116446, 0.00108726, 0.000917924, 0.0014616, 0.00364127, 0.00135732, 0.000824109, 0.000954936, 0.00103306, 0.00121522, 0.00103363, 0.000894399, 0.00136731, 0.00270615, 0.000986693, 0.000777154, 0.000871982, 0.00104837, 0.00132606, 0.00107143, 0.000830465, 0.00098817, 0.00280532, 0.00115775, 0.00126359, 0.000871034, 0.00111845, 0.00117396, 0.000980094, 0.000801964, 0.00120868, 0.00286205, 0.0010546, 0.000871866, 0.000748002, 0.000938481, 0.00121223, 0.00103706, 0.000756443, 0.000731013, 0.000697234, 0.0010406, 0.000761004, 0.000627577, 0.000945076, 0.00117268, 0.000930236, 0.000619736, 0.000606126, 0.000759993, 0.00121573, 0.000743534, 0.000666987, 0.000960213, 0.00118112, 0.000924591, 0.000907151, 0.000730934, 0.000914624, 0.00116324, 0.000752315, 0.000766525, 0.00103906, 0.00119042, 0.00117907, 0.00106684, 0.000782638, 0.000782995, 0.00113382, 0.000943477, 0.000734883, 0.000938997, 0.000854266, 0.00112679, 0.000895292, 0.000643859, 0.000713819, 0.00105471, 0.000732068, 0.000615256, 0.000612978, 0.000891779, 0.00115017, 0.000941374, 0.000623586, 0.000759911, 0.0010966, 0.000742098, 0.000747396, 0.000730531, 0.00106636, 0.00123185, 0.000914396, 0.000710312, 0.000915155, 0.00106513, 0.000811187, 0.000799389, 0.000838272, 0.00120632, 0.00147038, 0.00128812, 0.000809209, 0.000762665, 0.000672423, 0.000779355, 0.000729919, 0.00071507, 0.00112288, 0.00137781, 0.00109312, 0.000709527, 0.000714786, 0.000722619, 0.00083341, 0.000728731, 0.000723682, 0.00114554, 0.00138486, 0.00115802, 0.00116044, 0.000817846, 0.000830167, 0.000841873, 0.000772832, 0.000856496, 0.0012657, 0.00154719, 0.00141694, 0.00123304, 0.000840115, 0.000769973, 0.000832242, 0.000828577, 0.000815276, 0.00125176, 0.00108981, 0.0012882, 0.00107689, 0.000725451, 0.000691622, 0.00080479, 0.000701255, 0.000687262, 0.000673292, 0.00110717, 0.00142133, 0.00114433, 0.000708525, 0.000709312, 0.000792076, 0.000680544, 0.000756372, 0.000875703, 0.00134646, 0.00151141, 0.00119153, 0.000844006, 0.000843621, 0.000813471, 0.00081365, 0.00088383, 0.00106717, 0.00156859, 0.0020413, 0.00181721, 0.00108337, 0.000837387, 0.000722102, 0.000780175, 0.000807451, 0.000869758, 0.00154286, 0.0018045, 0.00147628, 0.000869877, 0.000860385, 0.000766111, 0.000828129, 0.0007786, 0.000927155, 0.00161554, 0.00185122, 0.00154736, 0.0015668, 0.000978754, 0.000893066, 0.000895217, 0.000852225, 0.00107653, 0.00182976, 0.00202225, 0.00185933, 0.00181412, 0.00111137, 0.000863091, 0.00087037, 0.000906401, 0.000989018, 0.00152212, 0.00141121, 0.00178877, 0.00151305, 0.000859381, 0.000757189, 0.000741383, 0.00077594, 0.000798197, 0.000833207, 0.00144413, 0.00188668, 0.00149295, 0.000870283, 0.000784723, 0.000789212, 0.000716864, 0.000852604, 0.00109407, 0.00192953, 0.00186171, 0.00177813, 0.00102347, 0.000933598, 0.000815822, 0.0011386, 0.00131809, 0.00168712, 0.0029458, 0.00304495, 0.00268768, 0.00166186, 0.00109909, 0.000999738, 0.000987658, 0.00103808, 0.00127995, 0.00240356, 0.00299819, 0.00225582, 0.00133558, 0.00131293, 0.00105845, 0.00104663, 0.00103174, 0.00140439, 0.00221041, 0.00289314, 0.00256107, 0.00273148, 0.00149993, 0.00114776, 0.00107206, 0.00120079, 0.00166396, 0.00274783, 0.00276973, 0.00321135, 0.00288717, 0.00179232, 0.00121756, 0.00107833, 0.00122167, 0.00157372, 0.00256997, 0.0021154, 0.00284319, 0.00246899, 0.00142237, 0.00095842, 0.000900451, 0.000973928, 0.00122869, 0.00133832, 0.00254407, 0.00282738, 0.00239101, 0.00123511, 0.00100016, 0.000910664, 0.000957954, 0.0012324, 0.00176702, 0.00310649, 0.00362573, 0.00273166, 0.0016281, 0.00120623, 0.00109881, 0.00179458, 0.00226348, 0.00320371, 0.00746635, 0, 0.00486178, 0.00308866, 0.00196822, 0.00156302, 0.00154169, 0.00173559, 0.00270518, 0.00592042, 0.00500203, 0.00438439, 0.00270751, 0.00295351, 0.00170992, 0.00152539, 0.00198108, 0.00279216, 0.00378182, 0.00511288, 0.00469228, 0.00656202, 0.00325105, 0.00199362, 0.0019288, 0.00197385, 0.00324647, 0.00574219, 0, 0, 0.00465457, 0.0028922, 0.00191285, 0.00189595, 0.00199211, 0.00294434, 0.00604101, 0.00513472, 0.00466307, 0.00372162, 0.00284504, 0.00169506, 0.00139972, 0.00157391, 0.00278438, 0.0027308, 0.00403249, 0.00481818, 0.00485935, 0.00256425, 0.00166137, 0.00146436, 0.00173344, 0.00218996, 0.003508, 0.00623384, 0, 0.00779888, 0.00326939, 0.00199542, 0.0019255, 0.00106085, 0.00069645, 0.000618664, 0.000902872, 0.0011408, 0.000865516, 0.000597528, 0.000740528, 0.000868172, 0.00115529, 0.000737789, 0.000715956, 0.00103515, 0.00111933, 0.000915876, 0.000733342, 0.000724764, 0.000749766, 0.00110799, 0.000937442, 0.000791623, 0.000904881, 0.00118886, 0.00106757, 0.000951092, 0.000639328, 0.000753681, 0.00122176, 0.000794191, 0.000644884, 0.000938844, 0.0011787, 0.00116192, 0.000918569, 0.000631756, 0.000767707, 0.00113835, 0.000725443, 0.000618247, 0.000917356, 0.0010211, 0.00113761, 0.000956813, 0.000764538, 0.000953921, 0.00113751, 0.000760427, 0.000721602, 0.000756386, 0.00090283, 0.00118571, 0.00105472, 0.000747422, 0.000732396, 0.00111656, 0.000893117, 0.000768071, 0.000608842, 0.000926142, 0.00117991, 0.000963086, 0.000612, 0.000720371, 0.00111954, 0.00120178, 0.000641249, 0.000513357, 0.000718613, 0.000938786, 0.000745962, 0.000527027, 0.000558606, 0.000643653, 0.00160131, 0.000637092, 0.000519904, 0.000768824, 0.000976853, 0.000755459, 0.000526366, 0.000522211, 0.000647123, 0.00170897, 0.000704416, 0.000533949, 0.000754645, 0.00100629, 0.000778815, 0.000725902, 0.000526094, 0.000705707, 0.00125246, 0.000585056, 0.00054273, 0.000809388, 0.00100206, 0.000953881, 0.000728678, 0.000534122, 0.000582125, 0.00121929, 0.00067385, 0.000537739, 0.000746636, 0.000753292, 0.000982887, 0.000741423, 0.000554611, 0.00068489, 0.00173423, 0.000659087, 0.000532697, 0.000512288, 0.000767442, 0.0010025, 0.000797956, 0.000539363, 0.000665846, 0.00173042, 0.000695894, 0.000562245, 0.00051754, 0.000765364, 0.00104753, 0.000746907, 0.000538181, 0.000685007, 0.00128413, 0.000777952, 0.000628801, 0.000557662, 0.000795696, 0.00106228, 0.000833043, 0.000554711, 0.000556106, 0.000632663, 0.000975649, 0.000654256, 0.00057062, 0.000824886, 0.00105879, 0.000781395, 0.000547555, 0.000549263, 0.000635612, 0.00110481, 0.000683849, 0.000558489, 0.000811385, 0.00107798, 0.000856646, 0.000806809, 0.000563019, 0.000674053, 0.000846869, 0.000569787, 0.000566618, 0.0008549, 0.00110417, 0.00108267, 0.000827986, 0.000562663, 0.000570361, 0.000845009, 0.00066499, 0.000555118, 0.000769812, 0.000804603, 0.00103143, 0.000830937, 0.000572215, 0.000663682, 0.00107673, 0.000639909, 0.000565017, 0.000562149, 0.000803264, 0.00107936, 0.000866112, 0.000571123, 0.000657826, 0.00107427, 0.000682247, 0.000567565, 0.000564609, 0.000839807, 0.00110159, 0.000830182, 0.000570084, 0.000677201, 0.00082323, 0.00059547, 0.000604355, 0.000634864, 0.000930712, 0.00123497, 0.000996483, 0.000618129, 0.000556183, 0.000587943, 0.000757057, 0.000658245, 0.000624653, 0.00100309, 0.00123491, 0.000954592, 0.00060706, 0.000612302, 0.000612144, 0.000752236, 0.000614928, 0.00059038, 0.000974635, 0.00125855, 0.00096234, 0.000934997, 0.000613039, 0.000633718, 0.000624863, 0.000565551, 0.000625226, 0.00100633, 0.00127882, 0.00124832, 0.00099633, 0.000630375, 0.000571299, 0.000634936, 0.000611107, 0.000609031, 0.000933515, 0.000950138, 0.00119565, 0.000996381, 0.00061569, 0.000642803, 0.000711661, 0.000616119, 0.000622143, 0.00060324, 0.000981614, 0.00131357, 0.00100654, 0.000629078, 0.000636714, 0.000761469, 0.000643315, 0.000564886, 0.000628489, 0.00108522, 0.00129699, 0.00101466, 0.000632945, 0.000627026, 0.000619367, 0.000617037, 0.000684627, 0.000806704, 0.00149318, 0.00196962, 0.00155844, 0.000791316, 0.000639156, 0.000675782, 0.000699354, 0.000671842, 0.000784831, 0.00136722, 0.00182277, 0.00145671, 0.0007349, 0.000748027, 0.000697229, 0.000733406, 0.000687484, 0.000739831, 0.00134121, 0.00175528, 0.00146073, 0.00141953, 0.000838754, 0.000695784, 0.000675943, 0.000675268, 0.000805113, 0.00158506, 0.00193258, 0.00183964, 0.00160718, 0.000852458, 0.000646012, 0.000686951, 0.00067484, 0.000780714, 0.00143951, 0.00138613, 0.00179938, 0.00145596, 0.000802534, 0.000694586, 0.000718082, 0.000695927, 0.000751906, 0.000788616, 0.00148113, 0.00184348, 0.00149077, 0.000778242, 0.00069646, 0.000746142, 0.000694947, 0.000656471, 0.000829476, 0.00166915, 0.00199637, 0.00146451, 0.000832883, 0.000705892, 0.000651462, 0.0009109, 0.000980705, 0.00130672, 0.00254813, 0.00378676, 0.00250754, 0.00133356, 0.000931607, 0.000949346, 0.00087742, 0.000919954, 0.00126969, 0.00264572, 0.00280794, 0.00217434, 0.00126173, 0.00117063, 0.000931583, 0.000881863, 0.0010012, 0.00131641, 0.00222142, 0.00276971, 0.0023797, 0.00265628, 0.0013126, 0.000975645, 0.000939643, 0.00106247, 0.00137534, 0.00274242, 0.00374176, 0.00346364, 0.00265805, 0.00126373, 0.00101145, 0.000890463, 0.00097134, 0.00123853, 0.00255572, 0.00223902, 0.00271581, 0.00215137, 0.00133287, 0.000966266, 0.000938118, 0.000957362, 0.00122163, 0.00127222, 0.0021414, 0.00298352, 0.00266356, 0.00124718, 0.000959499, 0.000905334, 0.000943854, 0.000965474, 0.0013044, 0.00272543, 0.00371392, 0.00271264, 0.00131509, 0.000984082, 0.000890875, 0.000816713, 0.0006749, 0.000736522, 0.00114761, 0.00148244, 0.00112146, 0.000697093, 0.000740431, 0.00082888, 0.000790482, 0.000704339, 0.00080124, 0.00126036, 0.00132782, 0.00108967, 0.000843356, 0.00084176, 0.000726157, 0.000826506, 0.000824991, 0.000871628, 0.00111237, 0.00140209, 0.00136063, 0.00114733, 0.00072112, 0.000721064, 0.000866469, 0.000774155, 0.000716143, 0.00118131, 0.00153523, 0.00143412, 0.00113557, 0.000715114, 0.000768584, 0.000830884, 0.00069498, 0.000718902, 0.0011713, 0.0012291, 0.00135902, 0.00110017, 0.000855312, 0.000849065, 0.00083651, 0.000727937, 0.000817164, 0.000851487, 0.00111338, 0.00142185, 0.00130854, 0.000831329, 0.000711696, 0.000834861, 0.000824673, 0.000781166, 0.000719682, 0.00112467, 0.00148738, 0.00116396, 0.000680825, 0.000681526, 0.000806507, 0.000780883, 0.000633285, 0.000564909, 0.000838013, 0.00108118, 0.000824165, 0.000549743, 0.000578685, 0.000628039, 0.000996512, 0.000636943, 0.000556899, 0.000815986, 0.00100019, 0.000794073, 0.000563765, 0.000544118, 0.000635074, 0.00119014, 0.000662163, 0.000562967, 0.000828968, 0.00110101, 0.000864508, 0.000784953, 0.000568945, 0.000685534, 0.000891998, 0.000572506, 0.000557781, 0.000878938, 0.00111572, 0.00107469, 0.000846945, 0.000560995, 0.000578067, 0.000803693, 0.000666534, 0.000570141, 0.00082125, 0.000824439, 0.00103043, 0.00078497, 0.000564767, 0.000639393, 0.000970695, 0.000628743, 0.000567415, 0.000557032, 0.000794998, 0.00106027, 0.000864784, 0.000556309, 0.000651621, 0.00105893, 0.000649204, 0.000554695, 0.000552148, 0.000831053, 0.00112033, 0.00078737, 0.00056363, 0.00067024, 0.000830117, 0.00147644, 0.0007323, 0.000570521, 0.000770397, 0.00104992, 0.000829966, 0.000567464, 0.000630777, 0.000705586, 0.00167424, 0.000678513, 0.000565138, 0.000794505, 0.00102065, 0.000762497, 0.000558568, 0.00055655, 0.000660537, 0.00172511, 0.000710049, 0.000568519, 0.00079574, 0.00105251, 0.000827202, 0.000764124, 0.000563797, 0.000725382, 0.00129824, 0.000645162, 0.000567002, 0.000832494, 0.00108945, 0.00107029, 0.000816151, 0.000558284, 0.000614776, 0.00139119, 0.000725626, 0.000565869, 0.000798318, 0.000810611, 0.00106405, 0.000791961, 0.000571397, 0.000713688, 0.00177262, 0.000668866, 0.000558879, 0.000547955, 0.000751878, 0.00102752, 0.000840987, 0.000572855, 0.000680963, 0.00170133, 0.000745071, 0.000625732, 0.000557841, 0.000823584, 0.0010597, 0.000771986, 0.000564824, 0.000726042, 0.00140494, 0.000952939, 0.00065722, 0.000588862, 0.000798042, 0.00114917, 0.000873676, 0.000581578, 0.0005817, 0.000673393, 0.00114464, 0.000654411, 0.000564117, 0.000843024, 0.00109629, 0.000828623, 0.000563497, 0.00054965, 0.000653001, 0.00114818, 0.000688935, 0.000568308, 0.000843797, 0.00112274, 0.000880124, 0.000825801, 0.000579356, 0.000722305, 0.000961749, 0.000605511, 0.000588487, 0.000892021, 0.00114334, 0.00111404, 0.000862112, 0.000591248, 0.000605385, 0.000954224, 0.000669323, 0.000587866, 0.000812574, 0.000849122, 0.00110457, 0.000868481, 0.000580758, 0.00070638, 0.00109551, 0.000652168, 0.00056707, 0.000565647, 0.00081785, 0.00120516, 0.000871038, 0.000576418, 0.000651566, 0.00104693, 0.000688358, 0.000605172, 0.000588886, 0.000943887, 0.00111953, 0.000808717, 0.000587778, 0.000693415, 0.000963404, 0.000651567, 0.000662549, 0.00065927, 0.00111022, 0.00155217, 0.00113269, 0.000650997, 0.000577594, 0.000669474, 0.000820705, 0.000674441, 0.000657364, 0.00106576, 0.0014741, 0.00101867, 0.000644447, 0.00066118, 0.000659966, 0.000831539, 0.000673347, 0.00064547, 0.0010483, 0.00141922, 0.00111289, 0.00104863, 0.000647513, 0.000666285, 0.000697072, 0.000622374, 0.000665406, 0.00117721, 0.00143988, 0.00154555, 0.00116491, 0.000655879, 0.000604345, 0.000664894, 0.000669704, 0.000674491, 0.00106311, 0.00107196, 0.00148686, 0.00105426, 0.000653255, 0.000675079, 0.000802826, 0.000655818, 0.000662527, 0.000625625, 0.00110919, 0.00148398, 0.00114043, 0.000675466, 0.00067027, 0.000776983, 0.000648254, 0.000588492, 0.000655249, 0.00119284, 0.00157914, 0.00112687, 0.000654987, 0.000675306, 0.000711886, 0.000713484, 0.000720814, 0.000928943, 0.00184726, 0.00257138, 0.00186944, 0.000909143, 0.000695981, 0.000741467, 0.000753586, 0.000742662, 0.000925706, 0.00169441, 0.00208133, 0.00154663, 0.000891167, 0.000898378, 0.000739118, 0.00075264, 0.000755146, 0.000933642, 0.00156801, 0.00204811, 0.00164831, 0.00162208, 0.000910088, 0.000687817, 0.000709037, 0.000723829, 0.000916041, 0.00183271, 0.00242692, 0.00234508, 0.00167962, 0.000863755, 0.000736015, 0.000705251, 0.000747464, 0.000889742, 0.00166201, 0.00167909, 0.00201709, 0.00153654, 0.000921377, 0.000765997, 0.000777839, 0.00076831, 0.000880373, 0.000913058, 0.00160193, 0.00212761, 0.00169718, 0.000953777, 0.00075742, 0.000783465, 0.000736398, 0.000699107, 0.000883215, 0.00187943, 0.00239619, 0.00169769, 0.000907789, 0.000737008, 0.000708487, 0.000829751, 0.000748361, 0.000843177, 0.0015619, 0.00200223, 0.00145059, 0.000847932, 0.000853059, 0.000896183, 0.00076857, 0.000774247, 0.00102584, 0.00179447, 0.00170377, 0.00145054, 0.00108413, 0.00111271, 0.000803645, 0.000819348, 0.000928754, 0.00108648, 0.00145943, 0.00197249, 0.0019316, 0.0016257, 0.000846596, 0.00074617, 0.000872257, 0.000904572, 0.000856558, 0.001513, 0.00196422, 0.00197563, 0.0015232, 0.00091363, 0.000879835, 0.00088219, 0.000753434, 0.000886068, 0.00166514, 0.00165116, 0.00183226, 0.00159045, 0.00108589, 0.000910616, 0.00075387, 0.000749675, 0.000988741, 0.00105418, 0.00151982, 0.00180982, 0.00174982, 0.00101986, 0.000722456, 0.000806645, 0.000900968, 0.000826048, 0.000840883, 0.00142123, 0.00198347, 0.0016438, 0.000804556, 0.000717449, 0.00083126, 0.000605376, 0.00061536, 0.000582532, 0.000925251, 0.0012765, 0.00096482, 0.000594189, 0.000574618, 0.000610547, 0.000718117, 0.000613143, 0.000648092, 0.00101587, 0.00123119, 0.000948769, 0.000629375, 0.000634095, 0.000654697, 0.000764741, 0.000642639, 0.000626064, 0.000986542, 0.00130089, 0.001085, 0.000918963, 0.000611324, 0.000622332, 0.000627347, 0.00057317, 0.000629413, 0.00100334, 0.00131123, 0.00128318, 0.00101021, 0.000631135, 0.00058419, 0.000640756, 0.000644072, 0.000620855, 0.000982219, 0.000981317, 0.00120133, 0.00096804, 0.000611527, 0.000602006, 0.000709799, 0.000650536, 0.000626708, 0.000630455, 0.0009106, 0.00126615, 0.00105395, 0.000614049, 0.000611928, 0.000747389, 0.00063772, 0.000552095, 0.00059946, 0.000947717, 0.00132248, 0.000943321, 0.000608119, 0.000629833, 0.000624271, 0.000902785, 0.000662918, 0.000567125, 0.000815327, 0.00116382, 0.000839518, 0.000568449, 0.000589897, 0.000692928, 0.00113579, 0.000652406, 0.000568456, 0.000864065, 0.00112557, 0.000823723, 0.000585712, 0.000596312, 0.000667411, 0.00107139, 0.000711081, 0.0005864, 0.000843141, 0.00117681, 0.000886168, 0.000812704, 0.000572943, 0.000687437, 0.000934694, 0.000584149, 0.00058189, 0.000863417, 0.00112369, 0.001129, 0.000864023, 0.00056959, 0.000606031, 0.000935691, 0.000687257, 0.000583322, 0.000839849, 0.000858647, 0.00109559, 0.000841176, 0.000585926, 0.00069699, 0.00103362, 0.00066622, 0.000573696, 0.000595512, 0.000817576, 0.00117566, 0.000910088, 0.000587731, 0.000668185, 0.00110783, 0.000698916, 0.000583814, 0.000567854, 0.000857634, 0.00112895, 0.000838161, 0.000561694, 0.000670022, 0.000961412, 0.00129064, 0.000717723, 0.0005678, 0.000766788, 0.00106376, 0.000830455, 0.000558348, 0.000625949, 0.000711314, 0.00155167, 0.000708175, 0.00056855, 0.000848601, 0.00110865, 0.00082205, 0.000563686, 0.000565862, 0.000703715, 0.00172928, 0.000725103, 0.000582368, 0.00083268, 0.00115236, 0.000843838, 0.000779838, 0.000553814, 0.000733613, 0.00151524, 0.000617152, 0.000579465, 0.000831276, 0.00104779, 0.00113347, 0.000839722, 0.000586251, 0.000651358, 0.0014495, 0.000709168, 0.000559796, 0.000790319, 0.000837708, 0.00110822, 0.000818319, 0.000565782, 0.000716288, 0.00178829, 0.000693444, 0.000553856, 0.000555202, 0.000798544, 0.00117193, 0.000838424, 0.000565491, 0.000711466, 0.00174046, 0.000760455, 0.000596816, 0.00055646, 0.00085699, 0.00104807, 0.00079357, 0.000554316, 0.000720613, 0.00145919, 0.00104329, 0.000691915, 0.000601482, 0.000889948, 0.00132977, 0.000945712, 0.000588938, 0.000612914, 0.000710631, 0.00110064, 0.000712668, 0.000600591, 0.000947766, 0.00133241, 0.000897336, 0.000592288, 0.000608616, 0.000667935, 0.00123825, 0.00073783, 0.000590948, 0.000922052, 0.00131417, 0.000983477, 0.000885416, 0.000613397, 0.000740587, 0.00106528, 0.000624167, 0.000597, 0.000989601, 0.00132097, 0.00127087, 0.00097936, 0.000605353, 0.000625889, 0.00101325, 0.000728768, 0.000590126, 0.000908062, 0.000940475, 0.00141034, 0.000902736, 0.000604674, 0.000726407, 0.00117446, 0.000669578, 0.000591049, 0.000619849, 0.000939452, 0.00141272, 0.00102492, 0.000603866, 0.000677305, 0.00114445, 0.000697814, 0.000611596, 0.00059711, 0.000997612, 0.00132739, 0.000898603, 0.000601811, 0.000674786, 0.0010712, 0.000661811, 0.000637863, 0.000687002, 0.00120921, 0.00181471, 0.00135764, 0.000675277, 0.000603004, 0.000654504, 0.00077923, 0.000671758, 0.000729031, 0.00135905, 0.00179113, 0.00122318, 0.000707302, 0.000730052, 0.000675761, 0.000803303, 0.000672858, 0.000746329, 0.00128122, 0.00188061, 0.0013295, 0.00118484, 0.000695045, 0.000638205, 0.000695521, 0.000617713, 0.000690734, 0.00128373, 0.00181639, 0.00193291, 0.00131356, 0.000687523, 0.000621626, 0.000697745, 0.000678659, 0.000722752, 0.00123552, 0.0012884, 0.00171911, 0.00123903, 0.000736114, 0.000677265, 0.000801818, 0.000680102, 0.000703889, 0.000723282, 0.00121581, 0.00180745, 0.00138582, 0.000719467, 0.000708861, 0.000811169, 0.000658447, 0.000604748, 0.000674814, 0.00134217, 0.00194098, 0.00127187, 0.000718073, 0.000666277, 0.000649128, 0.00107942, 0.000936475, 0.00132855, 0.00273292, 0.00308811, 0.00214637, 0.00140595, 0.00119782, 0.00118727, 0.000974643, 0.00102065, 0.00163983, 0.00299651, 0.00268038, 0.00245946, 0.00185504, 0.00170743, 0.00102601, 0.000975632, 0.00119664, 0.00162242, 0.00240705, 0.00290975, 0.00296767, 0.00241763, 0.00136471, 0.0010493, 0.00111806, 0.00118648, 0.00135737, 0.00244095, 0.00330444, 0.00309298, 0.00250518, 0.00141916, 0.00121108, 0.00120968, 0.000939383, 0.00130003, 0.00283061, 0.00276595, 0.00288299, 0.00251828, 0.0018026, 0.00126361, 0.000919948, 0.000952895, 0.00160444, 0.00151023, 0.00221143, 0.00307311, 0.00271065, 0.00149221, 0.000964674, 0.000902639, 0.00122429, 0.00112912, 0.00131018, 0.00271084, 0.00321288, 0.00261471, 0.0012465, 0.000970971, 0.00112324, 0.000605838, 0.000653712, 0.000744135, 0.00150793, 0.00186746, 0.00135463, 0.000763682, 0.000655391, 0.000702677, 0.000748156, 0.000684135, 0.000821767, 0.00159767, 0.00185826, 0.00140893, 0.000838011, 0.000787999, 0.000702769, 0.000750565, 0.000698364, 0.0008221, 0.00135321, 0.00181597, 0.00161648, 0.00143922, 0.000776783, 0.000692031, 0.000662283, 0.00066835, 0.000783546, 0.00152854, 0.00180173, 0.00177737, 0.00143082, 0.000771966, 0.000667086, 0.000653321, 0.000687867, 0.000781942, 0.00147054, 0.00158328, 0.00170292, 0.00138644, 0.000839487, 0.000688696, 0.000728703, 0.000698316, 0.000811101, 0.000812609, 0.00136094, 0.0017805, 0.00154413, 0.000789672, 0.000684322, 0.00071823, 0.000712988, 0.000636552, 0.000754662, 0.00136026, 0.00198414, 0.00140572, 0.000769231, 0.000663657, 0.000664249, 0.000680733, 0.000652152, 0.000633119, 0.0010733, 0.00141352, 0.00106001, 0.00062838, 0.000586479, 0.000644973, 0.000800386, 0.000653749, 0.000666684, 0.00120662, 0.00151575, 0.00103037, 0.000672261, 0.000654445, 0.000667841, 0.000804607, 0.000670252, 0.000670918, 0.0010886, 0.00149005, 0.00116425, 0.0010344, 0.00066408, 0.000689257, 0.000708545, 0.000598661, 0.000668954, 0.00108791, 0.00168043, 0.00149634, 0.00106258, 0.000632849, 0.000616817, 0.000680848, 0.000674871, 0.000648281, 0.00106704, 0.00111057, 0.00145821, 0.00108047, 0.000662014, 0.000666032, 0.000776194, 0.000660987, 0.000652904, 0.000626965, 0.00103958, 0.00146153, 0.00117407, 0.000661859, 0.000645535, 0.000803551, 0.000683468, 0.000580162, 0.000644523, 0.00106971, 0.00156413, 0.00102483, 0.000656854, 0.000648487, 0.000707324, 0.0010337, 0.000682056, 0.000603869, 0.000861805, 0.00135155, 0.000977174, 0.000610798, 0.000626532, 0.000704514, 0.00118991, 0.000681858, 0.000590725, 0.000991929, 0.00135579, 0.00094669, 0.000593503, 0.000596569, 0.000715708, 0.00119561, 0.000708534, 0.000588385, 0.000953378, 0.00134651, 0.000991044, 0.000883421, 0.000602223, 0.000729773, 0.000998769, 0.000615467, 0.000606111, 0.000962729, 0.00132617, 0.00130283, 0.000953058, 0.000612309, 0.0006378, 0.00105179, 0.000717783, 0.000599158, 0.00089027, 0.000945078, 0.00133501, 0.000951547, 0.000606393, 0.000710136, 0.00117824, 0.000678888, 0.000584262, 0.000587756, 0.00092193, 0.00138178, 0.000966146, 0.000588695, 0.000670727, 0.00118288, 0.000714959, 0.000602159, 0.000596395, 0.00100156, 0.0013515, 0.000911414, 0.000587375, 0.000694434, 0.000997481, 0.00179443, 0.000769645, 0.000607963, 0.000946619, 0.00145373, 0.00100846, 0.000586672, 0.000636395, 0.000731997, 0.00178941, 0.000716734, 0.000611672, 0.00105168, 0.00154818, 0.000969806, 0.000617459, 0.000603883, 0.000709031, 0.00186667, 0.000770758, 0.000614504, 0.000959527, 0.00150272, 0.0010321, 0.000950837, 0.000596287, 0.000778709, 0.00148355, 0.0006856, 0.000617181, 0.0010346, 0.00155442, 0.00152081, 0.00104397, 0.000596105, 0.00069467, 0.00171615, 0.00077644, 0.000620662, 0.000930308, 0.000990772, 0.00149781, 0.000962191, 0.000605617, 0.000804941, 0.00159584, 0.000705173, 0.000605613, 0.00060944, 0.000970631, 0.00158329, 0.00102081, 0.000614531, 0.000693636, 0.00178945, 0.000773491, 0.00066871, 0.000593224, 0.0010608, 0.00156445, 0.000921443, 0.000607098, 0.000744739, 0.0015452, 0.000825285, 0.000671079, 0.000639799, 0.00116939, 0.00191345, 0.00125417, 0.00061952, 0.000596044, 0.000656963, 0.0011051, 0.000654254, 0.000677578, 0.00133201, 0.00202951, 0.00114636, 0.000634433, 0.000652219, 0.000655009, 0.00101852, 0.000683222, 0.000681611, 0.00113233, 0.00207153, 0.00129777, 0.00113884, 0.000656751, 0.000673346, 0.00082645, 0.00061786, 0.000631781, 0.00129319, 0.00200831, 0.00198067, 0.00127343, 0.000619531, 0.000598707, 0.0008895, 0.000701655, 0.000701628, 0.00115903, 0.0012603, 0.00201221, 0.00112746, 0.000657545, 0.000666844, 0.00108283, 0.000716578, 0.000652928, 0.000662006, 0.00110808, 0.00192131, 0.00128723, 0.000659804, 0.000699838, 0.00112612, 0.000659396, 0.000579019, 0.000628127, 0.00127484, 0.00231092, 0.00115559, 0.000656983, 0.000698664, 0.000889274, 0.00167549, 0.00168737, 0.00259859, 0.00567382, 0, 0.00468852, 0.00265081, 0.00208637, 0.00186413, 0.00148145, 0.00163398, 0.00322054, 0.0054038, 0.00503734, 0.00460197, 0.00344449, 0.0033539, 0.00168579, 0.00155763, 0.00192253, 0.00345141, 0.00446472, 0.00544537, 0.00551024, 0.00541425, 0.00245832, 0.00184663, 0.00185589, 0.00225879, 0.00255648, 0.00439624, 0, 0, 0.00543422, 0.00308918, 0.0020335, 0.0018562, 0.00178463, 0.00255415, 0.00642039, 0.00527478, 0.00494322, 0.0048508, 0.00303598, 0.00189995, 0.00149636, 0.00160482, 0.00333485, 0.00286234, 0.00449691, 0.00436242, 0.0069131, 0.00313659, 0.00159165, 0.00140631, 0.00216434, 0.00193593, 0.0028892, 0.00422997, 0, 0.00621035, 0.00261826, 0.00178641, 0.00177942, 0.000899577, 0.000904699, 0.00126566, 0.00280049, 0.00346928, 0.00241442, 0.00127822, 0.000966611, 0.000971269, 0.000873047, 0.000944086, 0.0013382, 0.00260256, 0.00285508, 0.00219683, 0.00131474, 0.00129653, 0.00095252, 0.00088344, 0.000999382, 0.00135199, 0.00214353, 0.00284495, 0.00273033, 0.00256285, 0.00130365, 0.000972285, 0.000951342, 0.00101266, 0.00124823, 0.00269359, 0.00364081, 0.00362025, 0.00261402, 0.00139175, 0.00105809, 0.00093313, 0.000991274, 0.00131259, 0.00245019, 0.00269303, 0.00272733, 0.00238085, 0.00131773, 0.000981894, 0.000925274, 0.000936977, 0.00134562, 0.00136919, 0.00216647, 0.00295085, 0.00283836, 0.00127742, 0.000914068, 0.000938693, 0.00097852, 0.000946756, 0.00119952, 0.00234369, 0.00325458, 0.00259653, 0.0012297, 0.000923371, 0.000910156, 0.000702323, 0.000729626, 0.000871069, 0.0016712, 0.002292, 0.00166282, 0.00089083, 0.000688791, 0.000712955, 0.00072917, 0.00073395, 0.000904383, 0.00184296, 0.00201402, 0.0014965, 0.000868104, 0.000901899, 0.000769505, 0.000756641, 0.000706248, 0.000848629, 0.00145714, 0.00215158, 0.00178216, 0.00168534, 0.000915507, 0.000768938, 0.000710523, 0.000721746, 0.000915953, 0.00177401, 0.00241008, 0.00253964, 0.00168157, 0.000937357, 0.000735859, 0.000713785, 0.000753861, 0.000938314, 0.0017815, 0.00177138, 0.00201412, 0.00163598, 0.000877108, 0.000725728, 0.000730189, 0.000786456, 0.000900112, 0.000874673, 0.00147201, 0.00225268, 0.00170702, 0.000935482, 0.000745078, 0.000740975, 0.000729025, 0.000680325, 0.000855643, 0.00168016, 0.00242309, 0.0016312, 0.000945741, 0.000726299, 0.00069083, 0.000664796, 0.000651394, 0.000720882, 0.00119374, 0.00192542, 0.00129343, 0.00072471, 0.000609443, 0.000644491, 0.000805841, 0.000666382, 0.000704941, 0.00139292, 0.00175168, 0.00124026, 0.000674892, 0.000691039, 0.000674901, 0.000796759, 0.000652036, 0.000672084, 0.0011589, 0.00178095, 0.00134904, 0.00125222, 0.000736705, 0.000693233, 0.000694025, 0.000599171, 0.000716918, 0.00137486, 0.00196616, 0.00186077, 0.00133279, 0.000754534, 0.000629852, 0.000669615, 0.000678325, 0.00075604, 0.00128535, 0.00136391, 0.00187176, 0.00128474, 0.000694148, 0.000660954, 0.000791483, 0.000691399, 0.000731566, 0.000698776, 0.00117349, 0.00198567, 0.00143996, 0.000718235, 0.000714004, 0.000810068, 0.000681721, 0.000603243, 0.000711218, 0.00134725, 0.00180383, 0.00126299, 0.000707255, 0.000658943, 0.00066359, 0.000813915, 0.000652179, 0.000646527, 0.00113024, 0.00197131, 0.00126417, 0.000634972, 0.000599009, 0.000668878, 0.00102447, 0.000654731, 0.000637898, 0.00128225, 0.00197744, 0.00111703, 0.00062478, 0.00064573, 0.000644545, 0.00106709, 0.000664404, 0.000617332, 0.00113159, 0.00178989, 0.00123999, 0.00118601, 0.000681616, 0.000678229, 0.000819305, 0.000599695, 0.000662624, 0.00126589, 0.00195358, 0.0019749, 0.00135538, 0.000652201, 0.000610961, 0.000839568, 0.00070422, 0.000651025, 0.00112447, 0.00127343, 0.00206153, 0.00114923, 0.000649015, 0.000714219, 0.00107821, 0.000669984, 0.000656644, 0.000635394, 0.00113994, 0.00198378, 0.00131036, 0.000681134, 0.000696135, 0.00104368, 0.000714488, 0.000592422, 0.000645878, 0.00129412, 0.00200918, 0.00114627, 0.000644589, 0.000654986, 0.000830284, 0.000888437, 0.00061001, 0.000602043, 0.0011954, 0.00240895, 0.00148414, 0.000617735, 0.000523302, 0.000624836, 0.00127603, 0.000607737, 0.000617344, 0.00147217, 0.00241605, 0.00114238, 0.000603748, 0.000604944, 0.000598046, 0.00131397, 0.000648211, 0.000614758, 0.00122421, 0.00232175, 0.00150723, 0.00119318, 0.000619601, 0.000630163, 0.00091964, 0.00054331, 0.000630802, 0.001522, 0.0024735, 0.00257192, 0.00148753, 0.000600184, 0.000538092, 0.000954719, 0.000692731, 0.00068799, 0.00117071, 0.0014562, 0.00234301, 0.00112324, 0.000627822, 0.000675398, 0.00163083, 0.000688087, 0.000636451, 0.000623082, 0.00112929, 0.00237109, 0.00153545, 0.000657364, 0.000659289, 0.00141472, 0.000672855, 0.00052341, 0.000591061, 0.00136668, 0.0023993, 0.00119796, 0.0006529, 0.00069941, 0.000898093, 
