-3.14159, -2.35619, -1.5708, -0.785398, 0, 0.785398, 1.5708, 2.35619, 3.14159, 
-3.14159, -2.35619, -1.5708, -0.785398, 0, 0.785398, 1.5708, 2.35619, 3.14159, 
0, 0.035, 0.06, 0.09, 0.13, 0.18, 0.25, 
0, 0.035, 0.06, 0.09, 0.13, 0.18, 0.25, 
0.00275701, 6.25218e-05, -0.00964695, -0.00879978, -0.00815028, -0.00193208, 0.00778235, 0.00764898, 0.000648246, -0.00334878, -0.0115607, -0.0112591, -0.00325979, 0.00735713, 0.0131915, 0.00717223, -0.00681208, -0.0107172, -0.00167984, -0.00537692, 0.00301376, 0.00927477, 0.00821902, -0.000203396, -0.0103029, -0.0119423, -0.00317268, -0.00148304, 0.00266013, 0.00533595, 0.000184212, -0.00766822, -0.00589572, -0.00295461, 0.00315591, 0.00329544, -0.00402577, 0.000109886, -0.00595713, -0.0092834, 0.00108549, 0.00714838, 0.0107056, 0.00416274, -0.00202467, -0.00684579, -0.0076255, -0.00720711, 0.00778402, 0.0127249, 0.0137128, 0.000595548, -0.00568947, -0.00791478, 0.00252561, 0.00278398, 0.00427464, 0.00771303, 0.000186775, -0.00833191, -0.008483, -0.00638475, 0.00174918, -0.00465357, -0.00233707, 0.00219458, -0.0058958, -0.00806406, -0.00585352, 0.00238482, 0.00964969, 0.00372679, -0.0037023, -0.00226372, -0.00961468, -0.0101304, -0.00220047, 0.00984501, 0.013281, 0.00213735, -0.0114434, -0.012854, -0.00301904, -0.00400453, 0.00302136, 0.00915299, 0.00966396, -0.0036149, -0.0104895, -0.00991448, -0.000837816, -0.0040095, 0.00281601, 0.00645737, 0.00365301, -0.00876712, -0.00714602, -0.00111375, 0.00197005, -0.00163593, -0.00314039, 0.00509572, -0.00292003, -0.00773833, -0.00433624, 0.00394554, 0.00731769, 0.000256954, -0.00331929, 0.00360559, -0.00548661, -0.00915196, 0.00115563, 0.00929071, 0.00573091, -0.00307842, -0.00807217, -0.00478891, 0.00166075, -0.00515479, 0.00096008, 0.00688935, -0.00151149, -0.00304373, -0.00691059, -0.00237146, 0.00607381, 0.00158872, -0.00557878, 6.32201e-05, -0.00536987, -0.00959061, -0.00959371, 0.000880647, 0.00668887, -0.00397059, -0.00636462, -0.00333867, -0.00893518, -0.0126684, -0.00976906, 0.00406359, 0.00728238, -0.00238856, -0.010136, -0.00926282, -0.00369807, -0.00936932, -0.00483861, 0.00404594, 0.00313883, -0.00714952, -0.0109362, -0.00669391, -0.00135938, -0.00755726, -0.00355488, 0.00329535, 0.000458366, -0.0113868, -0.00881177, -0.00446672, 0.00208101, -0.00588953, -0.00806362, 0.000643164, -0.00341575, -0.00970921, -0.0076166, 0.00140061, 0.00350668, -0.00368757, -0.00697748, -0.0027761, -0.00484717, -0.0111207, -0.00234842, 0.00182589, 0.00294327, -0.0092921, -0.0130016, -0.00799331, -7.54192e-05, -0.00734749, -0.00156798, 0.00320296, -0.00074197, -0.00671965, -0.0111236, -0.00465932, 0.00276904, -0.00343033, -0.00552326, -0.00165136, -0.00219785, -0.0124042, -0.0101428, 4.51669e-05, 0.0014086, -0.00435323, -0.00591981, -0.00266705, -0.00497347, -0.0108699, -0.0105311, -0.00125317, 0.00333239, -0.00417065, -0.00911751, -0.00664891, -0.00208477, -0.00811032, -0.00861772, 0.00144213, 0.00434504, -0.0108679, -0.00941842, -0.00584661, -9.23792e-06, -0.00959485, -0.00669452, -0.000106985, -0.000703174, -0.0103119, -0.00853242, -0.00264484, 0.00150386, -0.0072098, -0.00902211, -0.00232189, -0.00409949, -0.00697488, -0.00687679, 0.00135292, 0.0039306, -0.008063, -0.0105739, -0.00339408, -0.00423796, -0.00812748, -0.00378174, 0.00053174, 0.00283766, -0.01143, -0.0132479, -0.00641739, -0.00286524, -0.00829895, -0.00323861, -0.000172837, -0.000556371, -0.00724624, -0.0116808, -0.00629652, 0.00136882, -0.00557875, -0.00292193, -0.00262043, 0.00021454, -0.00720097, -0.00767573, -0.00367755, 0.00145469, -0.00412293, -0.00532667, -0.00229935, -0.00190481, -0.00732378, -0.0125745, -0.00481067, 0.00173649, -0.000716778, -0.00641531, -0.00583095, -0.000977176, -0.00837296, -0.0056944, -0.0026657, 0.00519101, -0.00803446, -0.00843813, -0.00294106, -0.00076399, -0.00916519, -0.00726746, 0.00317719, 0.000566869, -0.00786298, -0.00374039, -0.00379809, 0.00121834, -0.00599808, -0.00757508, -0.00200536, -0.00399771, -0.0111923, -0.0068742, 0.000441951, 0.00514252, -0.00785964, -0.0100532, -0.00357141, -0.00186592, -0.00764325, -0.00553306, 0.00132907, 0.00080901, -0.00705987, -0.0111729, -0.0070418, -0.00160402, -0.00814399, -0.00236772, -0.000801786, 0.00609509, -0.00635798, -0.0163324, -0.00331178, 0.00104691, -0.00600353, -0.00496716, 0.00172185, 0.00118687, -0.00472659, -0.00745515, 0.00604088, 0.00102921, -0.0050799, -0.00656479, -0.0044175, -0.00119755, -0.00572651, -0.013457, -0.00625903, -0.00623409, -0.00162167, -0.0110045, -0.00305807, -0.00131348, -0.00624517, -0.00690935, -0.00221816, 0.00415294, 0.00127774, -0.00612372, -5.7405e-05, 0.00112703, -0.00280232, -0.00773412, 0.00271245, 0.00859867, -0.00200796, -0.00992351, -0.0125935, 0.00757032, -0.00228915, -0.00692495, -0.00278855, -0.0028033, -0.00728807, -0.00186004, -0.00519149, 0.00456799, -0.0049008, -0.00625578, -0.00248773, -0.00444315, -0.00789699, -0.00123025, -0.00385829, 0.00672555, -0.000406779, -0.0113928, -0.00556654, 0.000262998, -0.00883376, -0.00454576, -0.00173201, -0.00353536, 0, -0.0186849, -0.00966072, -0.00247348, -0.00235552, -0.00208259, -0.00370544, -0.0111294, -0.0103979, -0.00697906, -0.0046246, 0.00208431, 0.00305836, 0.00304425, -0.00142506, -0.0118342, -0.00988814, -0.00182173, 0.00413095, 0.00979942, 0.00719187, -0.00474373, -0.0100037, -0.0042548, -0.00258381, 0.0016107, 0.00779347, 0.00614089, -9.76629e-05, -0.00813761, -0.00978563, -0.00363256, -0.00528492, -0.00150305, -0.000678994, -0.00431199, -0.00614106, -0.00651869, -0.00283989, 0.00310822, 0.00217284, -0.00225304, -0.00291232, -0.00752006, -0.00688187, 0.00163046, 0.00805864, 0.00723799, 0.00806365, 0.0043561, 0.001714, -0.00577137, -0.00337755, 0.00769682, 0.0137499, 0.00769105, 0.00529615, -0.00113775, -0.0047178, 0.000894577, 0.00608169, 0.00286479, 0.00376745, -0.00450514, -0.00644676, -0.00707862, -0.00904566, -0.00510773, 0.000319949, 0.000368313, -0.000211669, -0.0108512, -0.0115136, -0.00630838, -0.00221264, 0.00511247, 0.00328381, -0.000122572, -0.00386263, -0.0148376, -0.0110438, -0.00251706, 0.00542365, 0.0103783, 0.00546276, -0.0102807, -0.0138637, -0.00451603, -0.00099479, 0.00356976, 0.00895865, 0.00715237, -0.00257093, -0.0105817, -0.0103093, -0.00181564, -0.000734866, 0.004384, 0.0033429, -0.000122959, -0.00797545, -0.0066448, -0.00147905, 0.00357568, 0.0024646, -0.00076588, -0.000781013, -0.00702365, -0.00935668, -0.00342696, 0.00584894, 0.00761127, 0.00364488, -0.000670054, -0.00443111, -0.00946924, -0.0085378, 0.00484881, 0.0106969, 0.0070079, -0.000855364, -0.00710193, -0.00947811, -0.00414255, -0.00262112, 0.00366478, 0.00513943, -0.00257409, -0.00710198, -0.00757762, -0.00862489, -0.00152799, -5.85909e-05, -0.0012981, -0.000251271, -0.00955704, -0.0131613, -0.0114256, -0.00408095, 0.00520135, 0.00116835, -0.00235931, -0.00150558, -0.0148928, -0.0142081, -0.00864721, 0.00122035, 0.00857174, 0.000493161, -0.0116194, -0.0119601, -0.00541513, -0.00668661, -0.00194321, 0.00561796, 0.00320047, -0.00699565, -0.0125447, -0.0099821, -0.000991591, -0.00235321, -0.000214902, 0.00359303, -0.0022827, -0.00956332, -0.00643112, -0.00291842, 0.00478607, -0.000385418, -0.00357076, -6.19202e-05, -0.00827824, -0.0123208, -0.00678468, 0.00155596, 0.005345, -0.000991083, -0.00597871, -0.00476175, -0.00950278, -0.0131389, -0.000561834, 0.00489801, 0.00262482, -0.0066172, -0.0121218, -0.0110718, -0.00407297, -0.00622177, 0.000429435, 0.00324086, -0.00245004, -0.0121137, -0.0128866, -0.00938465, 0.00191226, -0.00193262, -0.00280427, -0.001128, -0.00820868, -0.0140555, -0.0116811, -0.00493917, 0.00302784, -0.00193993, -0.00382615, -0.00358774, -0.00930597, -0.0144921, -0.00897928, 1.32504e-06, 0.00589601, -0.00308968, -0.0119378, -0.0104462, -0.00326235, -0.00793292, -0.00486042, 0.00223846, 0.00140031, -0.00916935, -0.0120899, -0.00860578, 0.000591368, -0.00515745, -0.00298795, 0.000967156, -0.0021581, -0.0100813, -0.00646463, -0.0041556, 0.00393169, -0.00335599, -0.00572025, -0.000824904, -0.00705266, -0.0112419, -0.00687836, 0.000394295, 0.00543512, -0.00292518, -0.00927562, -0.00595611, -0.00940154, -0.0117776, -0.00301216, 0.00190444, 0.00354969, -0.00772143, -0.0136289, -0.0104671, -0.00395961, -0.00729557, -0.00103386, 0.00208143, -0.00204462, -0.0103389, -0.0118796, -0.00865746, -0.000616234, -0.00420767, -0.00158435, -0.00169835, -0.00392739, -0.0123213, -0.0114527, -0.00368402, 0.00219349, -0.00143438, -0.00335591, -0.00451515, -0.00637703, -0.0118668, -0.00980858, 6.47481e-06, 0.00383299, -0.00150709, -0.00914757, -0.00872762, -0.00114352, -0.0077134, -0.00716425, 0.000853089, 9.40389e-05, -0.00907335, -0.0113467, -0.00787389, 0.000503361, -0.00396429, -0.00421373, -0.000567193, -0.00270066, -0.00604499, -0.00740598, -0.00431179, 0.00194593, -0.00340524, -0.00688618, -0.00111483, -0.00653473, -0.0095399, -0.00502334, 0.00121139, 0.00644774, -0.00434381, -0.00998878, -0.00631151, -0.00668325, -0.00982776, -0.00338139, 0.000578209, 0.00285039, -0.00897671, -0.0120102, -0.00864796, -0.0036942, -0.00739595, -0.00230834, 0.000534551, -0.00058698, -0.0113766, -0.0122562, -0.0079198, -0.00073712, -0.00323984, -0.00158884, -0.00132063, -0.003948, -0.00694657, -3.82968e-05, -0.0040589, 0.00165556, -0.00171009, -0.00471656, -0.00519518, -0.00481325, -0.00929285, -0.0121857, 0.000293476, 0.00400718, -0.00309967, -0.00796955, -0.0096085, -0.00121771, -0.00559087, -0.00365725, -0.000367326, 0.00408065, -0.00344789, -0.00688506, -0.0052365, 0.00270226, -0.00445136, -0.00475436, -0.000245336, -0.00289551, -0.00636256, -0.00066259, -0.00165624, 0.00466819, -0.00249707, -0.00637009, -0.0023738, -0.00582773, -0.00845257, -0.00590095, -0.00127453, 0.00634139, 4.08202e-05, -0.00877363, -0.00681083, -0.00602049, -0.00821992, -0.00129153, -0.00246686, 0.00752898, -0.00486762, -0.0111847, -0.00907061, -0.00479962, -0.00685675, -0.00201078, 0.000758374, 0.00211434, -0.00782668, -0.0143827, -0.00816253, 0.000427224, -0.00248462, -0.0048834, -0.00600389, -0.010325, -0.0119256, -0.00881741, -0.00639136, -0.00329552, -0.00180364, 0.00186629, -0.00216895, -0.00765867, -0.00763556, -0.00326208, -0.000153616, 0.00429335, 0.00296341, -0.00545341, -0.00722652, -0.00339248, -0.000839372, 0.00129515, 0.00314427, 0.00567158, 0.000224967, -0.0108834, -0.0123178, -0.00794025, -0.00749084, -0.00586506, -0.00417463, -0.00949542, -0.00997908, -0.00953382, -0.00886215, -0.005421, -0.0053587, -0.00848698, -0.00847311, -0.0123628, -0.0106786, -0.00247252, 0.00351258, 0.00367057, 0.00331504, 0.00178115, -0.00157891, -0.00603043, -0.0062919, 0.0052521, 0.00569463, 0.00419588, 0.000514231, -0.00255868, -0.00293531, -0.0005376, 0.00397365, -0.0014313, -0.00238831, -0.0071347, -0.0100046, -0.0116364, -0.0110139, -0.00816513, -0.00301763, -0.00165763, -0.0030678, -0.0123013, -0.011498, -0.00854489, -0.00566412, -0.000401432, 0.000978765, 7.76806e-05, -0.00102067, -0.014193, -0.0101471, -0.00255086, 0.00252005, 0.00646036, 0.00413822, -0.0108605, -0.0146995, -0.00419366, -5.72928e-05, 0.00421189, 0.00517473, 0.00342375, -0.00317014, -0.0146018, -0.0141885, -0.00602488, -0.00336594, 0.000344787, -0.00246731, -0.00724239, -0.0102815, -0.010824, -0.00899592, -0.000597334, 0.000846755, -0.00339288, -0.00684028, -0.0118682, -0.0126904, -0.00394647, 0.000712967, 0.00485994, 0.00278086, -0.000555621, -0.00395633, -0.0115877, -0.00904089, 0.00456376, 0.00730607, 0.00450943, 0.000411773, -0.00725689, -0.0103455, -0.00256705, 0.00134752, 0.000990281, 0.000227789, -0.00701463, -0.010731, -0.011561, -0.0129444, -0.00641994, -0.00129432, 0.000802716, -0.00141284, -0.0123758, -0.0153504, -0.0117222, -0.00643905, 0.00260555, 0.0017074, -0.000951089, -0.00408045, -0.0155275, -0.01365, -0.00846197, -0.000296737, 0.00481979, 0.000601094, -0.0122044, -0.0155558, -0.0054761, -0.00121258, 0.000953922, 0.00450415, 0.0013727, -0.00747957, -0.0145627, -0.0138529, -0.00267134, -0.000760224, 0.000551538, 0.00079031, -0.00623038, -0.0139053, -0.0127586, -0.00762928, 0.000191326, 0.000258399, -0.000742345, -0.00236335, -0.0118911, -0.0145186, -0.00674524, -0.000817712, 0.00457657, 0.000101497, -0.00227896, -0.00578301, -0.0135789, -0.0125731, 0.00306112, 0.00542728, 0.00191973, -0.00557895, -0.0123227, -0.0135364, -0.00355767, -0.00168626, 0.00221353, 0.00128883, -0.00814336, -0.0124908, -0.014559, -0.0120624, -0.00220171, -0.000145897, -0.000100619, 3.10705e-05, -0.0110875, -0.015671, -0.0112242, -0.00611282, 0.00236771, 0.00112515, -0.0027875, -0.00390693, -0.0132417, -0.0158665, -0.0107922, -0.00325408, 0.00472077, -0.000714112, -0.0126001, -0.0141727, -0.00316591, -0.00415977, -0.00202439, 0.00207223, 3.84054e-05, -0.0083983, -0.0135615, -0.0128823, 0.00109351, 0.000111346, 0.000273434, 0.00135754, -0.00525165, -0.0142609, -0.0108014, -0.00781237, 0.00207032, 0.000835276, -0.000936247, -0.00113874, -0.0109774, -0.0159964, -0.00775442, -0.00274522, 0.00558661, -0.00140933, -0.00503634, -0.00323947, -0.0119808, -0.0145235, 0.000921458, 0.00445414, 0.00198575, -0.00683291, -0.0143762, -0.0135498, -0.00425958, -0.00374685, 0.000994724, 0.00175405, -0.00473633, -0.0145098, -0.0158361, -0.0122325, -8.24742e-05, 0.000175297, 0.00127783, -0.000127778, -0.00834199, -0.0130775, -0.0108711, -0.00666257, 0.00324915, -0.000240521, -0.00148684, -0.00206565, -0.00935084, -0.0132684, -0.0105814, -0.00378853, 0.00381298, -0.000875875, -0.0129466, -0.012192, -0.000742093, -0.00364406, -0.00324486, 0.00161712, -0.0011204, -0.00801244, -0.0139331, -0.0111857, 0.00298616, -0.00061208, -0.00059687, 0.00101275, -0.00402711, -0.012298, -0.00945949, -0.00445083, 0.00340713, 0.000621152, -0.00205831, 0.000457948, -0.00963123, -0.0128645, -0.00655668, -0.00152647, 0.00520131, -0.0025626, -0.00785135, -0.00468543, -0.0102217, -0.0120706, -0.00161671, 0.00116964, 0.00261406, -0.00870318, -0.0137785, -0.0125606, -0.00389703, -0.00433062, 0.00136246, 0.00137012, -0.00326776, -0.00858252, -0.0157482, -0.0108725, 0.000224334, 6.1818e-05, 0.000342436, -0.000279949, -0.00431293, -0.0104002, -0.0102207, -0.00688985, 0.00252152, 0.000378402, -0.00372819, -0.00196711, -0.00549238, -0.00997196, -0.00693984, -0.00298657, 0.00407504, 4.66931e-05, -0.00963918, -0.0121429, 0.000616258, -0.00120924, -0.00147901, 0.00223889, 0.00161084, -0.00815904, -0.0120071, -0.0114624, 0.00287146, 0.00144246, 3.82403e-05, -4.05434e-05, -0.00669508, -0.0103013, -0.0122104, -0.00683607, 0.0047919, 0.00128291, -0.00168323, -0.00180086, -0.00802806, -0.00949117, -0.00582405, -0.00552027, 0.00528321, -0.000105541, -0.00611078, -0.00552904, -0.00881111, -0.0123687, -0.00179792, 0.00130129, 0.00350338, -0.00377706, -0.0129934, -0.0113081, -0.00442336, -0.00428499, 0.000823806, 0.00180662, -9.49409e-05, -0.00275313, -0.0139753, -0.0107249, -0.000505835, 0.000704032, -0.00484965, -0.00514593, -0.0109521, -0.00987819, -0.00900369, -0.00811957, -0.00525937, -0.00193544, -0.000234888, -0.00354507, -0.00616915, -0.00544749, -0.00393422, 0.000378724, 0.00383228, 0.00188469, -0.00285254, -0.00609168, -0.00296912, -0.00106508, 0.00223869, 0.000336632, 0.00229039, -0.00124693, -0.00978273, -0.0122145, -0.00782612, -0.00905447, -0.00684575, -0.00664648, -0.00852554, -0.0127988, -0.00872177, -0.009972, -0.00708365, -0.00645549, -0.00903822, -0.00971249, -0.0130021, -0.0117513, -0.000824168, 0.00106269, 0.00241799, -0.002766, -0.00163411, -0.00341317, -0.00678802, -0.00464791, 0.0040347, 0.00544201, 0.000895147, 0.000510546, -0.00460662, -0.00221241, -0.000381788, 0.00096577, -0.00552957, -0.00444702, -0.00844401, -0.0115324, -0.0106696, -0.00936428, -0.00877547, -0.00662752, -0.00267482, -0.00445303, -0.0109599, -0.0105244, -0.00841419, -0.00699105, -0.00236214, -0.000791934, -0.0014675, -0.00375484, -0.0111174, -0.0081315, -0.00257137, -0.00210654, 0.00362519, 0.00170404, -0.00822865, -0.00953968, -0.00200993, 0.00124474, 0.00401872, 0.00478364, 0.00397281, -0.00246009, -0.0143805, -0.0139275, -0.00794745, -0.0046106, -0.00187054, -0.00540933, -0.00838696, -0.0115846, -0.01222, -0.0100238, -0.00472616, -0.00333168, -0.00683874, -0.00848485, -0.0128925, -0.0124397, -0.00343417, -0.000640107, 0.00111989, 0.00136125, -0.00203878, -0.00621428, -0.0105202, -0.00882372, 0.00348725, 0.00383333, 0.00259658, -0.00131336, -0.00634569, -0.00901425, -0.00320262, 0.000421157, -0.000773277, -0.00244531, -0.00734825, -0.00832473, -0.0130615, -0.0115387, -0.00806455, -0.00286049, -0.000184613, -0.00228388, -0.0136652, -0.0146123, -0.0114196, -0.00867504, 0.000757582, 0.00268799, 0.00022679, -0.00207374, -0.0147407, -0.0130952, -0.00881497, -0.00257121, 0.00295994, 0.00113605, -0.0102762, -0.0133294, -0.000113319, 0.00192448, 0.00279904, 0.00268485, 0.00269448, -0.00520741, -0.0151243, -0.0150085, -0.00324211, -0.00114479, -0.000111099, -0.00177948, -0.0101592, -0.0131665, -0.0115885, -0.0101445, -0.00250802, -0.000678419, -0.00173823, -0.00476284, -0.013897, -0.0164515, -0.00757077, -0.00228706, 0.00291087, 0.000913118, 7.61634e-07, -0.00252278, -0.0141665, -0.0120884, 0.00223188, 0.0038325, 0.000793287, -0.0057828, -0.0107909, -0.0127205, -0.00374606, 0.000161603, -0.000481734, -0.00157952, -0.0091673, -0.0121918, -0.0144827, -0.0140302, -0.0038985, 0.000111331, 0.00140322, -0.00173381, -0.0122209, -0.0144253, -0.013445, -0.00683842, 0.0011239, 0.000858999, -0.000691418, -0.00477418, -0.0158986, -0.0156755, -0.0103147, -0.00397368, 0.0025828, -0.000249426, -0.0136413, -0.0144699, -0.00245961, -0.00158637, 0.000727448, 0.00295422, -0.00185012, -0.00657457, -0.0162946, -0.0151606, -0.00121226, 0.00053458, 0.00134623, -0.0002917, -0.00709062, -0.0152883, -0.0140429, -0.011041, 0.0007333, 0.000370198, -0.000812827, -0.00172793, -0.0134065, -0.0154148, -0.00838515, -0.00408846, 0.00264499, -0.000677912, -0.00275866, -0.0049046, -0.0142243, -0.0135507, 0.000860877, 0.00323173, 0.000363791, -0.0082869, -0.0137381, -0.014639, -0.00197543, -0.00247068, 0.00129762, 0.000109431, -0.00823573, -0.0141193, -0.0166044, -0.0137048, -0.00218056, 0.00197669, 0.0022455, 0.000360244, -0.00998982, -0.0127594, -0.0140848, -0.00701821, 0.00295581, 0.00127762, -0.00174858, 0.000262878, -0.011674, -0.0137152, -0.0112052, -0.00343828, 0.00250811, 0.00036423, -0.0123472, -0.0157596, -0.000707745, -0.00241539, 0.000865035, 0.00378182, 0.00185297, -0.00808267, -0.0143143, -0.0138041, 0.00160864, 0.00134529, 0.00111947, 0.0014396, -0.00810579, -0.0139497, -0.0112651, -0.0104265, 0.00299522, 0.000988694, 0.000234647, -0.000188325, -0.0117579, -0.0144383, -0.00698491, -0.00515253, 0.0044122, -0.000509855, -0.0042589, -0.00336066, -0.0143666, -0.0152188, 0.000855357, 0.00261743, -0.000990234, -0.00874376, -0.0135894, -0.0145632, -0.00255796, -0.00204329, 0.0026435, 0.00018263, -0.0054608, -0.011908, -0.0157982, -0.0127252, 0.00108582, 0.00261097, 0.00213167, -0.000285736, -0.00833506, -0.0113206, -0.00964169, -0.00727667, 0.00293092, 0.00316355, -0.00105991, -0.00127831, -0.0079623, -0.0095864, -0.00830191, -0.00472392, 0.00329901, 0.00130462, -0.01184, -0.0123095, 0.00186554, 0.000969075, 0.000566218, 0.00231348, 0.00117874, -0.00671106, -0.0140093, -0.0123279, 0.00448783, 0.00537294, 0.00318092, 0.00190768, -0.00718763, -0.0100607, -0.00990134, -0.00967188, 0.005242, 0.00402104, 0.00238709, 0.000346655, -0.0103438, -0.0163515, -0.00683625, -0.00424351, 0.00569249, 0.000502199, -0.00275953, -0.00253462, -0.0106403, -0.0128535, 0.00152382, 0.00346012, 0.00358233, -0.0051495, -0.013699, -0.0136296, -0.00252937, -0.00273906, 0.0030895, 0.00110542, -0.00373805, -0.00794616, -0.0144942, -0.0119264, 0.00132853, 0.00296642, -0.00384215, -0.00432537, -0.00918232, -0.00887661, -0.00394142, -0.00310596, -0.00424922, -0.00276717, -0.00128134, -0.00458557, -0.00396312, -0.00355658, -0.000224375, 0.00206948, 0.00125402, -0.000245572, -0.000995289, -0.00385823, -0.00113196, 0.000922792, 0.0023937, 0.00472655, 0.00582502, 0.000913236, -0.00674303, -0.0111311, -0.00696213, -0.0078654, -0.00743676, -0.00752747, -0.00694691, -0.00453065, -0.00500893, -0.0110045, -0.00712487, -0.00759237, -0.00923294, -0.00911542, -0.0123401, -0.0116183, -0.0021064, 0.00567468, 0.000739095, -0.00241977, -0.00408015, -0.00399966, -0.00465655, -0.00378984, 0.00131688, 0.00137822, 0.0065853, -0.00264056, -0.00301781, -0.00346224, -0.00116399, -0.000382829, -0.00608907, -0.00495771, -0.00643787, -0.00789473, -0.00713711, -0.0075361, -0.0068321, -0.00542275, -0.00280856, -0.00409904, -0.00995382, -0.0129974, -0.00503863, -0.00829479, -0.0033795, -0.00135195, -0.00179437, -0.00393282, -0.0086854, -0.00821233, -0.0035657, 0.00300982, 0.00199864, 0.00207083, -0.00569298, -0.0069168, -0.000743564, 0.0017088, 0.00271836, 0.00352405, 0.00236321, -0.000892802, -0.0117499, -0.0123925, -0.00616506, -0.00489624, -0.00353691, -0.00444847, -0.00982568, -0.00878928, -0.0119679, -0.00892042, -0.00644032, -0.00464145, -0.00571558, -0.00884287, -0.0138082, -0.0133724, -0.00295783, -0.00239939, 0.00246458, -0.00030911, -0.00139178, -0.00568925, -0.00939862, -0.00656502, 0.0020783, 0.00578874, 4.90613e-05, -0.00285637, -0.00527242, -0.00799949, -0.00305968, 0.00151083, -0.00163201, -0.00291505, -0.0061374, -0.00882364, -0.0110783, -0.00995649, -0.00708771, -0.00280313, -0.00024513, -0.00319767, -0.0123636, -0.0131168, -0.0120755, -0.00830846, -0.000682758, 0.00255769, -0.000585632, -0.00165339, -0.0112552, -0.0114142, -0.007967, -0.00376854, 0.00297471, 0.000478019, -0.00751046, -0.00894321, -0.000209129, 0.00321719, 0.00394319, 0.0048965, -0.000192876, -0.00241622, -0.0118709, -0.0141666, -0.00335127, 0.000943986, -0.000455589, -0.00405697, -0.00779152, -0.0109312, -0.0112818, -0.0104027, -0.00167842, -0.00124029, -0.00344225, -0.00618522, -0.014086, -0.0140477, -0.00551995, -0.00192176, 0.00134548, 0.000952695, -0.000300833, -0.00388553, -0.0117831, -0.010874, 0.00251281, 0.00349177, -0.00180471, -0.00547346, -0.00907949, -0.00972871, -0.00366898, 0.00140125, 0.000548451, -0.000723152, -0.0083548, -0.0116165, -0.0144649, -0.0122331, -0.00387989, -0.000508004, 0.00140839, -0.00153437, -0.0132286, -0.0135057, -0.011947, -0.00809479, 0.000526718, 0.00149229, 7.24053e-05, -0.00300811, -0.0153245, -0.0140186, -0.0101355, -0.00503657, 0.00286648, 0.00106833, -0.0106681, -0.0139582, -0.00051086, 0.00217756, 0.00250288, 0.0041831, -0.00114715, -0.00577584, -0.0140368, -0.0142225, -0.000700807, 0.000624809, 0.000510653, -5.21415e-05, -0.00805819, -0.0120768, -0.0115358, -0.0105802, -4.11397e-05, 0.00141565, 0.000440108, -0.00381466, -0.0147427, -0.0160966, -0.00752808, -0.00355039, 0.00224423, 0.00129972, -0.00163123, -0.0042985, -0.0146617, -0.0122981, 0.00274779, 0.00379582, -0.00235069, -0.00658101, -0.0114297, -0.0140542, -0.00374884, 5.56537e-06, 0.00245939, -0.000648345, -0.00878177, -0.00895697, -0.0164239, -0.0144376, -0.0029806, 0.00306839, 0.00133299, -0.000650652, -0.0117719, -0.0123366, -0.0134299, -0.00845515, 0.00219683, 0.00289257, -0.000540488, -0.00266761, -0.0147003, -0.0135933, -0.00784115, -0.00484102, 0.00322355, 0.00177296, -0.0120222, -0.0155561, -0.00257295, 0.00160913, 0.00344956, 0.00396077, 0.000490727, -0.0059127, -0.0129864, -0.0143044, 0.000930175, 0.0019012, 0.00180603, 0.00166458, -0.00826073, -0.0135552, -0.0120874, -0.00924134, 0.00280186, 0.00255299, 0.000100885, -0.000554185, -0.0142261, -0.0146842, -0.0080443, -0.00339864, 0.00434518, 0.00167546, -0.0022714, -0.00241412, -0.0155599, -0.0145389, 0.00253927, 0.0039207, 0.000642486, -0.00880301, -0.0136209, -0.0161464, -0.00344028, -3.02537e-05, 0.00270129, 0.00123313, -0.00786404, -0.0121698, -0.0155124, -0.0134992, -0.00127572, 0.00486526, 0.0022639, 0.00152686, -0.00953243, -0.0123238, -0.0137937, -0.00420286, 0.00313761, 0.00146772, -0.00032776, -0.00310228, -0.0106099, -0.0114349, -0.00954202, 0.00118812, 0.00432426, 0.00254138, -0.0124647, -0.0146736, 0.000265221, 0.00223431, 0.00396895, 0.00318191, 0.00122887, -0.00587623, -0.0135751, -0.0136952, 0.00398997, 0.00647141, 0.00363015, 0.00176648, -0.00772948, -0.00881887, -0.0119829, -0.00883493, 0.00583703, 0.00571639, 0.0034705, 0.000327919, -0.0129017, -0.01613, -0.00735108, -0.00327218, 0.00584352, 0.00343569, -0.00171358, -0.00388347, -0.0158708, -0.0134207, 0.00328049, 0.00280596, 0.00171144, -0.00605559, -0.014364, -0.0158094, -0.00199326, -0.00116815, 0.00321357, 0.00245168, -0.00690578, -0.00867653, -0.0147018, -0.0131633, 0.000899077, 0.00130652, -0.0048894, -0.00516026, -0.00969681, -0.0103551, 0, -0.00330945, -0.0043323, 0.00194685, -0.00243492, -0.00283793, -0.00662136, -0.0126696, -0.0028855, 0.00311169, 0.0021895, -0.0019013, 0.00342749, -0.00053472, 0.000818792, 0.00327497, -0.000570679, 0.00323495, 9.65383e-05, 0.0105897, -0.0129022, -0.00615633, -0.00311546, -0.00538176, -0.00336475, -0.00422606, 0.0013514, 0, 0, -0.0128728, -0.0105575, -0.00412339, -0.00437629, -0.0113556, -0.0155929, -0.0147281, 0.0010313, 0.00195786, -0.00373742, -0.00935316, 7.82455e-05, -0.00506255, -0.0059649, -0.00299901, 0.00148908, 0.00803108, 0.00862546, -0.00295026, -0.0051277, 0.000446825, -0.000355082, -0.0019982, -0.000567835, -0.00445255, -0.00892121, 0, -0.00807367, -0.00408566, -0.0060843, -0.00520368, -0.00219406, -0.00489032, -0.00659837, -0.00905569, -0.00596841, -0.00451092, -0.0031964, -0.00308271, -0.00161562, -0.00385904, -0.00700461, -0.00759974, -0.00627601, -0.00246667, -0.000381756, 0.00179398, -0.00232388, -0.00487022, -0.000207106, 0.00269869, 0.00450522, 0.00594605, 0.00463142, 0.00217711, -0.010088, -0.0100947, -0.00391143, -0.00274492, -0.00263265, -0.00398186, -8.5882e-05, -0.0110207, -0.00823152, -0.00667881, -0.00577508, -0.00423138, -0.00708844, -0.0092172, -0.013531, -0.013798, -0.00344454, -0.00303786, -0.000204313, 0.000359054, -0.00263824, -0.00538541, -0.0086848, -0.00919595, 0.00121857, 0.00359231, -0.00237155, -0.00367256, -0.0057214, -0.00598986, -0.0035058, -0.00142898, -0.00130625, -0.00300802, -0.00581375, -0.0089898, -0.010722, -0.00842878, -0.00622726, -0.00270567, -0.000803655, -0.00185874, -0.0118933, -0.0113396, -0.00941498, -0.00676902, -0.00127447, 0.00121779, -0.000675327, -0.00272958, -0.0109769, -0.0105305, -0.00971839, -0.00407899, 0.0015222, -0.00014813, -0.00490967, -0.00552182, -8.69315e-05, 0.00466191, 0.00601732, 0.00438793, 0.00406321, -0.001017, -0.00930042, -0.00983395, -0.000181406, 0.00114996, 0.00200489, -0.00028315, -0.00374911, -0.00671033, -0.0079967, -0.00909832, -0.00220827, -0.000345265, -0.00129129, -0.00638262, -0.0129963, -0.014274, -0.00722545, -0.00114302, 0.00130259, -0.00011796, 9.02089e-06, -0.00589413, -0.010702, -0.00977097, 0.00298576, 0.00521004, -0.00134029, -0.00300472, -0.00824073, -0.00888553, -0.00427614, 0.000445972, 0.000772621, -3.69442e-05, -0.0022775, -0.0119308, -0.0141039, -0.0111104, -0.00317457, 0.000754125, 0.00163751, -0.000799354, -0.0123287, -0.0123587, -0.0131869, -0.00706548, 0.00047033, 0.0026588, -6.79956e-06, -0.00143603, -0.0131477, -0.0118804, -0.00809786, -0.00309223, 0.00337267, 0.00106623, -0.0066545, -0.00706891, 0.000281228, 0.00361028, 0.00520555, 0.00572998, -1.07362e-05, -0.00646838, -0.0111615, -0.0112754, 0.000478339, 0.00439381, 0.00436835, 0.00115537, -0.00546268, -0.0124052, -0.00962525, -0.00875912, 0.00130862, 0.00187531, 0.00230681, -0.00384672, -0.0130063, -0.0146433, -0.00836228, -0.0029791, 0.00152103, 0.000979674, 0.00114782, -0.00284502, -0.0135399, -0.0124562, 0.00283219, 0.00265671, -0.00225239, -0.00911701, -0.0118674, -0.0117996, -0.00283687, 0.000544018, 0.00128023, 0.00192465, -0.00522262, -0.0113306, -0.013926, -0.0137561, -0.00292301, 0.00152258, 0.00225188, 0.000246076, -0.0114416, -0.0117476, -0.00914794, -0.00497034, 0.00400641, 0.00366688, 0.000359341, -0.00148909, -0.0146577, -0.0123869, -0.010647, -0.00534531, 0.0037044, 0.00214932, -0.00876091, -0.0110853, 0.000286721, 0.00343301, 0.0042444, 0.00613718, 0.00285102, -0.00498638, -0.00995677, -0.0123746, 0.00164669, 0.00565884, 0.00479299, 0.00377295, -0.00722341, -0.00863808, -0.0106499, -0.00925434, 0.00283501, 0.00422262, 0.00371862, -0.00129852, -0.0137672, -0.014682, -0.0103655, -0.00791862, 0.00231725, 0.00249984, 2.14099e-05, -0.00228223, -0.0181945, -0.0150142, 0.00368375, 0.000875392, -0.00177407, -0.0081231, -0.0139316, -0.0147511, -0.00307645, 3.05254e-05, 0.00356794, 0.0026997, -0.00493009, -0.00986087, -0.0141923, -0.0130949, -0.000815801, 0.00188366, 0.003521, 0.00196535, -0.0104499, -0.00823731, -0.00991965, -0.0072175, 0.00404113, 0.00405547, 0.00129799, -0.00176373, -0.0147418, -0.0112138, -0.00845951, -0.00435339, 0.00483905, 0.00399791, -0.0106225, -0.0142997, 0.000860595, 0.00355578, 0.00661098, 0.00428283, 0.00156206, -0.00501385, -0.0101455, -0.01257, 0.00388975, 0.00611404, 0.00549603, 0.00436008, -0.00652732, -0.0102721, -0.00836427, -0.00778124, 0.00657976, 0.00508762, 0.00292508, -0.00054547, -0.0142401, -0.0131354, -0.00716226, -0.00563168, 0.00752727, 0.00380467, -0.000557753, -0.00339753, -0.0182313, -0.0134079, 0.00516151, 0.00349261, 0.00257644, -0.0028334, -0.0147806, -0.0163375, -0.00492739, 0.000202928, 0.00519495, 0.00478874, -0.0030822, -0.00550023, -0.0136393, -0.0135288, 0.000326867, 0.00330636, 
0.00250454, 0.00105661, 0.000788682, 0.000904903, 0.00110472, 0.000931791, 0.00076888, 0.00111909, 0.00104334, 0.00226742, 0.000943594, 0.000758052, 0.00103678, 0.00113923, 0.000923894, 0.000774029, 0.000758438, 0.00094609, 0.00245988, 0.00112552, 0.000845048, 0.000949785, 0.00121542, 0.00100017, 0.000872296, 0.000739889, 0.00113193, 0.00296613, 0.00126205, 0.000772962, 0.000971928, 0.00104482, 0.00105463, 0.000966167, 0.000801997, 0.00121129, 0.00288114, 0.00111373, 0.000715019, 0.000827118, 0.000931361, 0.00112718, 0.000953964, 0.000805705, 0.00112608, 0.00265525, 0.000898961, 0.000687707, 0.0007521, 0.00095187, 0.0012386, 0.00100296, 0.000748586, 0.000854318, 0.00250016, 0.00105106, 0.00117525, 0.000780349, 0.00109784, 0.00109419, 0.000894822, 0.000706299, 0.00108686, 0.00281605, 0.000946503, 0.000777332, 0.000651509, 0.000859133, 0.00109556, 0.000979267, 0.00067877, 0.000647742, 0.000609281, 0.000970304, 0.000666299, 0.00056571, 0.000846617, 0.00108499, 0.000844936, 0.000551669, 0.000537753, 0.000652044, 0.000984563, 0.000666278, 0.000568865, 0.000885062, 0.0011389, 0.000839363, 0.000797485, 0.000629199, 0.000821812, 0.000935323, 0.000642816, 0.000663944, 0.000940362, 0.00108172, 0.00103855, 0.000924349, 0.000676501, 0.000661555, 0.000983065, 0.000815314, 0.000634024, 0.000801847, 0.000766853, 0.00104936, 0.000800071, 0.000553925, 0.000638113, 0.000941015, 0.000646253, 0.000530485, 0.000542626, 0.000827697, 0.00107278, 0.000839925, 0.000535974, 0.000629821, 0.000923799, 0.000634799, 0.000640683, 0.000671109, 0.000973938, 0.00110986, 0.000833093, 0.00065238, 0.000798533, 0.000952643, 0.00070554, 0.000742443, 0.000748136, 0.00109017, 0.00144175, 0.00119786, 0.000776691, 0.000672022, 0.000598944, 0.000704484, 0.000642125, 0.000649639, 0.00106113, 0.00128989, 0.00098774, 0.000634669, 0.000640677, 0.000638047, 0.000698489, 0.000636663, 0.000664232, 0.00103214, 0.00138539, 0.00107644, 0.0010702, 0.000730557, 0.000750372, 0.000713301, 0.00067687, 0.000777931, 0.00116528, 0.00138359, 0.00130307, 0.00112261, 0.000761692, 0.000665943, 0.000711099, 0.000732901, 0.000711195, 0.00100893, 0.000995629, 0.00124299, 0.000984075, 0.000624743, 0.000596732, 0.000680789, 0.000607627, 0.000607221, 0.000618408, 0.00096994, 0.00131207, 0.0010505, 0.000636057, 0.00063765, 0.000681106, 0.000610222, 0.000678384, 0.000748656, 0.00122116, 0.00142839, 0.00114821, 0.000727113, 0.000750731, 0.000710728, 0.000753187, 0.000819965, 0.000997463, 0.00142102, 0.00194415, 0.00171535, 0.00100449, 0.000762613, 0.000658076, 0.000704046, 0.000720917, 0.000797065, 0.00143808, 0.00183139, 0.00143656, 0.000786162, 0.000804515, 0.000701354, 0.000743375, 0.00065146, 0.000852149, 0.00143059, 0.0019381, 0.00141415, 0.00143898, 0.000943915, 0.000861202, 0.000745729, 0.000778363, 0.000969522, 0.00159145, 0.00186138, 0.00171186, 0.00166417, 0.000971071, 0.000748892, 0.000718304, 0.000778806, 0.000916867, 0.00137775, 0.00131344, 0.0016634, 0.00144003, 0.000770507, 0.00068685, 0.000701595, 0.000681304, 0.000743149, 0.000777578, 0.00133865, 0.00179073, 0.00138957, 0.000790001, 0.000685951, 0.000685578, 0.00063542, 0.000743715, 0.000992911, 0.00205726, 0.00192423, 0.00154931, 0.000958397, 0.000825009, 0.000727038, 0.00104083, 0.00115864, 0.00150622, 0.00285186, 0.00315051, 0.00299756, 0.0017064, 0.00114627, 0.000872, 0.000957161, 0.000927931, 0.00126163, 0.00253919, 0.00304716, 0.00209338, 0.00130918, 0.00124175, 0.000975205, 0.00091452, 0.000978775, 0.00133165, 0.002348, 0.00347049, 0.00225453, 0.00265552, 0.0016007, 0.00109819, 0.00102232, 0.00110357, 0.00155136, 0.00252658, 0.00283014, 0.00304809, 0.00287709, 0.00153996, 0.00107709, 0.00101873, 0.00106472, 0.00147865, 0.00246533, 0.00196057, 0.00284887, 0.0022097, 0.00119756, 0.00090456, 0.000835179, 0.000905546, 0.00122085, 0.0012428, 0.00262919, 0.0027611, 0.0024503, 0.00120203, 0.000927971, 0.00086741, 0.000843297, 0.00107157, 0.0015822, 0.00304759, 0.00282985, 0.00292681, 0.00150312, 0.00111633, 0.000952748, 0.00167459, 0.00186559, 0.00309438, 0.00657428, 0.00686905, 0.00631056, 0.00275201, 0.00183341, 0.00159674, 0.00152957, 0.00163581, 0.00281155, 0.00448801, 0.00535963, 0.00408257, 0.0024916, 0.00242903, 0.0017219, 0.00153694, 0.00182331, 0.0024178, 0.00434268, 0.00588845, 0.00533655, 0.00587891, 0.00303999, 0.00183404, 0.00182479, 0.00189923, 0.00260858, 0.00554448, 0.00667771, 0.00626211, 0.00503072, 0.0036275, 0.00200607, 0.00156329, 0.00177235, 0.00271693, 0.00632121, 0.00399408, 0.00413383, 0.00396255, 0.00251385, 0.00159866, 0.00145586, 0.00139214, 0.00214934, 0.00242767, 0.00404619, 0.00499639, 0.00439084, 0.00221842, 0.00158755, 0.00143841, 0.00153177, 0.00186701, 0.00340011, 0.00587863, 0, 0.00607189, 0.00300017, 0.00188353, 0.00163927, 0.000910944, 0.00061084, 0.000567308, 0.000839649, 0.0011091, 0.000771922, 0.000536336, 0.000653201, 0.000781711, 0.00091116, 0.000644476, 0.000648351, 0.000956682, 0.001011, 0.000806765, 0.000659963, 0.000633528, 0.000647654, 0.00102656, 0.000823834, 0.00071461, 0.00081986, 0.00108344, 0.000928243, 0.000842683, 0.000557769, 0.000647739, 0.000975898, 0.000689365, 0.000559703, 0.000814927, 0.0010544, 0.00108962, 0.000837601, 0.000584685, 0.000664541, 0.000937536, 0.000630798, 0.000546404, 0.000829403, 0.000913015, 0.00105496, 0.000864012, 0.000693375, 0.000855122, 0.000980256, 0.000643864, 0.000628265, 0.000651575, 0.000833412, 0.00114036, 0.000979451, 0.000659561, 0.00065969, 0.000957343, 0.000802447, 0.000642336, 0.000548012, 0.000845638, 0.00106269, 0.000872687, 0.000536925, 0.000610704, 0.000925685, 0.00106646, 0.000571714, 0.000453886, 0.000636569, 0.000894886, 0.000678703, 0.000466226, 0.00047162, 0.000585281, 0.00145109, 0.000571348, 0.000464469, 0.00070111, 0.000889543, 0.000681989, 0.000459737, 0.000444199, 0.000560538, 0.00137323, 0.000612404, 0.000464972, 0.000665287, 0.000903971, 0.000687586, 0.000627877, 0.000459298, 0.000623298, 0.000989584, 0.000511257, 0.000466258, 0.000693264, 0.000918093, 0.00089117, 0.000682015, 0.000467671, 0.000487427, 0.00108383, 0.00059844, 0.000472214, 0.000614917, 0.00067769, 0.00087629, 0.000670454, 0.000475804, 0.000597991, 0.00154858, 0.000562186, 0.000463115, 0.000461328, 0.000667036, 0.000896946, 0.00071409, 0.000471033, 0.000572929, 0.00141271, 0.000576649, 0.000474513, 0.000453243, 0.00068342, 0.000918401, 0.000650164, 0.000460183, 0.00059999, 0.00109173, 0.000694989, 0.000539356, 0.000481987, 0.000706713, 0.000973561, 0.000745025, 0.000488027, 0.000481305, 0.000539867, 0.000828619, 0.000547375, 0.000482879, 0.00075006, 0.00095034, 0.000725008, 0.000479168, 0.000487165, 0.000551412, 0.000943068, 0.000583908, 0.000499685, 0.000711887, 0.000960849, 0.00073161, 0.000717336, 0.00049001, 0.000568115, 0.000729385, 0.000482116, 0.000499324, 0.000762182, 0.00101879, 0.000965796, 0.000736642, 0.000485684, 0.00048239, 0.000684999, 0.000562697, 0.000488854, 0.000711693, 0.000748932, 0.000905293, 0.000740867, 0.000494483, 0.000587237, 0.000853883, 0.000547017, 0.00048793, 0.0004917, 0.000708103, 0.000972656, 0.000770035, 0.000506918, 0.000552649, 0.000885299, 0.000577169, 0.0004834, 0.000484329, 0.000748326, 0.000979015, 0.000706664, 0.00048878, 0.000551631, 0.000691943, 0.000524947, 0.000520031, 0.000544946, 0.000849397, 0.00116175, 0.000906497, 0.000550432, 0.000473338, 0.000507154, 0.000628333, 0.000559367, 0.000553363, 0.000873247, 0.00115115, 0.000866576, 0.000515982, 0.000520648, 0.000552301, 0.000626004, 0.00054566, 0.000536956, 0.000849693, 0.00121807, 0.000857998, 0.00081239, 0.000546663, 0.000540096, 0.000557099, 0.000486928, 0.000545677, 0.000943559, 0.00115485, 0.00112573, 0.000885417, 0.000564768, 0.000481802, 0.000541549, 0.000525624, 0.000538977, 0.000823283, 0.000875698, 0.00112535, 0.000877074, 0.000535667, 0.000543824, 0.000633925, 0.000528119, 0.000524074, 0.000531832, 0.000817253, 0.00126173, 0.000883337, 0.000545462, 0.000553855, 0.000628798, 0.000542923, 0.000477315, 0.000542738, 0.000986248, 0.00118041, 0.000878178, 0.000541088, 0.00053192, 0.000540957, 0.000544764, 0.000608766, 0.000703199, 0.0013705, 0.00187913, 0.00143751, 0.000716719, 0.000554047, 0.000600417, 0.00062749, 0.00059787, 0.000680345, 0.00129996, 0.0016153, 0.00128747, 0.000684936, 0.000687847, 0.000615573, 0.000626265, 0.000618784, 0.000697169, 0.00128215, 0.00177071, 0.00130003, 0.00135234, 0.000725979, 0.000610371, 0.00056572, 0.000568307, 0.000714207, 0.00148572, 0.0018144, 0.00172127, 0.00135596, 0.000743838, 0.000559008, 0.000581399, 0.000599228, 0.000727822, 0.00131326, 0.00125701, 0.00166024, 0.00124778, 0.000681844, 0.000592688, 0.000598853, 0.000590512, 0.000670139, 0.000681876, 0.00129666, 0.00171493, 0.00126239, 0.000698143, 0.000608219, 0.000627566, 0.000585552, 0.00056682, 0.000727043, 0.00153607, 0.00182177, 0.00139628, 0.000710681, 0.000601377, 0.000559542, 0.000802422, 0.000841472, 0.00121296, 0.00243967, 0.00329975, 0.00243609, 0.00121825, 0.000861382, 0.000839241, 0.000774716, 0.000867653, 0.00114101, 0.00216963, 0.00271306, 0.00205585, 0.00115715, 0.00113235, 0.000847736, 0.000761667, 0.000885171, 0.00122445, 0.00201859, 0.00267746, 0.00239347, 0.00241164, 0.00124593, 0.000878072, 0.000817271, 0.000885749, 0.00122759, 0.00256477, 0.00344961, 0.00299261, 0.00238437, 0.00116467, 0.000880579, 0.00081835, 0.00088344, 0.00120769, 0.00230455, 0.00208575, 0.00252515, 0.00197237, 0.00115095, 0.000863835, 0.000836362, 0.000846971, 0.00110311, 0.00119353, 0.00200855, 0.00270812, 0.00222992, 0.00116774, 0.000864388, 0.000801807, 0.000835152, 0.000871416, 0.0012093, 0.00260987, 0.00351138, 0.00227898, 0.00121356, 0.000878342, 0.000821283, 0.000685633, 0.000594337, 0.000648748, 0.00111604, 0.00137485, 0.000962987, 0.000639217, 0.000642431, 0.000739185, 0.000698223, 0.000646883, 0.000752063, 0.00117152, 0.00124455, 0.000966095, 0.000736767, 0.000743822, 0.00062752, 0.000711345, 0.000756285, 0.000775782, 0.000964125, 0.00129407, 0.00117021, 0.00109331, 0.000661371, 0.000639988, 0.000754685, 0.000677744, 0.000621205, 0.00103848, 0.00136604, 0.00138976, 0.00104917, 0.00068552, 0.000689978, 0.00071194, 0.000606746, 0.000625154, 0.00109193, 0.0011385, 0.00129733, 0.00106749, 0.000791715, 0.000763035, 0.000689336, 0.000617132, 0.000727275, 0.000759949, 0.00099657, 0.00137564, 0.00124187, 0.000751412, 0.000611927, 0.000687718, 0.000742481, 0.000651266, 0.000620865, 0.00108559, 0.0014889, 0.00111881, 0.000623327, 0.000595935, 0.000718673, 0.000653812, 0.000550218, 0.000479853, 0.000724039, 0.000982173, 0.000749512, 0.000484075, 0.000480437, 0.000541895, 0.000854793, 0.000547373, 0.000493267, 0.000739982, 0.000935366, 0.00069666, 0.000484191, 0.000470336, 0.000550945, 0.000913989, 0.000554575, 0.000496092, 0.000715358, 0.0009752, 0.000750759, 0.000695836, 0.000486631, 0.000574029, 0.000767044, 0.000495863, 0.000500907, 0.000746973, 0.000980148, 0.000965249, 0.000722213, 0.000482912, 0.000486416, 0.000733989, 0.000564535, 0.000500731, 0.000721688, 0.000716199, 0.000965561, 0.000704574, 0.000498597, 0.000548204, 0.000879177, 0.000558777, 0.000482241, 0.000487813, 0.000710586, 0.000961021, 0.000757735, 0.000490058, 0.00055653, 0.000921454, 0.000559414, 0.000476821, 0.000479522, 0.000740219, 0.00100484, 0.000724925, 0.000480545, 0.000583499, 0.000700961, 0.00121745, 0.000589384, 0.000482936, 0.000673747, 0.000979381, 0.000717089, 0.000485444, 0.000519913, 0.000596946, 0.00145528, 0.000588523, 0.000491744, 0.00072063, 0.000901218, 0.000681626, 0.000493955, 0.00049261, 0.000570802, 0.00148596, 0.000632947, 0.000483772, 0.000680162, 0.00093898, 0.0007301, 0.000699938, 0.000482719, 0.000627734, 0.0012009, 0.00052908, 0.000491046, 0.000714902, 0.000929794, 0.000935115, 0.000711333, 0.000488904, 0.00053661, 0.00124274, 0.000600764, 0.000489223, 0.000682405, 0.000706575, 0.000912934, 0.000693557, 0.000484279, 0.000624987, 0.00151135, 0.000571086, 0.00048527, 0.000491667, 0.00066849, 0.00093607, 0.000735069, 0.000486454, 0.000560806, 0.00145847, 0.000651138, 0.00051588, 0.000475329, 0.000719204, 0.000972583, 0.000700605, 0.000481734, 0.000616646, 0.00116694, 0.00073772, 0.000585481, 0.000507639, 0.000715858, 0.00103509, 0.000777474, 0.000502189, 0.000511596, 0.00058026, 0.000931414, 0.000568881, 0.000500831, 0.000767402, 0.00102421, 0.000741222, 0.000485799, 0.000494787, 0.000576446, 0.000929111, 0.000583273, 0.000487538, 0.000747318, 0.0010031, 0.000734251, 0.000721967, 0.000505841, 0.000598843, 0.000773273, 0.000500747, 0.000509112, 0.000789835, 0.00101387, 0.000976649, 0.000764421, 0.000510074, 0.000515942, 0.000763864, 0.000575261, 0.000495388, 0.00070174, 0.000743101, 0.00103194, 0.000749367, 0.000498053, 0.000588302, 0.000951479, 0.000572905, 0.000480165, 0.000496196, 0.000737949, 0.00104631, 0.000754241, 0.000507272, 0.000551217, 0.000949876, 0.00059699, 0.000518301, 0.000510835, 0.000813484, 0.00102131, 0.000724366, 0.000508752, 0.00057828, 0.000785511, 0.000591867, 0.000577388, 0.000583353, 0.00100728, 0.00142159, 0.00101541, 0.000562088, 0.00052169, 0.000547237, 0.000674568, 0.00057575, 0.000569259, 0.000963217, 0.00131717, 0.000949999, 0.000546823, 0.000553535, 0.000559665, 0.000712353, 0.000568543, 0.000562356, 0.00098707, 0.00143602, 0.000985333, 0.000948698, 0.000579475, 0.000569255, 0.000605737, 0.000515404, 0.000573854, 0.00101703, 0.00143629, 0.00138441, 0.00104816, 0.000591487, 0.000510392, 0.000598424, 0.000567285, 0.000579605, 0.000933183, 0.000980749, 0.00133831, 0.000962839, 0.000561087, 0.00056325, 0.000688152, 0.000550725, 0.000552378, 0.000564664, 0.000975255, 0.00145694, 0.00101216, 0.000579194, 0.000556932, 0.000687336, 0.00055804, 0.000517581, 0.000596426, 0.00105312, 0.00151974, 0.000937727, 0.000579463, 0.000567742, 0.000604456, 0.00060439, 0.000604529, 0.00079557, 0.00155481, 0.00225736, 0.00168036, 0.000782677, 0.000618638, 0.0006313, 0.000655592, 0.000644212, 0.000819149, 0.0015066, 0.0018857, 0.00137808, 0.0007945, 0.000799104, 0.000657079, 0.000632357, 0.000655121, 0.000829837, 0.00143217, 0.00206358, 0.00147108, 0.00150828, 0.000801627, 0.000607186, 0.000608433, 0.000634462, 0.000793691, 0.00162328, 0.00210746, 0.00207301, 0.00159526, 0.00077427, 0.000625486, 0.000593682, 0.000626506, 0.000831564, 0.00152995, 0.00146483, 0.00186699, 0.00133924, 0.000801106, 0.000641875, 0.000653105, 0.00067307, 0.000796044, 0.000789861, 0.00138569, 0.00188512, 0.00157176, 0.000806828, 0.000644474, 0.000673891, 0.000643292, 0.000622035, 0.000760228, 0.00163354, 0.00227423, 0.00153872, 0.00082582, 0.000621152, 0.00059608, 0.000746908, 0.000668363, 0.000815545, 0.00149053, 0.00176618, 0.0013064, 0.000768056, 0.000729403, 0.000774202, 0.00069087, 0.000726472, 0.000952162, 0.00170743, 0.00186832, 0.00131861, 0.000998604, 0.000949426, 0.000727182, 0.000733179, 0.000865441, 0.00100212, 0.00138525, 0.00191903, 0.00175923, 0.00143497, 0.000785661, 0.000693511, 0.00077427, 0.000763481, 0.00077039, 0.00138637, 0.00179469, 0.00182751, 0.0014525, 0.000837126, 0.000819005, 0.000737795, 0.000633516, 0.000763805, 0.00150529, 0.00163406, 0.00178724, 0.00146777, 0.000986733, 0.000787775, 0.000690733, 0.000682422, 0.000931316, 0.000955553, 0.00149189, 0.00185059, 0.00177795, 0.000941082, 0.000664691, 0.000705249, 0.000770796, 0.000737127, 0.000805406, 0.00150276, 0.00194123, 0.00152009, 0.000759334, 0.000637719, 0.000719588, 0.000532215, 0.00052019, 0.000525445, 0.000838261, 0.00111583, 0.00087147, 0.000535958, 0.000485621, 0.000519206, 0.000604204, 0.000533186, 0.000551373, 0.00090675, 0.00115403, 0.000864022, 0.000544279, 0.000554173, 0.000557531, 0.000612463, 0.000556539, 0.00056236, 0.000893459, 0.00122407, 0.000940894, 0.000812858, 0.000532913, 0.000530338, 0.000566038, 0.000490096, 0.000535756, 0.000890951, 0.00115859, 0.00114887, 0.000907343, 0.000544721, 0.000487079, 0.000540286, 0.000546526, 0.000548577, 0.000878794, 0.000912629, 0.00116931, 0.000857511, 0.000548626, 0.000531259, 0.000607089, 0.000537363, 0.000549037, 0.000543583, 0.000847145, 0.00119291, 0.000960383, 0.000550539, 0.000549991, 0.000619025, 0.000528433, 0.000465245, 0.000531558, 0.000851657, 0.00115709, 0.000849991, 0.000527542, 0.000536334, 0.000508552, 0.000742714, 0.000579411, 0.000491171, 0.000746609, 0.00100129, 0.000762647, 0.000492685, 0.000499421, 0.000589911, 0.00093395, 0.000559063, 0.000509872, 0.00077352, 0.00104728, 0.000712519, 0.000509073, 0.000523171, 0.000567884, 0.0009057, 0.000594224, 0.000493827, 0.000740865, 0.00102372, 0.000808681, 0.000702263, 0.000489429, 0.000582425, 0.00081351, 0.000518926, 0.000501137, 0.00075181, 0.000986602, 0.001025, 0.000769655, 0.000491836, 0.000519365, 0.000820968, 0.000587322, 0.000491817, 0.00072405, 0.000779063, 0.00100162, 0.000738103, 0.000517464, 0.000596568, 0.00094799, 0.000563138, 0.00049881, 0.000508798, 0.00073191, 0.00101507, 0.000772366, 0.000515373, 0.000562906, 0.000964392, 0.000592953, 0.000504411, 0.000491075, 0.000746747, 0.00102317, 0.000710501, 0.000502634, 0.000586823, 0.000801324, 0.00123026, 0.000599577, 0.000489883, 0.000661172, 0.000935325, 0.000715528, 0.000488484, 0.000539949, 0.000616953, 0.00151586, 0.000580501, 0.000492981, 0.000749122, 0.000981428, 0.000714216, 0.000482261, 0.000495243, 0.000586693, 0.00146684, 0.000626974, 0.000485799, 0.000734497, 0.00102219, 0.000760102, 0.000674724, 0.000480527, 0.000651211, 0.00122772, 0.000532775, 0.0004807, 0.000731413, 0.000935684, 0.000968015, 0.000748375, 0.000494695, 0.000535389, 0.00115701, 0.000600358, 0.000483496, 0.000670005, 0.000725008, 0.000986072, 0.000732897, 0.000487886, 0.000626404, 0.00156109, 0.000578427, 0.000477378, 0.000489636, 0.000726577, 0.0010572, 0.000755231, 0.000489079, 0.000558395, 0.00145374, 0.000626696, 0.000518836, 0.000487153, 0.000769749, 0.000944711, 0.000672847, 0.000485166, 0.000649006, 0.00137603, 0.000858071, 0.000606789, 0.000524543, 0.000796255, 0.00122459, 0.000861267, 0.00051189, 0.000540347, 0.000596718, 0.000986993, 0.000609649, 0.00052197, 0.000850416, 0.00127086, 0.000806265, 0.000514679, 0.00053695, 0.000586788, 0.000979769, 0.000617591, 0.000527525, 0.000800066, 0.00125293, 0.000855094, 0.000772126, 0.000526385, 0.000615289, 0.000885703, 0.000529965, 0.000509704, 0.000853354, 0.00117693, 0.00121858, 0.000870294, 0.000519476, 0.00052046, 0.000900454, 0.000612011, 0.000510563, 0.000793677, 0.000863154, 0.00125336, 0.000836983, 0.000528446, 0.000608173, 0.00101179, 0.000572965, 0.000506918, 0.000523908, 0.000822558, 0.0012994, 0.000878601, 0.000530858, 0.00056514, 0.000968245, 0.000602663, 0.000528722, 0.000523942, 0.000847335, 0.00123421, 0.000804581, 0.000514442, 0.000610612, 0.000931906, 0.000580082, 0.000542149, 0.000605253, 0.00112919, 0.00171609, 0.00124989, 0.00060625, 0.000515174, 0.00056566, 0.000670322, 0.000569763, 0.000627562, 0.00122511, 0.00164116, 0.00104891, 0.000617715, 0.000638574, 0.000555266, 0.000658271, 0.00057079, 0.000633277, 0.00113961, 0.00176702, 0.00129252, 0.00106648, 0.000595064, 0.000547909, 0.000577503, 0.000514878, 0.000607576, 0.00122742, 0.00159578, 0.00170471, 0.00114737, 0.00059061, 0.000520299, 0.000560166, 0.000572082, 0.000635201, 0.00112265, 0.00117162, 0.00159304, 0.00104673, 0.000638767, 0.00055862, 0.00069308, 0.000598188, 0.000632386, 0.000620436, 0.00103989, 0.00162332, 0.00120217, 0.000631043, 0.000596101, 0.000702786, 0.000553986, 0.000525068, 0.000581589, 0.00114717, 0.00176335, 0.00110214, 0.000641878, 0.000582487, 0.000560558, 0.00100062, 0.000939403, 0.00120475, 0.00270001, 0.00290795, 0.00222877, 0.00118264, 0.00110172, 0.00110924, 0.000882529, 0.00100704, 0.00154258, 0.00274059, 0.00292848, 0.00236545, 0.00167216, 0.0014459, 0.000967053, 0.000965593, 0.00119171, 0.00160232, 0.00217516, 0.00269642, 0.00303713, 0.00246252, 0.0012558, 0.000962744, 0.00105929, 0.00112801, 0.00123083, 0.00217716, 0.00350951, 0.00290932, 0.00257239, 0.001421, 0.00107727, 0.0010294, 0.000845609, 0.00123517, 0.00250649, 0.00249548, 0.00292086, 0.00249819, 0.00154807, 0.00105123, 0.00083644, 0.000854597, 0.00150515, 0.00148118, 0.00235376, 0.00284413, 0.00304548, 0.00147815, 0.000886228, 0.000877965, 0.0011019, 0.00102045, 0.00132381, 0.00250144, 0.00328227, 0.00251203, 0.00125138, 0.00088667, 0.000993951, 0.000538492, 0.000573585, 0.000679499, 0.00133785, 0.00185866, 0.00123306, 0.000687947, 0.000568789, 0.000605789, 0.000640858, 0.000613493, 0.000756862, 0.00147251, 0.00169983, 0.0013017, 0.000731426, 0.000696317, 0.000625096, 0.000611764, 0.000609665, 0.000761878, 0.00125338, 0.0016501, 0.00143901, 0.0012902, 0.000691024, 0.000595034, 0.000597059, 0.000559066, 0.000679709, 0.00136575, 0.00187894, 0.00191714, 0.00129267, 0.00070046, 0.000574089, 0.000570206, 0.00059798, 0.000707228, 0.00134415, 0.00137082, 0.00166679, 0.0012811, 0.000724863, 0.000593399, 0.000625227, 0.000602266, 0.000715547, 0.000730017, 0.00124305, 0.00172311, 0.00146855, 0.000700927, 0.000617718, 0.000639376, 0.000613295, 0.000535627, 0.000674059, 0.00133798, 0.00189261, 0.00130493, 0.000662017, 0.000596488, 0.000574848, 0.000587522, 0.000566369, 0.000562914, 0.000945671, 0.0013904, 0.000928476, 0.000547343, 0.000502807, 0.000551119, 0.000689472, 0.000566512, 0.00059771, 0.00102341, 0.00139266, 0.000973543, 0.00057544, 0.000563306, 0.000579025, 0.00066937, 0.000566297, 0.000587108, 0.000976421, 0.00141078, 0.00102875, 0.000984278, 0.000574331, 0.000571457, 0.000602409, 0.000514838, 0.000577656, 0.00098755, 0.00143874, 0.00142408, 0.000950438, 0.000566697, 0.000520309, 0.000582379, 0.000556952, 0.00056169, 0.000982872, 0.00100251, 0.00128686, 0.000942979, 0.00057021, 0.000557321, 0.00068301, 0.000569058, 0.000574934, 0.000572765, 0.000943851, 0.00137017, 0.00101382, 0.000574114, 0.000587705, 0.00068586, 0.000555115, 0.000515505, 0.0005464, 0.000939277, 0.00139406, 0.000971409, 0.000559976, 0.000563023, 0.000593091, 0.000828665, 0.000597387, 0.000525788, 0.000790003, 0.00118038, 0.000816545, 0.000520607, 0.00053122, 0.000622453, 0.000997449, 0.000583045, 0.000531166, 0.000895425, 0.00120618, 0.00084087, 0.000527112, 0.000518902, 0.000603419, 0.00108029, 0.00060224, 0.000515979, 0.000823266, 0.00124135, 0.00087484, 0.00078047, 0.000521684, 0.000615666, 0.000914816, 0.000527879, 0.000516739, 0.000872145, 0.00123039, 0.00121543, 0.000849812, 0.000541338, 0.000547739, 0.000811116, 0.000614567, 0.000511978, 0.000782943, 0.000860388, 0.0012169, 0.000803464, 0.000517699, 0.000611628, 0.000981561, 0.000593705, 0.00051484, 0.000522399, 0.000790131, 0.00128044, 0.000845275, 0.000522241, 0.00058143, 0.00102241, 0.000609945, 0.000534128, 0.000506471, 0.00087558, 0.00120753, 0.00077997, 0.000508134, 0.000603354, 0.000945145, 0.00132004, 0.000624235, 0.000523375, 0.000857508, 0.00134754, 0.00087408, 0.000512244, 0.00055391, 0.000633215, 0.00139873, 0.000610653, 0.000527935, 0.00091633, 0.00132353, 0.000876224, 0.000520288, 0.000525111, 0.000612645, 0.00167139, 0.000644455, 0.000522666, 0.000846728, 0.00137567, 0.000870933, 0.000817326, 0.000524794, 0.000693196, 0.00124807, 0.000560347, 0.000526787, 0.000924792, 0.00135754, 0.00130654, 0.000905957, 0.000522759, 0.000575314, 0.00134019, 0.00062877, 0.000520009, 0.000802257, 0.000872968, 0.00144643, 0.000813242, 0.000521657, 0.000647592, 0.00150018, 0.000591555, 0.000511892, 0.000519888, 0.000849067, 0.00141528, 0.000900839, 0.000523131, 0.00060114, 0.00142576, 0.000641854, 0.000559716, 0.000514114, 0.000898139, 0.00136796, 0.000835498, 0.000516857, 0.000649336, 0.00123527, 0.000724095, 0.000555641, 0.000547901, 0.000970735, 0.00175595, 0.00114037, 0.000547703, 0.000495386, 0.000560015, 0.000877799, 0.000565427, 0.000563682, 0.00117858, 0.0018114, 0.00102416, 0.000561664, 0.000561311, 0.000528038, 0.000894404, 0.000569784, 0.0005691, 0.000993161, 0.00173584, 0.00111382, 0.0009796, 0.000564418, 0.000564245, 0.000696258, 0.000500993, 0.000543349, 0.00116589, 0.00178419, 0.00184044, 0.00109828, 0.000522848, 0.00051631, 0.000691568, 0.000602727, 0.000592868, 0.000964895, 0.0011353, 0.00166082, 0.000971928, 0.000547573, 0.000565109, 0.000953413, 0.000583, 0.000549936, 0.000556178, 0.000966455, 0.00180661, 0.00115825, 0.000559477, 0.000591935, 0.000958805, 0.000573311, 0.000500771, 0.000531577, 0.00107657, 0.00185479, 0.000988288, 0.000590929, 0.000607368, 0.000700876, 0.00152278, 0.00159587, 0.00227433, 0.00511578, 0, 0.00433269, 0.00221901, 0.00197174, 0.00191282, 0.00146591, 0.00164601, 0.00321025, 0.00562962, 0.00465805, 0.00375741, 0.00292879, 0.00283157, 0.00159103, 0.00149414, 0.00190638, 0.00329928, 0.0039178, 0.00473342, 0.00503213, 0.0062025, 0.00260572, 0.00172323, 0.00185878, 0.00205799, 0.0025251, 0.00479639, 0, 0, 0.00488044, 0.00265928, 0.00199061, 0.001766, 0.00151733, 0.00214231, 0.00662437, 0.00586343, 0.00522276, 0.00483594, 0.0031809, 0.0019263, 0.0013341, 0.00150347, 0.00299201, 0.00280464, 0.00369722, 0.00508908, 0.00563389, 0.00287182, 0.00152064, 0.00135217, 0.00188728, 0.00177451, 0.00256899, 0.0038709, 0, 0.00495603, 0.00238377, 0.00149242, 0.00170191, 0.000768616, 0.000816437, 0.00113042, 0.00248143, 0.00307177, 0.00208692, 0.00109989, 0.00086003, 0.000849272, 0.000773907, 0.000831486, 0.00118889, 0.00237874, 0.00265372, 0.00197502, 0.001188, 0.00118206, 0.000856026, 0.000775532, 0.000883166, 0.00119668, 0.00203475, 0.00274094, 0.0025683, 0.00254763, 0.00115211, 0.000903725, 0.00085216, 0.000904592, 0.00117224, 0.00225674, 0.00334618, 0.00334301, 0.00223156, 0.00119774, 0.000893055, 0.000815148, 0.000894413, 0.00113699, 0.00228825, 0.00248856, 0.00273942, 0.00208638, 0.00118896, 0.000891603, 0.000807184, 0.000865848, 0.00120822, 0.00120911, 0.00202491, 0.00285106, 0.00277309, 0.00119388, 0.000854919, 0.000801259, 0.000842161, 0.000827777, 0.00115533, 0.00202494, 0.00315315, 0.00212613, 0.00104007, 0.000809485, 0.000773206, 0.000586404, 0.000617619, 0.000772609, 0.00151598, 0.00220281, 0.00149089, 0.000779023, 0.000596691, 0.000630011, 0.000632315, 0.000654116, 0.000790008, 0.0016357, 0.00190733, 0.00135914, 0.000767351, 0.000779554, 0.000656322, 0.000656579, 0.000621089, 0.000761959, 0.00133701, 0.00191955, 0.0016194, 0.00157191, 0.000819593, 0.000651647, 0.000613356, 0.000636187, 0.000808577, 0.00156594, 0.00244925, 0.00224749, 0.0015415, 0.000841405, 0.000632169, 0.000601402, 0.000642889, 0.000815212, 0.00161339, 0.00163197, 0.00186219, 0.00142905, 0.000782329, 0.00063805, 0.000687233, 0.000656907, 0.000838682, 0.000787924, 0.00134226, 0.00194553, 0.00171612, 0.000810596, 0.000659718, 0.000681076, 0.000635318, 0.00061077, 0.000797945, 0.00146804, 0.00210198, 0.00146712, 0.000790383, 0.00062614, 0.000608236, 0.000569958, 0.000553483, 0.000624919, 0.00102725, 0.0017511, 0.00113311, 0.000613579, 0.00050892, 0.000537051, 0.000649166, 0.000564692, 0.000602043, 0.001186, 0.0015873, 0.00106081, 0.000588372, 0.00059441, 0.00056619, 0.000656014, 0.000538665, 0.000581965, 0.00104608, 0.00170898, 0.00115899, 0.00108729, 0.000638076, 0.000579024, 0.000583514, 0.000529203, 0.000635672, 0.00122415, 0.00176319, 0.00179155, 0.00121263, 0.000649547, 0.000518628, 0.000576007, 0.0005515, 0.000625418, 0.0010959, 0.00121055, 0.0016124, 0.00114031, 0.00060646, 0.000564308, 0.000697385, 0.00059956, 0.00062982, 0.00059151, 0.00105953, 0.00172039, 0.00121925, 0.000621318, 0.000590101, 0.00071367, 0.00057003, 0.000518237, 0.000616727, 0.00120961, 0.0016895, 0.00109103, 0.000621075, 0.000562754, 0.00056886, 0.000704499, 0.000552089, 0.000540411, 0.00102761, 0.00185647, 0.00106758, 0.000553589, 0.000501081, 0.000569551, 0.000875245, 0.000547986, 0.000555209, 0.00108479, 0.00161885, 0.000964837, 0.000526398, 0.000542918, 0.000565051, 0.000844921, 0.00057374, 0.000526566, 0.000923985, 0.00170205, 0.0011243, 0.0010255, 0.000573516, 0.000591425, 0.000731617, 0.000499613, 0.000580997, 0.00117969, 0.00182212, 0.00188354, 0.00118534, 0.00057712, 0.000499295, 0.000719349, 0.00057797, 0.000571892, 0.000986949, 0.00115271, 0.00177719, 0.00101096, 0.000552509, 0.000605317, 0.000920324, 0.000578424, 0.000574807, 0.000545, 0.00103543, 0.00179054, 0.00114175, 0.000578891, 0.000574188, 0.000999756, 0.000602048, 0.000498458, 0.000560677, 0.00113907, 0.00169557, 0.000976974, 0.000554518, 0.000565596, 0.000720462, 0.000790775, 0.0005256, 0.000508485, 0.000998202, 0.00183913, 0.00126496, 0.000528148, 0.000445185, 0.000515024, 0.00109493, 0.000495818, 0.000516802, 0.00122782, 0.00211383, 0.00101079, 0.000518206, 0.000512664, 0.00051015, 0.00109998, 0.000523735, 0.000504171, 0.00098684, 0.00204359, 0.00128445, 0.00103147, 0.000540846, 0.000535319, 0.000724433, 0.000449311, 0.000551409, 0.00135803, 0.00208401, 0.0021792, 0.00131226, 0.000516253, 0.000444513, 0.000787631, 0.000568365, 0.000561386, 0.00105376, 0.00128057, 0.00216145, 0.00102009, 0.000525793, 0.000572564, 0.0013742, 0.000550094, 0.000550702, 0.000536951, 0.00103674, 0.00205144, 0.00132856, 0.000548782, 0.000567568, 0.00126206, 0.000583103, 0.00044302, 0.000503347, 0.00126825, 0.00195714, 0.00100817, 0.000547122, 0.000577444, 0.000793069, 
