-3.14159, -2.35619, -1.5708, -0.785398, 0, 0.785398, 1.5708, 2.35619, 3.14159, 
-3.14159, -2.35619, -1.5708, -0.785398, 0, 0.785398, 1.5708, 2.35619, 3.14159, 
0, 0.035, 0.06, 0.09, 0.13, 0.18, 0.25, 
0, 0.035, 0.06, 0.09, 0.13, 0.18, 0.25, 
-0.000623586, -0.000228206, -0.00420898, -0.00588412, -0.00711581, 0.00427721, 0.0074656, 0.00529143, -0.00176124, -0.00226687, -0.00611993, -0.00490693, 0.000313667, 0.00865551, 0.0106054, 0.00642386, -0.00705114, -0.00863186, 0.00184511, -0.00398036, -0.00272781, 0.00387173, 0.00457325, 0.00563993, 0.000803628, -0.00157599, 0.0107174, -0.000261702, -0.00537398, -0.00249675, -0.00237003, 0, 0, 0.00490542, 0.0108032, 0.00382982, 0, 0.00361831, -0.0018677, -0.00498084, 0.00480028, 0.0134837, 0.0109286, -0.00203638, -0.00624716, 0.00121242, -0.0069203, -0.00598984, 0.00969047, 0.0170549, 0.0109367, -0.00285431, -0.00718504, -0.0032527, 0.00278782, 0.00318257, 0.00379562, 0.007287, 0.00246041, -0.00774349, -0.00744199, 0.000245912, 0.00580956, -0.00388392, -0.00234095, 0.00505608, -0.00323559, -0.00765322, -0.00390147, 0.00458099, 0.00828584, 0.00308293, -0.0012789, -0.000322316, -0.00759183, -0.00797553, -0.00109374, 0.0113892, 0.0143159, 0.00562159, -0.0073771, -0.00636, -0.000627367, -0.00919849, -0.0037274, 0.00402135, 0.0077689, -0.00253821, -0.00899567, -0.0030412, 0.00966292, -0.00108135, -0.00196652, 0.00297767, -0.00189895, -0.00822376, -0.00287783, 0.00631667, 0.0129265, 0.00519108, 0.000266386, 0.000195144, -0.00125966, -0.00659743, -0.00118695, 0.00558827, 0.0086365, -9.65723e-05, -0.00599204, -0.00339978, -0.00340684, -0.00671406, 0.00201199, 0.0106974, 0.00630069, -0.00316526, -0.00798353, -0.00226159, 0.00313308, -0.00219169, 0.000362031, 0.00699935, 0.00389034, -0.00534083, -0.00308064, -0.00100833, 0.00802454, 0.000477436, -0.00445884, 0.00148711, -0.00511438, -0.0102428, -0.00908653, -0.000602142, 0.00460897, -0.00281941, -0.00561887, -0.000789226, -0.00428419, -0.0121411, -0.00834044, 0.00343797, 0.00736378, -0.00195286, -0.00868057, -0.00676433, -0.0025488, -0.0135458, -0.00813942, -6.18112e-05, 0.000147633, -0.00862697, -0.00572243, -0.00476669, 0.00294196, -0.00713212, -0.00659532, -0.000433632, -0.00337718, -0.0135666, 0.0038478, 0.00188317, 0.0102312, -0.00276511, -0.0077874, -0.00596165, -0.0107593, -0.0127318, -0.00506074, 0.00573949, 0.00485634, -0.0047509, -0.0123571, -0.00689662, -0.00567653, -0.0112604, -0.00218643, 0.00691159, 0.00285322, -0.00755167, -0.0115097, -0.00711706, -0.00072861, -0.00762206, -0.00203419, 0.00574815, -0.000345745, -0.00584076, -0.00895083, -0.00405424, 0.00432398, -0.00461954, -0.00482724, -0.00255939, -0.0026397, -0.0132116, -0.0103525, -0.00442786, -0.000109958, -0.00531782, -0.00668433, -0.00276487, -0.00307856, -0.0127049, -0.0118464, -0.000219623, 0.000624664, -0.00889548, -0.00862318, -0.00617131, -0.00104007, -0.0123182, -0.00987371, -0.00414615, -0.00470376, -0.00560153, -0.00421757, -0.00521473, 0.00132469, -0.0071092, -0.0108797, -0.00359827, -0.0125087, -0.00537803, -0.0099493, -0.00207949, -0.000873142, -0.00033354, -0.00663895, -0.00357195, -0.00693166, -0.00807885, -0.0073512, -0.000358846, 0.00378562, -0.00908433, -0.0106103, -0.00487209, -0.00728902, -0.00966041, -0.0043169, 0.00184331, -0.00401633, -0.01212, -0.012992, -0.00740028, -0.00447932, -0.00974581, -0.00313847, 0.00172643, 0.000368293, -0.00774908, -0.00821185, -0.0057993, -0.00112275, -0.00483696, -0.00307298, -0.00518074, -0.00346438, -0.0172762, -0.00743397, -0.00696312, 0.00191264, -0.00706077, -0.00626921, -0.00408102, -0.000915874, -0.0117404, -0.00850106, -0.00334571, -0.00103227, -0.00332162, -0.0075702, -0.00875801, -0.000282986, -0.0069282, -0.0076927, -0.00228764, 0.00473954, -0.0104094, 0, -0.00594621, 0.00304605, -0.00944731, -0.00953055, -0.00101858, 0, 0, 0, 0, 0.00138254, -0.0081275, -0.0100314, -0.00921327, -0.00612285, 0, -0.0106063, -0.000350188, 0.000200636, -0.00610273, -0.0128808, -0.00670068, -0.00943626, -0.0079808, -0.00323882, 0.000325101, 0.00497389, -0.0121559, -0.0128466, -0.00606544, -0.00359834, -0.00711664, -0.00341699, -0.00373012, 0.00188749, -0.00734484, -0.0119016, -0.00651025, -0.00241332, -0.00582293, -0.010987, -0.00936108, -0.005349, 0, 0, -0.0145742, -0.0026315, -0.00551346, -0.00565659, -0.00514368, 0.000393513, -0.0123134, 0, -0.00315124, -0.00425869, -0.00123242, -0.00375555, -0.00411814, -0.000385304, -0.00320812, -0.0204035, -0.00551802, 0, 0, 0, 0, 0, 0, 0, 0, 0, 0, 0, 0, 0, 0, 0, -0.0169998, 0, 0, -0.0122791, 0, 0.0019009, -0.0155641, -0.00927433, -0.00607651, -0.00695542, -0.00672454, -0.00318221, -0.00342572, 0, 0, -0.0122494, -0.00594355, -8.90096e-05, -0.00530981, -0.00305809, -0.00134131, 0.00368044, 0, 0, -0.00495513, -0.0017672, -0.00485681, -0.000214807, -0.000434693, -0.00374187, -0.00649586, -0.00564263, -0.00254575, 0.000160365, 0.000121264, 0.000923544, 1.53335e-05, -0.00210517, -0.00330089, 0.0012209, 0.00433224, 0.00997967, 0.00835591, -0.003409, -0.0091497, -0.0013097, 0.00309042, 0.00413085, 0.00908449, 0.0078592, 0.00481837, -0.00567298, -0.00936302, -0.0068619, -0.00432535, -0.000496127, -0.000594126, -0.00539914, -0.00670062, 0.00357199, 0.00154954, 0.00242932, -0.00159519, -0.00606299, -0.00260712, -0.00562533, -0.00260857, 0.00486434, 0.012036, 0.00972856, 0.00390981, -0.000592645, 0.0029966, -0.00335327, -0.00306577, 0.01144, 0.0157522, 0.0113389, 0.00384564, -0.0011742, 0.00163606, 0.00425394, 0.00654627, 0.00482482, 0.00754482, 0.00154002, -0.00320618, -0.00776821, -0.00331301, -0.00378446, -0.00211208, 0.000858769, 0.00243716, -0.00652489, -0.00996683, -0.0080368, -0.000361718, 0.00397303, 0.00287292, 0.00249511, 0.000519514, -0.0123872, -0.00874202, -0.00344675, 0.00588035, 0.0109885, 0.00538051, -0.0052235, -0.0102097, -0.00790645, -0.00308966, 0.00269018, 0.00633451, 0.00906285, 0.0011605, -0.010754, -0.00977255, -0.000888058, -0.00112163, 0.00250538, 0.0011553, 0.000648802, -0.00222944, -0.00527517, -0.00133944, 0.00334296, 0.00301775, -0.00100468, -0.000790272, -0.00534416, -0.00926021, -0.000787759, 0.00867238, 0.00887699, 0.00390415, -0.00159608, -0.00753427, -0.00741367, -0.00874037, 0.00605094, 0.0151327, 0.0106879, 0.00396033, -0.00476567, -0.00618692, -0.00543982, -0.00103894, 0.00576549, 0.00746319, 0.00192825, -0.002809, -0.00893036, -0.00554308, -0.00159105, 0.00129757, -0.00394956, 0.00431954, -0.00607843, -0.0123249, -0.010823, -0.00474471, 0.00271787, 0.000325034, -7.87392e-05, -0.00118516, -0.0118361, -0.0145367, -0.00994143, 0.00049716, 0.00799254, 0.000695962, -0.0100418, -0.0103484, -0.00111808, -0.00738594, -0.00511824, 0.00130466, 0.00287431, -0.00636265, -0.0118973, -0.00911305, 0.00116316, -0.000652255, -0.00289733, 0.00136433, -0.00419351, -0.0114736, -0.00713196, -0.00288304, 0.00486179, 0.000546182, -0.00574005, -0.00104062, -0.00853638, -0.01164, -0.00417997, 0.00511588, 0.00970466, 0.000727249, -0.00732902, -0.00772012, -0.0105703, -0.0125713, 0.00174473, 0.00811865, 0.00561366, -0.003017, -0.0102019, -0.012006, -0.0026355, -0.00699414, 0.00186435, 0.00599774, -0.00268303, -0.00906175, -0.0125267, -0.011902, -0.000352993, -0.00301459, -0.00209906, -0.00167233, -0.00679214, -0.0130804, -0.0106746, -0.00728174, -0.00296363, -0.00181782, -0.00370586, -0.0042306, -0.00826166, -0.0144587, -0.0114137, -0.00364477, 0.00212015, -0.00257453, -0.0113589, -0.0104824, -0.00476025, -0.0101455, -0.0071712, -0.00123211, -0.000899138, -0.00654309, -0.0107721, -0.0112915, 0.00275444, -0.00423772, -0.00571915, 0.00154281, -0.00772381, -0.00784466, -0.00677591, -0.0048763, 0.0039888, -0.002452, -0.00822266, -0.00332577, -0.00962616, -0.00968847, -0.00572088, 0.000654282, 0.0057851, -0.00343015, -0.0100107, -0.00985171, -0.0114278, -0.0133005, -0.00170292, 0.0030908, 0.00760966, -0.00855551, -0.0142976, -0.0128084, -0.00901033, -0.00769491, 0.00144598, 0.00173227, -0.00124012, -0.0107496, -0.0173129, -0.0106558, -0.00383638, -0.00552874, -0.00386356, -0.00389211, -0.00545335, -0.0110494, -0.0156696, -0.00784416, -0.00132461, -0.00309265, -0.00663291, -0.00419797, -0.00629959, -0.0130356, -0.0118432, -0.00274055, 0.00335035, -0.00378375, -0.0107247, -0.0112256, -0.00171794, -0.00999353, -0.00839285, 0.000613581, -0.00301055, -0.00657026, -0.0130283, -0.00984574, 0.000885606, -0.00476243, -0.00487238, -0.00171882, -0.00646675, -0.00939978, -0.0103348, -0.0062927, 0.0025295, -0.00349718, -0.00742981, -0.00416995, -0.00964511, -0.00802681, -0.00755494, -0.00472875, 0.00472297, -0.00535602, -0.0105083, -0.00975571, -0.0112046, -0.0126397, -0.00155334, 0.00510757, -0.000304654, -0.0121291, -0.0137014, -0.00991539, -0.00931763, -0.00789042, -0.00135462, 3.50922e-05, -0.00103613, -0.0182255, -0.0160888, -0.0130376, -0.0032803, -0.00456244, -0.00109622, -0.0038802, -0.00488854, -0.00771489, -0.0194358, -0.00317697, -0.00332455, -0.00413315, -0.00606721, -0.00285438, -0.0052506, -0.0149754, -0.0165209, -0.00505903, -0.000841491, -0.00368419, -0.0108308, -0.011467, -0.00231465, -0.00853685, -0.0108196, -0.0079607, 0.00455064, -0.00462307, -0.000264185, -0.0100857, -3.08508e-05, -0.00473664, -0.0069415, 0.000324973, 0.000150731, -0.0116142, -0.00666193, -0.00452618, 0.000568404, -0.00221354, -0.00747417, -0.00578835, -0.00759465, -0.014669, -0.00839005, 0.00178234, 0.00256132, -0.00295191, -0.0127314, -0.00946175, -0.0100412, -0.00934324, -0.00250203, 0.00348559, 0.00495196, -0.00347503, -0.0184774, -0.0143478, -0.00981185, -0.00742856, -0.000513897, -0.00428081, 0.00146163, -0.0010038, -0.0179358, -0.00853226, -0.00290766, -0.00450979, -0.00373352, -0.00305764, -0.00671107, -0.00777406, -0.0102199, -0.00466958, -0.00456341, -0.000475016, 0.000892106, 0.000409391, -0.00219296, -0.00225065, -0.0002479, 0.00125473, 0.00482129, 0.00338789, -0.00457728, -0.0062351, 4.87501e-05, 0.00181302, 0.00378717, 0.005561, 0.00317415, 0.00792562, -0.0112689, -0.0139469, -0.00987473, -0.00897366, -0.00690245, -0.00286317, -0.00637159, -0.0106615, -0.00423832, -0.0120212, -0.00760385, -0.00815536, -0.0104203, -0.0105082, -0.0118037, -0.0109499, 0.00232304, 0.000482074, 0.00245648, 0.00102775, -0.00161502, -0.00161324, -0.00755918, -0.00539911, 0.0065724, 0.010245, 0.00269884, -0.00197466, -0.00277525, -0.00178258, 0.000602887, 0.000794937, 0.00127073, -0.00157192, -0.00510855, -0.00952734, -0.0110082, -0.00913475, -0.00725974, -0.00307297, -0.00173904, -0.00430151, -0.00989369, -0.00955616, -0.00813306, -0.00539192, 0.000835828, 0.00138827, 0.00314258, 0.000100152, -0.00872254, -0.00914307, -0.00100804, 0.00173696, 0.00779261, 0.00452662, -0.00747437, -0.013303, -0.00134572, 0.00168286, 0.00433708, 0.0058926, 0.000999217, -0.000888096, -0.013615, -0.015554, -0.00824757, -0.00248288, 0.000975862, -0.00320918, -0.00765715, -0.00689581, -0.0119513, -0.0111934, -0.00281375, -0.00110503, -0.00467481, -0.00600833, -0.0117725, -0.0154737, -0.00466807, 0.00314815, 0.00258595, 0.00461066, -0.000315016, -0.00704084, -0.01073, -0.0100685, 0.00542992, 0.00755216, 0.00459381, 0.000869969, -0.00701942, -0.00878366, -0.00267697, 0.00141429, -0.000854752, 0.0011151, -0.00323219, -0.0106938, -0.0112739, -0.0119107, -0.00806165, -0.00139722, 0.00141523, -0.000965699, -0.0105548, -0.0144975, -0.0123249, -0.00801246, 0.000153995, 0.000208687, 0.000906944, -0.00123642, -0.014679, -0.0153793, -0.00836084, -0.00228465, 0.0020669, 0.00166198, -0.010901, -0.0144523, -0.0081082, -0.00220895, -0.00107128, 0.00295333, 0.00260568, -0.00777518, -0.0141201, -0.0147185, -0.00306776, 0.00479996, -0.00134592, -0.0007818, -0.00782585, -0.0139078, -0.0124597, -0.00927626, -0.000303116, 0.00190148, -0.00176218, -0.0018446, -0.0131544, -0.0166772, -0.00935919, -0.000927429, 0.00500342, 0.00159385, -0.00206892, -0.00320315, -0.013695, -0.0146258, 0.00214757, 0.00869166, 0.0013418, -0.00464872, -0.0138788, -0.0130984, -0.00640004, -0.000132141, 0.00310594, 0.00345664, -0.00589784, -0.0153854, -0.0166864, -0.0137729, -0.00175463, -0.000641038, 0.00282226, 0.000275725, -0.01158, -0.0152751, -0.0140512, -0.0106396, -0.00111694, -0.000449046, -0.00285033, -0.00407892, -0.0118921, -0.0165176, -0.0108233, -0.00543201, -0.00019662, -0.00167473, -0.0139208, -0.0155651, -0.00112256, -0.00565385, -0.00293302, 0.00226956, -0.00337944, -0.00913733, -0.0150402, -0.0159742, 0.000975012, 0.000765125, -0.00120637, -0.000820889, -0.00893837, -0.0162692, -0.00913227, -0.0110658, 0.00230749, -0.000371226, -0.00275335, -0.000282241, -0.0131768, -0.0153725, -0.00730145, -0.00628857, 0.00788958, -0.00147981, -0.00600802, -0.00354041, -0.0154068, -0.016899, 0.000954501, 0.00329519, 0.000366562, -0.00811601, -0.0165444, -0.0175077, -0.008649, -0.00323973, 0.00378197, 0.00198431, -0.00544241, -0.0164465, -0.0184057, -0.0145212, -0.00369291, -0.000631076, 0.000291801, -0.000774342, -0.00823068, -0.0136404, -0.0210012, -0.00824433, -0.00272143, -0.00194939, -0.00245852, -0.00393552, -0.00954456, -0.015466, -0.0143123, -0.00496474, -0.00175228, -0.000390196, -0.0119622, -0.0127542, 0.00148153, -0.0066596, -0.00443351, 0.00022097, -1.80632e-05, -0.0100931, -0.0134026, -0.0153802, 0.000697234, -0.00237269, -0.00114927, -0.000131549, -0.00723857, -0.0155279, -0.0114343, -0.0139929, 0.00308337, -0.000975029, -0.00503608, -0.00217194, -0.0117079, -0.0132861, -0.00718703, -0.00858075, 0.00270115, -0.00222618, -0.00736402, -0.00606899, -0.0119232, -0.0122689, 0.00129905, -0.00191606, 0.00237661, -0.0112348, -0.0163848, -0.014181, -0.00760199, -0.00507851, 0.00496243, 0.00172515, -0.00491557, -0.0149949, -0.0203505, -0.0147706, -0.00125208, 0.00126535, -0.00111901, 0.000709258, -0.00827107, -0.0142096, -0.0150087, -0.0125951, -0.00180289, -0.00332045, -0.00470141, -0.00387263, -0.00610365, -0.0128726, -0.0120667, -0.00581445, 0.0012815, -0.00357688, -0.0123102, -0.0125424, 0.000315881, -0.00274974, -0.00794844, 0.000348435, -0.00282654, -0.00406886, -0.0117889, -0.0117273, 0.000763518, -0.0010955, -0.0016515, -0.00249475, -0.00568313, -0.0170621, -0.0124091, -0.00699126, 0.00424061, -4.61723e-05, -0.00301152, -0.00106331, -0.00984817, -0.0131715, -0.00779152, -0.00158085, 0.00770701, -0.00358506, -0.0102935, -0.00733151, -0.0111579, -0.0109665, -0.000549601, -0.0010755, 0.00112921, -0.0123102, -0.0156031, -0.011643, -0.00394423, -0.0050176, 0.00331122, 0.000373724, -0.00489058, -0.0166864, -0.0164325, -0.0145334, -0.00329968, -0.000451104, -0.00413399, -0.0051915, -0.00622845, -0.0049384, -0.00461836, -0.00214637, -0.00620423, -0.00328867, -0.00282134, -0.00512669, -0.00638678, -0.00511551, -6.28029e-06, -0.00350577, -0.00315395, -0.00290059, -0.00596711, -0.00460385, -0.00113158, 0.00209201, 0.00341786, 0.00180988, 0.000161315, 0.00201676, -0.00810341, -0.0130917, -0.0106662, -0.00972314, -0.0085679, -0.00706902, -0.016227, -0.00882516, -0.00307721, -0.0110324, -0.0103207, -0.0106665, -0.0131375, -0.0129413, -0.0163002, -0.0115163, -0.00291132, 0.000188837, -0.00212701, -0.00119258, -0.0063296, -0.00587959, -0.00713594, -0.00845702, -0.000331871, 0.00498045, -0.00192545, -0.00588684, -0.00826351, -0.00583639, -0.00384007, -0.000171907, -0.00309719, -0.00489766, -0.00721557, -0.00791496, -0.0106197, -0.00838707, -0.009199, -0.00703992, -0.0033425, -0.00461836, -0.00934207, -0.0105652, -0.00895986, -0.00770058, -0.00190732, -0.000493759, 0.000182415, -0.00442808, -0.0100657, -0.0107106, -0.00647655, -0.00244261, 0.00405316, 0.00240647, -0.00631262, -0.00928361, -0.00305186, 0.00138808, 0.00357271, 0.00191733, 0.00322796, 0.000774513, -0.0141653, -0.0156638, -0.00951971, -0.00586483, -0.00285477, -0.00621986, -0.0106561, -0.0113879, -0.0130155, -0.0118378, -0.00706316, -0.00482926, -0.00864434, -0.0118013, -0.0152181, -0.016389, -0.0060235, -0.00176257, 0.000842119, -0.000883635, -0.00153805, -0.00793633, -0.012771, -0.0105794, 0.000116466, 0.00183178, -0.00267801, -0.00536703, -0.00825748, -0.0098198, -0.00714542, -0.00386314, -0.00236379, -0.00328291, -0.00783099, -0.010911, -0.0116038, -0.0123128, -0.00838605, -0.00589378, 0.00100834, -0.00193309, -0.0137422, -0.0145212, -0.0128091, -0.0084866, 0.000309267, 0.00110777, -5.10556e-05, -0.00318575, -0.0141607, -0.0152365, -0.0111779, -0.00315229, -0.000742471, 0.00248456, -0.00966564, -0.0127377, -0.00285787, 0.000682713, 0.00188144, 0.00449354, 0.00200518, -0.00425891, -0.0155952, -0.0160116, -0.00635438, -0.00144354, -0.00161386, -0.00383269, -0.01115, -0.0136083, -0.0138478, -0.0120538, -0.00211594, 0.000922843, -0.000306678, -0.00451944, -0.0181618, -0.0182069, -0.00664386, -0.000775523, 0.00294853, 0.00176409, -0.00169857, -0.00387076, -0.0176636, -0.0154827, 0.000256263, 0.000594665, -0.00357177, -0.00857555, -0.0138263, -0.0148306, -0.00362457, -0.00633758, -0.0013249, -0.00150456, -0.00771535, -0.0116852, -0.0142854, -0.0169856, -0.00598803, -0.00238377, -5.60467e-05, -0.00172116, -0.0117499, -0.0155743, -0.0138468, -0.0104297, 0.000145494, 0.00213351, 0.000495051, -0.00116689, -0.0172165, -0.0172843, -0.0111709, -0.00561684, -0.00125618, -0.00244015, -0.0113383, -0.0150894, -0.00602813, -0.0014389, -0.000701976, 0.00279234, -0.00286654, -0.0120823, -0.0166672, -0.0176032, 0.000217789, 0.00392855, 0.00115314, -0.00212005, -0.00998264, -0.0167773, -0.0121567, -0.0147704, 0.000852076, 0.00170601, 0.00326722, -0.00559806, -0.0176584, -0.0192956, -0.0116672, -0.00673649, 0.00341337, 0.000342278, -0.00394981, -0.00614449, -0.0172309, -0.0137898, 0.00030957, -0.00204551, -0.000799272, -0.00946553, -0.016278, -0.0170078, -0.00130814, -0.00278319, 0.00158629, -0.00129011, -0.00694801, -0.0136105, -0.0198079, -0.0143204, -0.00334785, -0.00318814, 0.00451349, -0.000169008, -0.0122535, -0.0154711, -0.0131923, -0.0115538, 0.000391306, 0.00190878, -0.00248166, -0.00314204, -0.0148525, -0.0157775, -0.0119854, -0.0105496, -0.000483187, -0.000219692, -0.0132113, -0.0158204, 0.000375481, -0.00252227, -0.000831448, -0.000177196, -0.00669362, -0.0069105, -0.0163067, -0.0165683, 0.0025172, 0.00274649, 0.000957791, 0.00038496, -0.0124412, -0.0123437, -0.0145326, -0.0155801, 0.00308552, 0.00197014, 0.00157803, -0.00300635, -0.0150958, -0.0168725, -0.00714867, -0.00687734, 0.00454018, 0.000513544, -0.004475, -0.00293105, -0.0144657, -0.0151919, -0.000301538, 0.00074115, -0.0042902, -0.00879679, -0.0176632, -0.0169161, -0.00420435, -0.0032994, 0.00248906, -8.95616e-05, -0.00813273, -0.0164176, -0.0205401, -0.0154494, -0.00259043, 9.62453e-05, 0.00273725, -0.00178219, -0.00858544, -0.0168745, -0.0191412, -0.0102762, 0.000967092, 0.00114392, -0.00101825, -0.00253136, -0.00841291, -0.0141059, -0.013727, -0.00562298, 0.00117698, -0.00202094, -0.0130146, -0.0146023, 0.00234044, -0.00012431, -0.00152881, 0.000765833, -0.00360543, -0.00700981, -0.0163646, -0.0142916, 0.00292936, 0.00401235, 0.00115746, -0.000733178, -0.010562, -0.0129136, -0.0150505, -0.0123767, 0.00545745, 0.00293131, -0.00107941, -0.00148613, -0.014177, -0.0132606, -0.00468957, -0.00210664, 0.00425717, 0.000495889, -0.00459291, -0.00641072, -0.013689, -0.0133297, 0.000955961, -0.00175009, 0.00213456, -0.0138654, -0.0173311, -0.0158442, -0.00256309, -0.00128845, 0.00370999, 0.00166335, -0.00815274, -0.00924419, -0.0237525, -0.0163794, -0.000695768, 0.000967866, -0.00251556, -0.00691849, -0.00896203, -0.00804229, -0.00532284, -0.00615299, -0.00561879, -0.0063397, -0.0048051, -0.00355626, -0.00664767, -0.00663076, -0.00171439, -0.00497681, 0.00723716, -0.00861723, -0.00410378, -0.00606055, -0.00193886, -0.000569922, 0.00394934, 0.00718504, 0.00255229, 0, 0, -0.0146668, -0.00959322, -0.00703474, -0.00552815, -0.007306, -0.00521403, 0, 0, -0.0147598, -0.0114205, -0.00968707, -0.00955406, -0.0140709, -0.0122946, 0, 0, -0.00298845, -0.00869355, -0.0062394, -0.00680368, -0.00641146, -0.00721897, -0.00609344, 0.00333814, 0.00591217, 4.86712e-05, -0.00610419, -0.00376257, -0.00530341, -0.00651069, -0.00490996, -0.00576503, -0.00214198, -0.0121972, -0.00681094, -0.00928798, -0.0118684, -0.00407747, -0.00481788, -0.00429478, -0.00569306, -0.00967685, -0.0126331, -0.0106449, -0.00784652, -0.00525843, -0.00165378, 0.000187404, -0.00630302, -0.0098166, -0.00955181, -0.00712593, -0.00344668, -0.0023546, 0.000389166, -0.00379026, -0.00699281, -0.00243215, 0.00204933, 0.00417192, 0.00154036, -0.00142438, -0.00298526, -0.0107889, -0.013122, -0.00994512, -0.00721277, -0.0051287, -0.00658009, -0.0130874, -0.0102562, -0.0164591, -0.0151412, -0.0102568, -0.00691399, -0.00784346, -0.0121798, -0.0164198, -0.0166534, -0.00241287, 9.51979e-05, 0.000590042, -0.00105993, -0.00204942, -0.0085874, -0.0114865, -0.0104584, -0.000473516, 0.00250422, -0.00235209, -0.00533248, -0.00748329, -0.00946239, -0.00726637, -0.00440001, -0.00350331, -0.00283259, -0.00814155, -0.00609216, -0.0129223, -0.01076, -0.0086094, -0.00604462, -0.0012527, -0.00439026, -0.0125066, -0.0134013, -0.0101971, -0.0110219, 0.00011838, 0.0016968, -0.000765542, -0.00349654, -0.0152032, -0.0132602, -0.0114392, -0.00772874, -0.00127276, 0.000714786, -0.00958838, -0.0100365, -0.00278522, 0.00150506, 0.00236974, 0.00301442, -0.000902947, -0.00549478, -0.0160657, -0.0163479, -0.00604223, -0.00154776, -0.00130604, -0.00322539, -0.0108435, -0.0171915, -0.0143256, -0.0151072, -0.00361394, -0.000744418, -0.00326607, -0.0092069, -0.0153127, -0.0195545, -0.00695102, -0.0036513, 0.000219172, 0.000422977, -0.000563043, -0.00607144, -0.0133999, -0.0141777, 0.000202618, -5.10746e-05, -0.00334816, -0.00662842, -0.00851714, -0.0135731, -0.00540955, -0.00172023, -0.00125536, -0.00168021, -0.00948139, -0.0100234, -0.0119607, -0.0130734, -0.00535458, -0.00115445, 0.00188715, -0.00189593, -0.0142626, -0.0179431, -0.0141716, -0.00916924, -0.000342837, 0.00258124, -0.000550653, -0.00378159, -0.0163767, -0.0166346, -0.0140797, -0.00849904, 0.00044898, 1.85195e-05, -0.0105733, -0.013023, -0.00166722, 0.00173379, 0.0027759, 0.00359793, -0.00425713, -0.0065961, -0.013059, -0.0178814, -0.00486782, -0.00169147, 0.000831228, -0.00317602, -0.0107327, -0.015867, -0.0139039, -0.0149542, -0.00113875, 0.00152085, 0.00148657, -0.00673334, -0.0185866, -0.0192286, -0.00817552, -0.00719993, 0.00122993, 0.00124229, -0.00222823, -0.0022401, -0.0173627, -0.0133668, 0.00193362, 0.00123351, -0.00497129, -0.01245, -0.0150347, -0.0148848, -0.00331939, -0.00230255, 0.00186105, -0.0022011, -0.00969854, -0.015317, -0.0165983, -0.0139302, -0.00211026, 0.0030915, 0.00549121, -0.00221614, -0.0138794, -0.0190027, -0.0158484, -0.00818537, 0.00202521, 0.00173892, -0.000242511, -0.00284427, -0.0178416, -0.0163904, -0.0161404, -0.00877753, -0.00161757, 0.00032581, -0.0137422, -0.0183057, -0.00273428, 0.00048557, 0.00181769, 0.00391951, -0.00236489, -0.00722887, -0.0152291, -0.0169778, 0.000644702, 0.00496938, 0.000479223, -0.00187676, -0.0129655, -0.0129094, -0.0112015, -0.0142058, 0.00162098, 0.00286953, -0.00354617, -0.00406816, -0.0181232, -0.0202194, -0.00830274, -0.00637689, 0.00191509, 0.000957775, -0.00262445, -0.00792419, -0.0176988, -0.0157166, 0.00269951, 5.56067e-05, -0.00363212, -0.00804277, -0.0156815, -0.0191367, -0.00362207, -0.00287115, 0.00224689, 0.0018981, -0.00622072, -0.0192663, -0.0194117, -0.0158974, -0.00113475, 0.00442817, 0.00267773, -0.00108828, -0.0127242, -0.0165836, -0.016523, -0.0127257, 0.00297507, 0.00176323, -0.000404844, -0.00202031, -0.0142902, -0.0163555, -0.0117728, -0.0111196, -1.14931e-05, 0.000482327, -0.0154997, -0.0191337, -0.00112993, 0.00142303, 0.00648569, 0.00375279, -0.00511625, -0.00962334, -0.0179535, -0.0152931, 0.00337127, 0.00515276, 0.00259402, -0.00146768, -0.0136685, -0.0102391, -0.0194122, -0.0153959, 0.00422494, 0.00445596, 0.000881145, -0.00237162, -0.0159049, -0.0154864, -0.00963006, -0.00821226, 0.00409387, -0.000719982, -0.0040569, -0.00450863, -0.0158673, -0.0138239, 0.00354169, 0.00222132, -0.00344252, -0.00821651, -0.0189089, -0.0172321, -0.00211097, 0.000322547, 0.00510721, 0.000652257, -0.00899143, -0.0219369, -0.0193385, -0.0170516, -0.000861819, 0.00439812, 0, -0.00839868, -0.0129521, 0.00847865, 0, -0.0195932, -0.00514807, 0, -0.00762637, -0.00696915, -0.00693972, -0.00981973, 0.00325344, -0.00662668, -0.00828306, 0, 0, -0.00180965, -0.00435093, -0.00358894, 0.00195119, 0.0032358, 0.00446413, 0, 0, -0.00786346, -0.00990492, -0.00724827, -0.00635602, -0.0126363, -0.00269451, 0, 0, 0, -0.00668583, -0.0108077, -0.0125831, -0.0153675, -0.00470528, 0, 0, 0, 0.000417449, -0.0099512, -0.00486986, -0.00495235, -0.00791754, 0, 0, 0.00711205, -0.00242156, -0.0186765, -0.00266438, -0.00709017, -0.0085038, -0.00150153, 0, -0.0097473, -0.00488157, 0, 0, -0.00976462, -0.00953254, 0, -0.00418289, -0.00714451, -0.0101735, -0.00922525, -0.00500003, -0.00347381, -0.00490013, -0.00286859, -0.0052449, -0.00926391, -0.00942637, -0.00966139, -0.0077574, -0.00675191, -0.0110608, -0.000201507, -0.00500962, -0.0067059, -0.00470254, 0.000268544, 0.00105027, 0.0014174, 0.00370852, -0.00871178, -0.0106515, -0.0139976, -0.00680418, -0.006235, -0.00653838, -0.00737649, -0.00281607, -0.021116, -0.0266788, -0.012592, -0.00784394, -0.00602513, -0.00957113, -0.0115837, -0.0182859, -0.0151427, -0.00516977, -0.0135773, -0.00387308, -0.00376426, -0.00380256, -0.00925431, -0.0131103, -0.00481795, 0.00210265, 0.00560681, 0.00393811, -0.00226202, -0.00800268, -0.00891836, -0.00544205, -0.00655245, -0.0012693, -0.00410614, -0.0078528, -0.0095915, -0.00863888, -0.0132123, -0.0110782, -0.00253601, -0.00325863, -0.00295593, -0.0117687, -0.0155089, -0.0121443, -0.0141113, -0.0039059, 0.00307259, -0.00171528, -0.00822154, -0.0131125, -0.0135624, -0.0105218, -0.0112753, -0.00325357, 0.00117156, -0.00618995, -0.00959639, -0.00232779, 0.0021909, 0.00276333, 0.00192744, -0.00401972, -0.00569175, -0.0107363, -0.0147026, -0.00472847, -0.000361259, 0.000426166, -0.00410832, -0.00627797, -0.0154639, -0.00971526, -0.011628, -0.00402605, -0.00152007, -0.00199184, -0.00747471, -0.0148036, -0.0202091, -0.0117091, -0.00526187, -0.00209685, -0.00061909, -0.00205159, -0.00742303, -0.0145929, -0.0133817, 0.00450973, 0.0003289, -0.00390009, -0.0074983, -0.0126393, -0.0115292, -0.00424622, -0.00329556, -0.00132698, 0.000585853, -0.0114363, -0.012809, -0.0149908, -0.0136053, -0.00337681, 0.00159046, 0.000879279, -0.00152388, -0.0136262, -0.0148185, -0.0129955, -0.0118467, -0.00150125, 0.00401226, -0.00216821, -0.00465846, -0.016456, -0.0160724, -0.0133483, -0.00775232, -0.00284494, -0.000956487, -0.0107483, -0.00998857, 0.0004496, 0.00238935, 0.00396856, 0.00645323, -0.00591683, -0.00690763, -0.0149569, -0.0150505, -0.000828026, 0.00458446, 0.00471975, -0.00201232, -0.0100577, -0.0125538, -0.0136892, -0.0124616, -0.000869918, 0.000609742, -0.000572102, -0.00652382, -0.0189215, -0.0164449, -0.0117415, -0.0083679, 0.00273773, -0.000973166, 0.000640702, -0.00261374, -0.0154275, -0.0155802, 0.00162121, 0.00175615, -0.00637764, -0.0105014, -0.0144223, -0.0143021, -0.0019197, 0.00121816, 0.00116317, -0.000936039, -0.0072246, -0.0163148, -0.0162969, -0.0119913, -0.00232818, 0.00238536, 0.00254312, -0.000761922, -0.0163851, -0.0179355, -0.0144308, -0.00650986, 0.00163546, 0.00262674, -0.000757941, -0.00266006, -0.0195455, -0.0177006, -0.015383, -0.00870018, -0.00154644, 0.00129227, -0.0133791, -0.0144585, -0.000312601, 0.002173, 0.00431188, 0.00268992, -0.0015914, -0.00674714, -0.0138145, -0.0133, 0.00168716, 0.00597284, 0.00430102, 0.00138593, -0.00940363, -0.0133251, -0.0144966, -0.0127587, 0.00171179, 0.00296991, 0.00184634, -0.00462378, -0.0175051, -0.0196464, -0.00932586, -0.00847956, 0.00426971, 0.00168371, -6.71724e-05, -0.00476416, -0.0195937, -0.0154287, 0.00415444, 0.00385541, -0.00545342, -0.0113431, -0.015598, -0.0164501, -0.000703916, 0.00118994, 0.00421074, 0.00112095, -0.00949922, -0.0179233, -0.0175955, -0.0169221, -0.000359301, 0.00381596, 0.0039901, 0.000368904, -0.0155954, -0.0186474, 0, -0.00987215, 0.00413066, 0.00446984, -0.000444647, -0.00399628, -0.0178762, -0.0162306, -0.0112172, -0.00797204, -5.57287e-05, 0.00182592, -0.0155879, -0.018128, -0.00148821, 0.00146643, 0.00436549, 0.0029427, -0.0049489, -0.00805818, -0.0140151, -0.0161945, 0.00525371, 0.00534459, 0.0050921, 0.00140397, -0.0123901, -0.0137751, -0.0130755, -0.0141809, 0.00675356, 0.00529213, 0.00132651, -0.00245535, -0.0193478, -0.0155349, -0.00727068, -0.011546, 0.00282763, 0.00118156, -0.0020039, -0.000840161, -0.0192576, -0.0150864, 0.00537261, 0.00489943, -0.00523852, -0.0149713, -0.0178253, -0.0192882, -0.000489503, 0.00191307, 0.00553407, 0.00177439, -0.00614374, 0, -0.0170397, -0.0160686, 0.000137128, 0.00291853, 
0.00449825, 0.00130465, 0.000909312, 0.000977234, 0.00123966, 0.00108693, 0.000953904, 0.00182951, 0.00249943, 0.00395037, 0.00146533, 0.000887084, 0.00118383, 0.00164888, 0.0014314, 0.0020103, 0.00242426, 0.00163067, 0.00390881, 0.00148279, 0.0010426, 0.00146063, 0.0021258, 0.00337762, 0.00700555, 0.00238534, 0.00270573, 0.0045978, 0.00227399, 0.00208353, 0.00369933, 0, 0, 0.00354596, 0.00221824, 0.00209782, 0, 0.00274962, 0.00226345, 0.00543464, 0.00369962, 0.0019938, 0.00151845, 0.000997448, 0.00156803, 0.00398365, 0.00152153, 0.00234297, 0.00214053, 0.00148001, 0.00174885, 0.00112597, 0.000890962, 0.00133011, 0.00434512, 0.00242524, 0.00177927, 0.000954431, 0.00118366, 0.00118209, 0.000994313, 0.000858284, 0.00135087, 0.0040928, 0.00120123, 0.000974176, 0.000804971, 0.000992061, 0.00126889, 0.00109169, 0.000827692, 0.000830669, 0.0010013, 0.00145198, 0.00103527, 0.000790105, 0.00114746, 0.00151371, 0.00128901, 0.000894403, 0.000996179, 0.00114349, 0.0017667, 0.00100903, 0.000908784, 0.00137643, 0.00190365, 0.0016198, 0.00270907, 0.00195629, 0.00205588, 0.00202921, 0.00174692, 0.00196477, 0.00326621, 0.00489819, 0.0038847, 0.00308007, 0.00183549, 0.00150901, 0.00207629, 0.00201484, 0.00186198, 0.00251847, 0.00152279, 0.00178036, 0.00134807, 0.000890263, 0.00101781, 0.0015137, 0.00110239, 0.000988588, 0.000916706, 0.00121139, 0.00157823, 0.00114855, 0.00078936, 0.0010146, 0.00156685, 0.00106244, 0.000852871, 0.000801345, 0.00113098, 0.00128066, 0.000965592, 0.000768628, 0.00103512, 0.0012258, 0.00091138, 0.0008839, 0.000908512, 0.00129832, 0.00155069, 0.00137702, 0.000881075, 0.000846519, 0.000964131, 0.00110073, 0.00099217, 0.000939275, 0.00142338, 0.00185156, 0.00150049, 0.00101154, 0.00111113, 0.00111133, 0.00117987, 0.00102688, 0.00105553, 0.00168, 0.00216756, 0.00195465, 0.00308055, 0.00205142, 0.001821, 0.00171742, 0.00172265, 0.0020994, 0.00375736, 0.0045783, 0.00460948, 0.00334866, 0.0020455, 0.00159923, 0.00177198, 0.00195813, 0.00189711, 0.00321484, 0.00177125, 0.00198109, 0.001624, 0.00105273, 0.00100094, 0.00113204, 0.00106528, 0.00109217, 0.000930559, 0.00152655, 0.00187653, 0.00146456, 0.000917336, 0.000938129, 0.00117251, 0.000992639, 0.000855061, 0.000956066, 0.00144324, 0.0015563, 0.00129562, 0.000917859, 0.00094244, 0.000920574, 0.000897148, 0.000970188, 0.00115756, 0.00167332, 0.00211957, 0.00190089, 0.00117054, 0.000923492, 0.00106204, 0.00110087, 0.00109153, 0.0011056, 0.00191331, 0.00241194, 0.00200282, 0.00130927, 0.00132505, 0.00118889, 0.00113252, 0.00105743, 0.00133095, 0.00242054, 0.00285907, 0.00254196, 0.00394052, 0.0026112, 0.00199171, 0.00192191, 0.00205692, 0.00322501, 0.00504926, 0.00653609, 0.0054468, 0.00564243, 0.00303583, 0.00203725, 0.00185718, 0.0020324, 0.002373, 0.00366699, 0.00227214, 0.00272594, 0.00234444, 0.00120842, 0.00108305, 0.00109528, 0.00119208, 0.00129459, 0.00119067, 0.00207444, 0.00251085, 0.00188445, 0.0011152, 0.00104874, 0.00114088, 0.00102642, 0.000926487, 0.00118416, 0.00207229, 0.00197018, 0.00194282, 0.00112397, 0.00101785, 0.00090748, 0.0012421, 0.00138913, 0.00181172, 0.00310555, 0.00317898, 0.00292743, 0.00173051, 0.0011929, 0.0013424, 0.00143818, 0.00143148, 0.00166755, 0.00321534, 0.00380088, 0.00293525, 0.00186375, 0.00205512, 0.00164978, 0.0016033, 0.00142562, 0.00203391, 0.00331305, 0.00496034, 0.00396129, 0, 0.00400395, 0.0036622, 0.00270709, 0.00312148, 0.00622475, 0, 0, 0, 0, 0.00560099, 0.00379258, 0.00277959, 0.00302364, 0.00300758, 0, 0.00319056, 0.00462782, 0.00371986, 0.00194035, 0.00139651, 0.00131893, 0.00145626, 0.00182649, 0.00183031, 0.00388662, 0.00421704, 0.00308314, 0.0016664, 0.00136344, 0.00122971, 0.00132507, 0.00131653, 0.00179383, 0.00334801, 0.00381484, 0.00301809, 0.00178357, 0.00128274, 0.00120226, 0.00186611, 0.00235504, 0.0036298, 0, 0, 0.00510573, 0.00323907, 0.00199141, 0.00188433, 0.00208816, 0.00248738, 0.00388761, 0, 0.0077252, 0.00655147, 0.00344649, 0.0038203, 0.00267553, 0.00241459, 0.0031979, 0.00497458, 0.00593531, 0, 0, 0, 0, 0, 0, 0, 0, 0, 0, 0, 0, 0, 0, 0, 0.0050292, 0, 0, 0.00621245, 0, 0.00636572, 0.00469385, 0.00315989, 0.00211371, 0.00236025, 0.00410854, 0.00345854, 0.00521751, 0, 0, 0.00402842, 0.00233977, 0.00208018, 0.00230402, 0.00226285, 0.00372573, 0.00648509, 0, 0, 0.00360328, 0.00216723, 0.00198108, 0.00205941, 0.000997083, 0.000776145, 0.000949197, 0.00118756, 0.00104859, 0.00080116, 0.00154394, 0.00193311, 0.00157848, 0.0010097, 0.000771668, 0.00111095, 0.00146863, 0.00131621, 0.00179741, 0.00188776, 0.00112542, 0.00152223, 0.00105097, 0.000884603, 0.00122624, 0.00185421, 0.00304383, 0.0029108, 0.00104805, 0.00107997, 0.00136722, 0.00091365, 0.000945107, 0.00163372, 0.00440626, 0.00454758, 0.00159912, 0.000943214, 0.000887581, 0.00126873, 0.0010579, 0.000997977, 0.00260819, 0.00295781, 0.00181463, 0.00137845, 0.000834545, 0.00109471, 0.00154939, 0.00113037, 0.00177986, 0.00188863, 0.00128579, 0.00156618, 0.00111904, 0.000808134, 0.00100173, 0.00150299, 0.00185704, 0.00155427, 0.000850646, 0.0011477, 0.00122356, 0.00102847, 0.000771974, 0.000997455, 0.00224838, 0.00165778, 0.000879085, 0.000654242, 0.000877405, 0.00110984, 0.000911955, 0.000715884, 0.000766635, 0.000881046, 0.002341, 0.00089716, 0.000672863, 0.000956553, 0.0013203, 0.00104929, 0.000759539, 0.000797814, 0.000951604, 0.0022303, 0.00100916, 0.000734456, 0.00106802, 0.00149283, 0.00129653, 0.00132905, 0.000847105, 0.001005, 0.00186032, 0.000865991, 0.000790456, 0.00135513, 0.00199922, 0.00184938, 0.00121997, 0.00078224, 0.000818288, 0.00159488, 0.000959686, 0.000850015, 0.0013285, 0.00128828, 0.00150085, 0.00103759, 0.00075684, 0.000939659, 0.00222927, 0.000961624, 0.000818469, 0.000761135, 0.00109128, 0.00134362, 0.00100778, 0.000695516, 0.000915183, 0.00244108, 0.000980127, 0.000821059, 0.000706567, 0.000964728, 0.0012254, 0.000904902, 0.000702834, 0.000964712, 0.0016778, 0.0010593, 0.000863851, 0.0007356, 0.000980009, 0.00129044, 0.00105766, 0.000752838, 0.00078486, 0.00089437, 0.00142515, 0.000889245, 0.0007659, 0.00109206, 0.00143954, 0.0010926, 0.000789935, 0.000814269, 0.00093562, 0.00159834, 0.000985614, 0.000789566, 0.00116985, 0.00160853, 0.00135107, 0.00139025, 0.000869152, 0.000937471, 0.00121942, 0.00083481, 0.000811659, 0.00135208, 0.00197655, 0.00195729, 0.00132787, 0.000827088, 0.000817878, 0.00120586, 0.00092914, 0.000879206, 0.00134077, 0.00122437, 0.00159967, 0.00121424, 0.000819959, 0.000957163, 0.00169572, 0.000949671, 0.000855758, 0.00077833, 0.00111512, 0.00146672, 0.00111817, 0.000757185, 0.000899069, 0.00149758, 0.000978903, 0.00080464, 0.000785627, 0.00108413, 0.00136295, 0.00104475, 0.000756519, 0.0009686, 0.00115135, 0.000844226, 0.00083615, 0.000849529, 0.00114501, 0.00149494, 0.00124219, 0.000821058, 0.000775173, 0.000832491, 0.00107008, 0.000907497, 0.000824296, 0.00132792, 0.00168441, 0.0013288, 0.000845761, 0.000941185, 0.000896866, 0.00108083, 0.000833958, 0.000834977, 0.0014133, 0.00183673, 0.001465, 0.00152149, 0.000949504, 0.00090121, 0.000910603, 0.000829008, 0.000889332, 0.00157096, 0.00223937, 0.00228915, 0.00161305, 0.000938198, 0.000820346, 0.000873666, 0.000853531, 0.000945099, 0.00153202, 0.00148761, 0.00176331, 0.00149685, 0.000867032, 0.000914342, 0.000966084, 0.00090315, 0.000946205, 0.000845792, 0.00135052, 0.00174233, 0.00128076, 0.0008538, 0.000864525, 0.00104268, 0.000878478, 0.000795216, 0.000858516, 0.00143763, 0.00157824, 0.0013024, 0.00082598, 0.000893098, 0.000876022, 0.000863819, 0.000941203, 0.00102543, 0.00179725, 0.00241409, 0.00188528, 0.00105056, 0.000856462, 0.000950138, 0.000983744, 0.000904363, 0.00104645, 0.00185869, 0.00252108, 0.00207392, 0.00100892, 0.00109039, 0.00104381, 0.00106398, 0.000977112, 0.00103283, 0.00196698, 0.00268303, 0.00213868, 0.00250761, 0.0013791, 0.00099897, 0.000995653, 0.000935094, 0.00120167, 0.00305482, 0.00399222, 0.00334222, 0.00301296, 0.00132545, 0.000967813, 0.00107837, 0.0010015, 0.00123845, 0.00259632, 0.00205529, 0.00274074, 0.00209649, 0.0010741, 0.00100555, 0.00102481, 0.00103554, 0.00112996, 0.00108858, 0.002053, 0.00254539, 0.00193602, 0.00105067, 0.000961983, 0.0010548, 0.00097479, 0.00087816, 0.00109, 0.00200269, 0.00244521, 0.00179805, 0.0011012, 0.000977624, 0.000891682, 0.00106486, 0.00117591, 0.00165204, 0.00345049, 0.00466048, 0.00305923, 0.00165932, 0.00106297, 0.00114558, 0.0012454, 0.00125779, 0.00196307, 0.00385172, 0.00380897, 0.00295456, 0.00157604, 0.001515, 0.00141623, 0.00128039, 0.00175018, 0.00225688, 0.00316515, 0.00455332, 0.00302402, 0.00402101, 0.00237918, 0.00157957, 0.00188788, 0.00222803, 0.00248559, 0.00586102, 0.00637312, 0.00519821, 0.00530827, 0.0024679, 0.0021081, 0.00171061, 0.00155004, 0.00203081, 0.00401085, 0.00304265, 0.00419339, 0.00308058, 0.00228958, 0.00167544, 0.00140116, 0.00132377, 0.00163596, 0.00159325, 0.00309641, 0.00377309, 0.00435019, 0.00206138, 0.00132853, 0.00119972, 0.00114542, 0.00110553, 0.0016053, 0.00336052, 0.00491418, 0.00384817, 0.00166516, 0.0012359, 0.00103321, 0.00157203, 0.000956062, 0.00092971, 0.00123574, 0.00156412, 0.00142712, 0.000996138, 0.00159521, 0.00179528, 0.00110767, 0.0009796, 0.000871885, 0.00134426, 0.00176757, 0.00157268, 0.00208848, 0.0022597, 0.00111711, 0.00115756, 0.000899169, 0.000967736, 0.00150461, 0.00212461, 0.00388469, 0.00298198, 0.00115826, 0.00107329, 0.000968809, 0.000875854, 0.00103333, 0.00187886, 0.0041238, 0.00544395, 0.00195755, 0.00100921, 0.000875431, 0.000942797, 0.00100731, 0.00111763, 0.00296924, 0.00368844, 0.00208293, 0.00153727, 0.000926955, 0.000948968, 0.00117776, 0.00110655, 0.00215872, 0.00222455, 0.0016573, 0.00189095, 0.0014107, 0.000912538, 0.000959708, 0.00117878, 0.00180606, 0.00172455, 0.00101067, 0.00142871, 0.0015828, 0.00124106, 0.000882312, 0.000952272, 0.0016858, 0.00111392, 0.000891526, 0.0007726, 0.00104463, 0.00133395, 0.00109856, 0.00079036, 0.000812763, 0.00089134, 0.00136342, 0.000878305, 0.000739333, 0.00104493, 0.00134023, 0.00113281, 0.000804245, 0.00085662, 0.000922404, 0.00172239, 0.000943852, 0.000783092, 0.00117624, 0.00164732, 0.00139567, 0.00138153, 0.000857719, 0.000937719, 0.0011935, 0.000810615, 0.000793359, 0.00139946, 0.00192887, 0.00200631, 0.00130728, 0.000775094, 0.000823297, 0.0011304, 0.000916371, 0.000875836, 0.00132557, 0.00138242, 0.00156635, 0.00110885, 0.000788878, 0.00091343, 0.00139745, 0.000948221, 0.000883921, 0.000831867, 0.00112984, 0.00146538, 0.00112806, 0.000732493, 0.000855536, 0.00151158, 0.00090884, 0.000789252, 0.000767478, 0.00108678, 0.00136384, 0.00100441, 0.000745433, 0.000952405, 0.001152, 0.00234818, 0.00107825, 0.000773952, 0.0010032, 0.00134493, 0.00109169, 0.000815845, 0.000900089, 0.000975085, 0.00246668, 0.000940855, 0.000766328, 0.00105239, 0.00137123, 0.00109187, 0.000801532, 0.000833627, 0.000989793, 0.00247682, 0.00099287, 0.000814352, 0.00113436, 0.00156335, 0.00126304, 0.00123945, 0.000841324, 0.00100905, 0.00190821, 0.000912312, 0.000794762, 0.00128392, 0.00182518, 0.00171066, 0.00124288, 0.00078407, 0.000856607, 0.0019139, 0.00100212, 0.000819479, 0.00128366, 0.00124247, 0.00162953, 0.00114898, 0.000814036, 0.00104603, 0.00224923, 0.000982618, 0.000857687, 0.000770611, 0.0010684, 0.00141384, 0.00111958, 0.000774527, 0.000946772, 0.00248075, 0.00108283, 0.000849817, 0.000800142, 0.00110477, 0.00134986, 0.00100647, 0.000751456, 0.000999493, 0.0019491, 0.00135901, 0.000960439, 0.000792622, 0.00103882, 0.00151406, 0.00118226, 0.00083319, 0.00084896, 0.000938907, 0.00157202, 0.000911988, 0.000754413, 0.00114473, 0.00144652, 0.00113755, 0.000796065, 0.000836855, 0.000938594, 0.00164083, 0.000961314, 0.000809584, 0.00125048, 0.00165288, 0.00135959, 0.00128784, 0.000853654, 0.00105762, 0.00137658, 0.000850301, 0.000838315, 0.00131599, 0.00182012, 0.00179557, 0.00127399, 0.000862672, 0.000877483, 0.0013212, 0.00092447, 0.000880573, 0.00118106, 0.00128022, 0.00162043, 0.00125934, 0.000820849, 0.00101164, 0.00146556, 0.000942681, 0.000849682, 0.00078883, 0.00112738, 0.00168887, 0.00116469, 0.000778377, 0.000894558, 0.00147519, 0.000966187, 0.000829227, 0.000819643, 0.00130282, 0.00148488, 0.00109419, 0.000796393, 0.000948425, 0.00129733, 0.000937231, 0.000941148, 0.000895434, 0.00146725, 0.00202506, 0.00151422, 0.000921635, 0.000825477, 0.000966079, 0.0011134, 0.000900023, 0.000896422, 0.00148414, 0.00194006, 0.00144352, 0.000905484, 0.00096178, 0.000968308, 0.00119215, 0.00099396, 0.000919078, 0.00149008, 0.0020896, 0.00172469, 0.00160209, 0.000952604, 0.000954376, 0.00097276, 0.000873536, 0.00092681, 0.00181756, 0.00218802, 0.0023283, 0.00180846, 0.000958207, 0.000873648, 0.000964324, 0.000965502, 0.000967392, 0.00161708, 0.00161118, 0.00228814, 0.00146904, 0.000930893, 0.00100078, 0.00111375, 0.000926939, 0.000983646, 0.00086014, 0.00157451, 0.00209778, 0.00154599, 0.000920269, 0.000931367, 0.00104651, 0.000913073, 0.000853707, 0.00091802, 0.0015596, 0.00208238, 0.00149521, 0.000890055, 0.000967103, 0.00096939, 0.000900938, 0.0010265, 0.00127647, 0.00277346, 0.00377981, 0.00237039, 0.00122702, 0.000886426, 0.000910241, 0.00103314, 0.0010437, 0.00149141, 0.00275889, 0.00304782, 0.00218048, 0.00112188, 0.00116509, 0.00106865, 0.00113996, 0.00130857, 0.00157651, 0.00231861, 0.00297755, 0.00211795, 0.00214566, 0.00135915, 0.000992839, 0.00120289, 0.0012258, 0.00135102, 0.00311485, 0.00353305, 0.00334172, 0.00278299, 0.00123869, 0.00117861, 0.00109601, 0.00107689, 0.00130662, 0.00230261, 0.00217171, 0.00300339, 0.00224953, 0.00153485, 0.00130212, 0.00112643, 0.00111207, 0.00117583, 0.00113465, 0.00218969, 0.00310193, 0.00285259, 0.00150688, 0.00103105, 0.00102693, 0.00093169, 0.000874735, 0.00124221, 0.00257318, 0.00334583, 0.00260593, 0.00127474, 0.00101244, 0.000893425, 0.00178728, 0.00108364, 0.00109666, 0.00163984, 0.00212225, 0.00186918, 0.00118873, 0.00196693, 0.00193416, 0.00115617, 0.00105384, 0.00112822, 0.00193278, 0.00214151, 0.00220103, 0.00296145, 0.00266473, 0.00125671, 0.00114912, 0.00101519, 0.00116753, 0.00193761, 0.00281502, 0.00649607, 0.00459239, 0.00133427, 0.00107662, 0.00099254, 0.00102515, 0.00119746, 0.00237804, 0.00658479, 0.00726482, 0.00259613, 0.00134587, 0.000983682, 0.00100219, 0.00104504, 0.0014075, 0.00448958, 0.00472982, 0.00277204, 0.00234728, 0.00117072, 0.00102371, 0.00103011, 0.0011454, 0.00244683, 0.00293306, 0.00222658, 0.00239542, 0.00190562, 0.00113646, 0.000956575, 0.00106986, 0.00198791, 0.00187904, 0.00121892, 0.00185992, 0.00210238, 0.00180413, 0.00103925, 0.000984967, 0.00163546, 0.000853886, 0.00086957, 0.000797763, 0.00117035, 0.00157941, 0.00125348, 0.000861076, 0.000805805, 0.000860221, 0.00104549, 0.000857603, 0.000864193, 0.00131999, 0.0016302, 0.00137001, 0.000911561, 0.000974168, 0.000952645, 0.0011136, 0.000915976, 0.000862178, 0.00134225, 0.00193491, 0.00173476, 0.00163309, 0.000937404, 0.0008868, 0.000879218, 0.000805757, 0.000902291, 0.00157242, 0.00233122, 0.00238109, 0.00153547, 0.000886356, 0.000819776, 0.000907103, 0.000920114, 0.00094318, 0.00163007, 0.00159165, 0.00184226, 0.00131453, 0.000825488, 0.000841915, 0.000985452, 0.000947401, 0.000960571, 0.000952109, 0.00130977, 0.00168706, 0.00136405, 0.000798551, 0.000815565, 0.000995664, 0.000880735, 0.000802635, 0.000849539, 0.00121366, 0.00163855, 0.00117454, 0.000802561, 0.000908429, 0.000835022, 0.00134511, 0.000924978, 0.000779163, 0.00108102, 0.00156943, 0.00113929, 0.00081297, 0.000844783, 0.000961794, 0.00153692, 0.000903102, 0.000762447, 0.00118265, 0.00146745, 0.00120149, 0.000828577, 0.000870604, 0.000970222, 0.00143019, 0.0010007, 0.000843342, 0.00113223, 0.00169979, 0.00132604, 0.00121706, 0.000858924, 0.000992315, 0.00138984, 0.000815317, 0.000826636, 0.00135732, 0.00175737, 0.00181752, 0.00133259, 0.000801962, 0.000826425, 0.00130055, 0.00097275, 0.000881409, 0.00132091, 0.00129638, 0.00161136, 0.00118026, 0.000813433, 0.000985037, 0.00148744, 0.00094991, 0.00081152, 0.000853092, 0.00113074, 0.00167721, 0.00125212, 0.000803526, 0.000905707, 0.00154246, 0.000976314, 0.000829046, 0.000801286, 0.00115957, 0.00145313, 0.00112872, 0.000758441, 0.000948514, 0.00130056, 0.00181878, 0.00102279, 0.000774613, 0.00102584, 0.00136312, 0.00113766, 0.000800191, 0.000877633, 0.000952618, 0.00233721, 0.000964502, 0.000787631, 0.00114185, 0.00150712, 0.00117182, 0.000801045, 0.000821128, 0.00105161, 0.00244371, 0.00102087, 0.000834406, 0.00118686, 0.00167841, 0.00130903, 0.00119639, 0.000812158, 0.00101818, 0.00220321, 0.000877298, 0.000818827, 0.00126734, 0.00167147, 0.0018339, 0.00126471, 0.000810398, 0.000942865, 0.00187891, 0.000996527, 0.000824083, 0.00118666, 0.00121904, 0.00164678, 0.00115311, 0.000799273, 0.00101729, 0.00257037, 0.00101923, 0.000824297, 0.000779752, 0.00114363, 0.00161754, 0.00110269, 0.000776199, 0.000990701, 0.00233598, 0.00111479, 0.000838546, 0.000789111, 0.0011582, 0.00136497, 0.00105789, 0.000746949, 0.00101327, 0.00202361, 0.00151507, 0.00100101, 0.000822082, 0.00123661, 0.00175719, 0.00127741, 0.000831734, 0.000866383, 0.00096653, 0.00155137, 0.000970271, 0.000844553, 0.00129919, 0.00178552, 0.00130987, 0.000806115, 0.000904347, 0.000959039, 0.00184894, 0.00103558, 0.000836596, 0.00129063, 0.00186769, 0.00139921, 0.00132501, 0.000912433, 0.00102925, 0.00160514, 0.000876978, 0.000870571, 0.00153637, 0.0021051, 0.00189174, 0.00148833, 0.000862543, 0.000908622, 0.00148645, 0.00101301, 0.000857882, 0.00136473, 0.00136182, 0.00207707, 0.00125078, 0.000848739, 0.0010339, 0.00159859, 0.000950225, 0.00087419, 0.000874693, 0.00134341, 0.00198174, 0.00141344, 0.000827164, 0.000886332, 0.0015273, 0.000952392, 0.000878915, 0.000836563, 0.00134876, 0.0018026, 0.00117328, 0.000815617, 0.000956815, 0.00161914, 0.000845373, 0.000914843, 0.000948242, 0.00180861, 0.00281363, 0.0018714, 0.000941613, 0.000770378, 0.0008184, 0.00107358, 0.000985217, 0.00121407, 0.00221244, 0.00250914, 0.00171618, 0.000872221, 0.000939749, 0.000976435, 0.00111842, 0.00110787, 0.00123, 0.00183691, 0.00269772, 0.00170024, 0.00157879, 0.000995721, 0.000908644, 0.00107878, 0.00102566, 0.00100853, 0.00203024, 0.00237443, 0.00266786, 0.00206583, 0.00100803, 0.00100918, 0.00108514, 0.000959519, 0.00107247, 0.0016422, 0.00161348, 0.00245161, 0.00175093, 0.00122221, 0.00110665, 0.0011708, 0.000965808, 0.000899722, 0.000911456, 0.00169028, 0.00254143, 0.00240789, 0.00112671, 0.000983874, 0.00113811, 0.000831945, 0.000758224, 0.000943737, 0.00181414, 0.00284897, 0.00197956, 0.00100342, 0.000923389, 0.000843027, 0.00285279, 0.00131357, 0.00170552, 0.00296216, 0.00305462, 0.00284717, 0.00204283, 0.0029635, 0.00327777, 0.00135124, 0.00135858, 0.00179393, 0.0030553, 0.00316258, 0.00337446, 0.0074275, 0.00469227, 0.00159576, 0.00139581, 0.00131125, 0.00172092, 0.00310853, 0.00445958, 0, 0, 0.00209043, 0.00156172, 0.00123337, 0.00129507, 0.00199789, 0.00376496, 0, 0, 0.00429979, 0.00192996, 0.00130894, 0.00131857, 0.00138366, 0.00194134, 0, 0, 0.00424124, 0.00379351, 0.00190657, 0.00137312, 0.00126327, 0.00146772, 0.00377725, 0.00454073, 0.00330919, 0.00373139, 0.00278623, 0.00169903, 0.0012694, 0.0013185, 0.0033782, 0.00281267, 0.00186706, 0.00351603, 0.00335117, 0.00284775, 0.00167302, 0.0013475, 0.00306402, 0.00084292, 0.000959307, 0.000989331, 0.00181187, 0.00221375, 0.00181921, 0.0011208, 0.000946515, 0.00100723, 0.00109509, 0.000907202, 0.0010473, 0.00199167, 0.00253815, 0.00209765, 0.00125306, 0.00119997, 0.00104313, 0.00103499, 0.000950864, 0.00110527, 0.00190251, 0.00271607, 0.00317417, 0.0024126, 0.00116575, 0.00100527, 0.000949993, 0.000916698, 0.00111147, 0.00233274, 0.00337892, 0.0033434, 0.002015, 0.00105807, 0.000916124, 0.000900317, 0.000959033, 0.00115345, 0.00243595, 0.0029224, 0.00257551, 0.0019633, 0.00109554, 0.000947716, 0.00102803, 0.00103074, 0.00131257, 0.00125118, 0.00199361, 0.00247263, 0.00191592, 0.00101896, 0.000899004, 0.00103976, 0.00098383, 0.000948786, 0.0010627, 0.00186619, 0.00221311, 0.00175659, 0.00104079, 0.000956793, 0.000942261, 0.000961571, 0.000952315, 0.00088539, 0.00149989, 0.00185077, 0.00146209, 0.000895979, 0.000818228, 0.000903606, 0.00111472, 0.000874415, 0.000902718, 0.00163755, 0.00211635, 0.00152884, 0.000958616, 0.00096145, 0.000989411, 0.00111036, 0.000915568, 0.000930969, 0.00153134, 0.00220325, 0.00179568, 0.00157254, 0.00100746, 0.00098398, 0.00101731, 0.000865581, 0.000917094, 0.00161488, 0.00255865, 0.00232966, 0.00151692, 0.000904649, 0.000895602, 0.000992077, 0.000941243, 0.000986216, 0.00171946, 0.00168012, 0.00231324, 0.00153434, 0.000900176, 0.000954812, 0.00114092, 0.000992325, 0.000964495, 0.000867259, 0.001474, 0.00205585, 0.00158126, 0.000907364, 0.000895263, 0.00117048, 0.000957195, 0.00081714, 0.000932641, 0.00146222, 0.00208569, 0.00137335, 0.000893636, 0.00092324, 0.000992433, 0.00137701, 0.000977562, 0.000824281, 0.0011815, 0.00183499, 0.00137655, 0.000892543, 0.000881819, 0.000977718, 0.00167275, 0.000935526, 0.000806268, 0.00133033, 0.00190489, 0.00136372, 0.000851324, 0.000849397, 0.0010548, 0.00158636, 0.000989682, 0.000826677, 0.00136176, 0.00195111, 0.00148673, 0.00130355, 0.000894506, 0.00101173, 0.00132306, 0.000881263, 0.000850917, 0.00140054, 0.00198882, 0.00199093, 0.00142695, 0.000870425, 0.000886382, 0.00155638, 0.000986211, 0.000904811, 0.00130939, 0.00140938, 0.00191615, 0.0013356, 0.000871346, 0.000967873, 0.00179853, 0.000987557, 0.000852469, 0.000835499, 0.00130116, 0.00188313, 0.00126464, 0.000806637, 0.000932768, 0.00182203, 0.000989615, 0.000861981, 0.000863619, 0.00141243, 0.0018038, 0.00127115, 0.000828685, 0.000950686, 0.00140526, 0.0025021, 0.00108704, 0.00085478, 0.00135889, 0.00208315, 0.00140482, 0.000833831, 0.000876717, 0.0010425, 0.00231119, 0.000958508, 0.000839478, 0.0014341, 0.00204605, 0.00138948, 0.000866878, 0.00090097, 0.00103031, 0.00251782, 0.00106408, 0.00088826, 0.0013436, 0.00219278, 0.00147714, 0.00136847, 0.000869455, 0.00112137, 0.00226748, 0.000952116, 0.000851505, 0.00150023, 0.00214205, 0.00220432, 0.0015361, 0.000836263, 0.00101881, 0.00257172, 0.00111635, 0.000901965, 0.00135678, 0.00145628, 0.00228339, 0.00136044, 0.000847418, 0.0011092, 0.00233841, 0.00101307, 0.000906447, 0.000867636, 0.00133538, 0.00219012, 0.00136101, 0.000855069, 0.000954158, 0.00250942, 0.00110846, 0.000945331, 0.000862524, 0.00144001, 0.00224686, 0.00128292, 0.000827908, 0.0010443, 0.00210686, 0.00108831, 0.000957292, 0.000909247, 0.00193697, 0.0030875, 0.00176324, 0.000883627, 0.0007724, 0.000843786, 0.00153231, 0.000940411, 0.00108969, 0.00223346, 0.00301777, 0.00153767, 0.000785959, 0.000831646, 0.000905869, 0.00141055, 0.00111, 0.00115207, 0.00171759, 0.00291884, 0.0015583, 0.00143879, 0.000930421, 0.00096061, 0.0013275, 0.000972926, 0.000942019, 0.00176515, 0.00254859, 0.00249405, 0.00184985, 0.00088092, 0.000950106, 0.00137645, 0.00100134, 0.00100891, 0.00145627, 0.00155289, 0.00276369, 0.0017048, 0.00111094, 0.00105798, 0.00151952, 0.00100447, 0.000833882, 0.00081234, 0.00150066, 0.00273635, 0.00222455, 0.00103379, 0.000954911, 0.00148029, 0.0008477, 0.000746694, 0.000886442, 0.00180413, 0.00422944, 0.00195468, 0.000930331, 0.000999037, 0.00114585, 0, 0.003116, 0.00398105, 0.00627512, 0, 0.00696483, 0.00431164, 0, 0.00532819, 0.00217482, 0.00224507, 0.00356219, 0.00572473, 0.00676744, 0.0067346, 0, 0, 0.00246406, 0.00218362, 0.00203754, 0.00357065, 0.00544927, 0.00796065, 0, 0, 0.0034641, 0.00218561, 0.00190973, 0.0023153, 0.00305789, 0.00620898, 0, 0, 0, 0.00389472, 0.00209062, 0.00192148, 0.00241324, 0.00338757, 0, 0, 0, 0.00673145, 0.00318885, 0.00210603, 0.00203386, 0.00237628, 0, 0, 0.00821489, 0.00621652, 0.00730744, 0.00346309, 0.00205222, 0.0020053, 0.00565461, 0, 0.00498522, 0.00633328, 0, 0, 0.00361258, 0.00300976, 0, 0.00164888, 0.00155407, 0.00195653, 0.00373669, 0.00465944, 0.00372696, 0.00218693, 0.00177434, 0.00158758, 0.00126882, 0.00133228, 0.00168494, 0.00294547, 0.00396327, 0.003282, 0.00243332, 0.00223009, 0.00135018, 0.00119009, 0.00126544, 0.00165043, 0.00285224, 0.00407241, 0.00529434, 0.00373363, 0.00163075, 0.00121134, 0.00113243, 0.00117329, 0.00156908, 0.00364661, 0.0052034, 0.00629195, 0.00352127, 0.00171097, 0.00124918, 0.00108461, 0.00118, 0.00167369, 0.00352148, 0.00510517, 0.00417907, 0.00314845, 0.00161764, 0.0012441, 0.00130394, 0.0013532, 0.00216932, 0.00256116, 0.00315129, 0.00362467, 0.0032366, 0.00159826, 0.00124196, 0.00139325, 0.00168676, 0.0020354, 0.00196869, 0.00330919, 0.00401505, 0.00350075, 0.00192795, 0.00158453, 0.00179269, 0.00108142, 0.00124579, 0.00138312, 0.00230614, 0.0031115, 0.00254436, 0.00153918, 0.00113785, 0.00103029, 0.00106943, 0.00104099, 0.00121432, 0.00236117, 0.00258623, 0.00228082, 0.00136386, 0.0013235, 0.00110395, 0.00105542, 0.000956057, 0.00115744, 0.00205114, 0.0028921, 0.00289503, 0.00233273, 0.00121611, 0.000939893, 0.000909704, 0.000900172, 0.00111962, 0.00229996, 0.00333787, 0.00359941, 0.00212243, 0.00116251, 0.000928208, 0.000923981, 0.000941824, 0.00121529, 0.00246489, 0.00276122, 0.0029366, 0.00237762, 0.00115559, 0.0010147, 0.00100253, 0.00111401, 0.00130128, 0.00131207, 0.00212462, 0.00308897, 0.00221647, 0.00128204, 0.00103912, 0.00107571, 0.00106612, 0.0011202, 0.00146472, 0.00285297, 0.00363072, 0.00238443, 0.00150255, 0.0012455, 0.00116878, 0.00105231, 0.00107094, 0.00114226, 0.00190383, 0.00292693, 0.00210268, 0.00125282, 0.000999707, 0.000918137, 0.00122794, 0.000955074, 0.000969591, 0.00189049, 0.00241925, 0.00172265, 0.000993766, 0.000995636, 0.000952544, 0.00109124, 0.0009161, 0.000920644, 0.00164303, 0.00239707, 0.0020602, 0.00166341, 0.000938195, 0.000874136, 0.00088249, 0.000759907, 0.000877023, 0.00173934, 0.00262051, 0.00243815, 0.00165229, 0.000936309, 0.000810545, 0.000870703, 0.000843099, 0.000957673, 0.00169096, 0.00212011, 0.00275351, 0.00175737, 0.000946181, 0.000903062, 0.00112954, 0.000982304, 0.0010551, 0.00102493, 0.00175094, 0.00276385, 0.00195734, 0.000989689, 0.00100945, 0.00120528, 0.000980947, 0.000968139, 0.00117849, 0.00227406, 0.00279187, 0.00209762, 0.00114042, 0.00110884, 0.0010868, 0.00136244, 0.00106403, 0.0010558, 0.00191768, 0.00353273, 0.00218843, 0.0010837, 0.000944275, 0.000948119, 0.00155892, 0.000924977, 0.000892276, 0.00176028, 0.00280907, 0.00163827, 0.000896864, 0.000904369, 0.00090553, 0.00142565, 0.000924106, 0.000862436, 0.00152195, 0.00242686, 0.00180032, 0.00150335, 0.000875323, 0.000870313, 0.00104348, 0.000773415, 0.000824712, 0.00154117, 0.00228196, 0.00245971, 0.0016702, 0.000815461, 0.000795888, 0.0010897, 0.000882815, 0.000821844, 0.00144896, 0.0018269, 0.00308658, 0.00152225, 0.000889363, 0.000995967, 0.00146269, 0.000972336, 0.000922918, 0.000927218, 0.00166708, 0.00275635, 0.0018031, 0.000961218, 0.00100341, 0.00152081, 0.000979016, 0.000944426, 0.00108685, 0.00213762, 0.00341826, 0.00189422, 0.00104856, 0.00104229, 0.00129979, 0.00121683, 0.00100399, 0.00102867, 0.00276372, 0, 0.00292656, 0.00102612, 0.000732741, 0.000791322, 0.00179051, 0.000891154, 0.00098916, 0.0029658, 0.00342138, 0.00163001, 0.000752625, 0.000755536, 0.000824668, 0.00198302, 0.0010044, 0.00100056, 0.00183268, 0.00307321, 0.00178806, 0.00130541, 0.000768242, 0.000811429, 0.00126526, 0.000767576, 0.000771283, 0.00173422, 0.00258626, 0.00274062, 0.00171341, 0.000748826, 0.000773034, 0.00138064, 0.000908718, 0.000846599, 0.00127779, 0.00174458, 0.00314728, 0.00165264, 0.00103584, 0.00104359, 0.00232831, 0.0009532, 0.000800798, 0.00078367, 0.00160463, 0.00353464, 0.00289082, 0.00108, 0.000951104, 0.00192673, 0.000861923, 0.000745311, 0.000982153, 0.00273452, 0, 0.00279286, 0.00115001, 0.00111408, 0.00132228, 
