-3.14159, -2.35619, -1.5708, -0.785398, 0, 0.785398, 1.5708, 2.35619, 3.14159, 
-3.14159, -2.35619, -1.5708, -0.785398, 0, 0.785398, 1.5708, 2.35619, 3.14159, 
0, 0.035, 0.06, 0.09, 0.13, 0.18, 0.25, 
0, 0.035, 0.06, 0.09, 0.13, 0.18, 0.25, 
0.0119497, 0.00382991, -0.00695255, -0.000362349, 0, -0.00128914, 0.00414241, 0.00746647, 0.00599863, -0.000199303, -0.0108217, -0.00348277, 0.0117251, 0.0126323, 0.0182438, 0.00900096, -0.00234907, -0.00429232, 0.00442938, 0.00876638, 0.00958175, 0.0117478, 0.00993156, 0.00156414, -0.00806707, -0.00494635, -0.00290148, 0, 0.00531787, -0.000585774, -0.00349502, -0.00820445, -0.00634033, -0.000978059, -0.0012967, -0.000890823, 0, -0.00844828, -0.00803139, -0.00622856, 0.00390259, 0.0128284, 0.00729857, 0.000886873, 0.00103819, -9.36093e-05, -0.00502856, 0.000317241, 0.00768961, 0.0102213, 0.000307497, -0.00543323, -0.00534533, -0.00846228, -0.00273506, 0.00317973, 0.00281564, 0.00690044, -0.00359992, 0, -0.00842963, -0.00239228, 0.00196037, 0.00492528, -0.00390603, 0.00237988, -0.00552366, -0.00429175, -0.00069579, 0.0059416, 0.0119308, 0.000536866, -0.00102285, -0.00386303, -0.00849674, -0.00919195, 0.00163276, 0.0115698, 0.0179027, 0.00409131, -0.00573906, -0.00350573, -0.00045381, -0.00609227, 0.000875439, 0.00857019, 0.00849944, -0.0019478, -0.00635477, -0.00108191, 0.00517201, -0.00549406, -0.00209357, 0.000660423, 0.00177226, -0.00486447, -0.00613136, 0.00183239, 0.00364143, -0.00238548, -0.00722502, -0.00155135, -0.00305042, -0.00969706, -0.000603036, 0.00836801, 0.00633344, 0.000552477, -0.00372122, 0.000674618, -0.00255591, -0.00333192, 0.000797867, 0.0104304, 0.00699105, -0.00784444, -0.00549789, -0.0019037, 0.00151406, -0.00350161, 0.00146319, 0.00690446, 0.0021319, 0.00132896, -0.00661586, -0.000281384, 0.00108061, -0.00499929, -0.00247019, 0.00216834, -0.00451784, -0.0109451, -0.00758067, -0.00332843, 0.0057848, -0.000449151, -0.00439679, -0.00101646, -0.00484241, -0.0123799, -0.00910403, 0.00175924, 0.00774858, -0.00420827, -0.0078876, -0.0042054, -0.000628521, -0.0104228, -0.00912137, 0.00126417, -0.000291587, -0.00713052, -0.00761068, -0.00337351, 0.00350617, -0.00825026, -0.00857748, -0.000455751, -0.00195532, -0.0150825, -0.00917582, 0.000200989, 0.00336153, -0.00588333, -0.0123659, -0.00472799, -0.00559286, -0.0133606, -0.00508933, 0.00258805, 0.00360211, -0.00590831, -0.0105111, -0.00266553, -0.00433572, -0.00922997, -0.00464074, 0.00435961, 0.00464946, -0.0108815, -0.0114304, -0.00568678, -0.00239191, -0.00867497, -0.000303892, 0.00427728, 0.00391324, -0.0154094, -0.00733146, -0.00320998, 0.00201625, -0.00282071, -0.00351965, -0.00138564, -0.0124902, -0.0170793, -0.00624361, -0.00155665, 0.00139123, -0.00574192, -0.00506731, -0.00286929, -0.00371525, -0.0111313, -0.0143822, -0.000243255, -0.00186937, -0.00790272, -0.00790029, -0.00125584, -0.00200486, -0.0111696, -0.00903078, 0.000419642, 0.00167196, -0.00622881, -0.00687972, -0.00237548, 0.00214017, -0.00916034, -0.0116429, -0.00341284, -0.00688774, -0.0142266, -0.00388228, 0.000154389, 0.00224244, -0.00910952, -0.0117835, -0.00408851, -0.00761229, -0.0102173, -0.00347989, -0.000404002, 0.00351576, -0.00666295, -0.0129474, -0.00548689, -0.00558719, -0.00786476, -0.00246329, -0.000813887, 0.000603546, -0.0129559, -0.0148858, -0.00799933, -0.00374867, -0.00915146, -0.000846769, 0.000183911, 0.00156847, -0.0101699, -0.0133365, -0.00786086, -0.000985081, -0.00616277, -0.00590337, -0.00151321, -0.00504659, 0, 0, 0, -0.0118703, -0.00158066, -0.00654497, -0.00431166, -0.00184539, -0.0117477, -0.0193123, 0.00246596, 0.00136749, -0.00607073, -0.00689554, -0.00448187, -7.59672e-05, -0.00994896, -0.0133574, -0.00484771, -0.00541929, -0.00524715, -0.00961875, -0.00498062, 0.00270586, -0.00916259, -0.00955423, -0.00657783, -0.00539436, -0.00885671, -0.00694434, -0.00176896, 0.00164959, -0.00799355, -0.0103678, -0.00556003, -0.00446632, -0.00871736, -0.00798731, 0.000278917, 0.003514, -0.00694008, -0.0123798, -0.00439175, -0.00564214, -0.00608626, -0.00438185, 0.00171507, -0.000534365, -0.0149111, -0.0129487, -0.00585409, -0.00507378, -0.0082672, -0.000749018, 0.00863998, 0, 0, 0, -0.00436319, -0.00576449, -0.0106524, 0, -8.51757e-05, 0, 0, 0, 0, 0, 0, -0.00612556, -0.00617172, -0.00478367, -0.012738, -0.0135638, -0.0148864, -0.00823426, -0.0105252, -0.00929914, -0.00651001, -4.27225e-05, -0.0148715, -0.0100288, 0.00496666, 0.0042256, 0, -0.010744, -0.00346341, 0.00252836, -0.00824054, -0.00887636, -0.00132165, -0.014826, 0, 0, -0.0172303, -0.0012181, -0.00803144, -0.0112629, -0.00231453, -0.00896033, 0, 0, 0.00765934, -6.61643e-05, -0.00906997, -0.0107043, -0.00713238, -0.00451639, -0.00522527, -0.00339644, -0.00829364, 0.00760049, -0.00878661, -0.00816485, -0.00697369, -0.00622292, -0.0093635, 0, 0, 0, 0, 0, 0, -0.00389669, 0, -0.00110948, -0.00111182, -0.00531798, -0.00500187, 0.00506861, -0.00109494, 0.00315392, 0.000387576, 0.00515863, 0.00276899, -0.0061718, -0.00144313, 0.0128048, 0.0130006, 0.0102036, 0.00708038, -0.00309975, -0.00503184, 0.00124689, 0.0107314, 0.0106525, 0.00641924, 0.0104343, 0.00210275, -0.00843968, -0.00978735, -0.00911214, -0.00205447, 0.00624112, 0.00054939, -0.00151259, -0.00550342, -0.00646592, -0.00380744, -0.00345875, -0.0015787, -0.00235417, -0.00529097, -0.00518434, -0.00415795, 0.00276804, 0.00844171, 0.00400716, -0.000967598, 0.000428322, -0.00330091, -0.00587043, -0.00114587, 0.00756358, 0.0121814, 0.0088434, 0.000425452, -0.0028187, -0.00552663, 0.00126182, 0.00702689, 0.00255556, 0.00327155, -0.00123417, 0.00168238, -0.00218216, -0.00835759, -0.00386526, 0.00117804, -0.000386164, 0.000960913, -0.0065101, -0.00781341, -0.00358583, 0.00179547, 0.00712205, 0.00545687, 0.00204984, -0.00393297, -0.0115619, -0.00985745, 0.000428249, 0.00934159, 0.0127167, 0.00656607, -0.00709195, -0.0092019, -0.00654038, -0.00121002, 0.00538845, 0.00972378, 0.00978757, -0.000208367, -0.00784342, -0.00974688, -0.00229456, -0.000481442, 0.00243885, 0.00358659, 0.00221269, -0.00808816, -0.00733567, -0.00220539, 0.00138059, 0.000104845, 0.000830149, -0.00180737, -0.0043037, -0.00861292, -0.00114346, 0.00642469, 0.0059629, 0.00316599, -0.000610435, -0.00570212, -0.00786281, -0.00739191, 0.00345311, 0.00935132, 0.00973002, -0.00197097, -0.00474979, -0.00942447, -0.0022639, -0.00168051, 0.00281974, 0.00424591, -0.00196771, -0.00803004, -0.00685008, -0.008645, 0.00068417, -0.000401527, -0.000680774, 0.00330431, -0.00746933, -0.0104334, -0.00718763, -0.00280513, 0.00447275, 0.00155972, -0.00339865, -0.00193342, -0.0127896, -0.0168856, -0.00681628, -0.000669368, 0.00520069, 0.0015978, -0.00965433, -0.0121465, -0.00162083, -0.00607796, -0.00376671, 0.00538779, 0.00277303, -0.00432836, -0.0109061, -0.00923086, 0.00135474, -0.00583084, -0.00178, 0.00234685, -0.00121216, -0.011112, -0.00784252, -0.00440091, 0.0026558, -0.0010537, -0.00333609, 0.000227947, -0.00867074, -0.01219, -0.00484999, 0.00351947, 0.00554067, -0.00286676, -0.00965192, -0.00584023, -0.00969331, -0.0135439, 0.000465365, 0.00725794, 0.00463943, -0.00835586, -0.0123478, -0.012632, -0.00709412, -0.00562695, 0.000956626, 0.00464426, -0.00041452, -0.0108888, -0.0130137, -0.0109458, -0.000446725, -0.00302365, -0.00331102, -0.000176687, -0.0090453, -0.0166317, -0.0108056, -0.00357087, 0.000902826, -0.000739911, -0.00387688, -0.00307789, -0.00911598, -0.0159311, -0.00947274, -0.00091911, 0.00264346, -0.0026833, -0.0113942, -0.0102529, -0.00168491, -0.0099418, -0.00733555, 0.000601359, -0.000131293, -0.00886826, -0.0100816, -0.00970978, 0.000762052, -0.006773, -0.00508298, 0.00116724, -0.00548527, -0.0109337, -0.00764534, -0.00345282, 0.00271552, -0.00399601, -0.00802808, 0.000138191, -0.00830983, -0.0117674, -0.00765561, 0.00176257, 0.00243752, -0.00458862, -0.0119851, -0.00765809, -0.0118048, -0.0136378, -0.00336189, 0.00484702, 0.00415416, -0.00945739, -0.0142872, -0.0127207, -0.00706535, -0.0090569, 0.0011172, 0.00193848, -0.00473084, -0.0100552, -0.0171483, -0.00818264, -0.00365314, -0.00357388, -0.00152071, -0.000523211, -0.00506542, -0.0154507, -0.00670583, -0.00130104, -5.47639e-05, -0.00292556, -0.00505563, -0.00701431, -0.00899799, -0.0140099, -0.0135582, -0.00258286, 0.00172076, -0.00261299, -0.00849759, -0.00957006, -0.00280972, -0.00950501, -0.00757222, -0.0016692, -0.00482081, -0.00835551, -0.0108947, -0.00976977, 0.000794108, -0.00511416, -0.0059161, 0.000314145, -0.00422927, -0.0107924, -0.00788475, -0.0110067, 0.00319975, -0.00545064, -0.00777569, -0.00262795, -0.00894145, -0.0140491, -0.00627891, -0.00539619, 0.00455478, -0.00940299, -0.0123091, -0.00697114, -0.0114982, -0.011363, -0.00459898, -0.00115866, 0.0042747, -0.0120913, -0.0166131, -0.0113239, -0.0090525, -0.00733186, -0.00270953, 0.00211919, 0.00535186, -0.0192979, -0.0147093, -0.0108542, -0.00267091, -0.00394003, -0.00294589, -0.00151533, -0.00418017, -0.0138459, -0.00485071, -0.00487946, -0.00194269, -0.0033363, -0.00659531, -0.00639886, -0.00541316, -0.0117928, -0.014506, 0.000728401, -0.00127885, -0.00309418, -0.0107556, -0.0117255, -0.00441166, -0.00626623, -0.0052393, -0.00654432, -0.00197275, -0.00874493, -0.0125815, -0.0120642, 0.0011325, -0.00512903, -0.00559321, -0.00317049, -0.002235, -0.00556832, -0.0153008, -0.0110042, 0.0046873, -0.00331802, -0.00802405, -0.00270406, -0.00821929, -0.0107581, -0.00566958, -0.00123195, 0.00342315, -0.00529645, -0.0135683, -0.00827253, -0.0106358, -0.0120974, -0.00356981, -0.00410879, 0.00667022, -0.00463163, -0.0156021, -0.0105911, -0.0105791, -0.00870013, 0.00213048, 0.00269958, -0.0059278, -0.000338794, -0.0120729, -0.00795703, -0.00275197, -0.00442405, -0.00299542, -0.00469094, -0.00818997, -0.0083504, 0.00556169, -0.00269654, -0.00230803, -0.00191242, 0.00265429, -0.000122242, -0.0063796, -0.000687109, -0.00227026, 0.0054796, 0.00629152, 0.00471574, -0.00250577, -0.00637998, -0.00159247, 0.00503419, 0.00969003, 0.00397065, 0.00594303, 0.000544387, -0.0136417, -0.0124826, -0.0122361, -0.00594117, -0.00457084, -0.00368104, -0.00757439, -0.00847903, -0.00994417, -0.0105964, -0.00855616, -0.00748811, -0.00666122, -0.0115163, -0.0118471, -0.0118852, -0.00151957, 0.000181479, -0.00233543, -0.00153346, -0.00646764, -0.00510374, -0.0063038, -0.00439715, 0.00387656, 0.0063893, -0.000362834, -0.000643184, -0.00213091, -0.0064179, -0.00197487, 0.00264262, -0.0032717, -0.0033412, -0.00711203, -9.35534e-05, -0.00526067, -0.010866, -0.00778805, -0.00330295, -0.00145715, -0.00269069, -0.0103589, -0.00960776, -0.00716239, -0.00516568, 0.0027577, 0.00222389, 0.00244895, -0.00118564, -0.0112038, -0.00930908, -0.00294586, 0.00677387, 0.0106373, 0.00673223, -0.00896206, -0.0111774, -0.00219054, -0.000260072, 0.00482544, 0.00780009, 0.00713379, -0.00246583, -0.0146449, -0.0156498, -0.00892002, -0.00402945, 0.00101312, -0.00178735, -0.0058389, -0.0125155, -0.0107137, -0.00995107, -0.0043372, -0.00246299, -0.00549895, -0.00813498, -0.0120117, -0.0154435, -0.00662658, -0.000503747, 0.00041575, -0.00028495, 0.00120715, -0.0087304, -0.0128985, -0.0108122, 0.00389248, 0.00422002, -0.000524889, -0.00513233, -0.00971415, -0.0090412, -0.00478385, -9.58418e-06, 0.00125524, 0.000502947, -0.00698936, -0.0087617, -0.0128938, -0.0124065, -0.00642626, -0.00420513, 0.000830193, 0.00206766, -0.0118973, -0.0165805, -0.00933303, -0.00581706, 0.00283078, 0.00153802, 0.00184954, 0.000526133, -0.015525, -0.0135116, -0.00816844, 0.000555953, 0.00404836, 0.00267584, -0.011677, -0.0148739, -0.00162726, -0.0023859, 0.000613064, 0.00424743, 0.0010859, -0.00628054, -0.0140621, -0.0158834, -0.00228471, -0.0012206, 0.00104599, 4.04288e-05, -0.00799068, -0.0153691, -0.00969363, -0.00953567, 0.000151555, 0.000228311, 0.000214785, -0.00188955, -0.0124451, -0.0163338, -0.00794994, 0.000142655, 0.000215625, -6.08537e-05, -0.00356455, -0.0007807, -0.0146021, -0.0141545, 0.000626557, 0.00404694, -0.000455522, -0.00769888, -0.0127113, -0.0168032, -0.000343675, -0.00672149, 0.0013232, 0.00192506, -0.0102645, -0.0123388, -0.0138181, -0.0143148, -0.00293962, -0.00196863, -0.000816643, -0.000744938, -0.0101426, -0.0154407, -0.0145992, -0.00849551, 0.000347715, -0.00121234, -0.00392157, -0.000162025, -0.0148987, -0.0162699, -0.0108339, -0.000937281, 0.00248493, -6.19775e-05, -0.0124662, -0.014204, 0.0011387, -0.005001, -0.00100146, 0.00235175, -0.00378517, -0.00844598, -0.0120433, -0.0139038, 0.00165272, -0.00341845, -0.000342016, -3.92578e-05, -0.00770348, -0.0156179, -0.0129114, -0.012221, 0.00137507, -0.001201, -0.00403546, 3.3786e-05, -0.0121881, -0.0161108, -0.00999427, -0.00759446, 0.00393995, -0.00183797, -0.00744017, -0.00552993, -0.0146254, -0.0155081, -0.00126733, 0.00184121, -0.000328682, -0.0137254, -0.0168987, -0.0158332, -0.00558955, -0.00430872, 0.00222228, 0.0028548, -0.00537544, -0.0117667, -0.0192861, -0.0154873, -0.00307502, -0.00134929, -0.000421916, -0.00044281, -0.010094, -0.0142335, -0.01349, -0.0089332, 4.98804e-05, -0.00123839, -0.00382323, -0.00454029, -0.0117701, -0.0162027, -0.014493, -0.000770418, 0.00134108, -2.74743e-05, -0.0126647, -0.0142102, -0.000417649, -0.00504375, -0.0029859, -2.48961e-07, -0.00236608, -0.00909102, -0.0150915, -0.0135024, 0.00144659, -0.00255589, -0.000968779, 0.000726354, -0.00815485, -0.0146856, -0.0124595, -0.012454, 0.000729384, -0.00121127, -0.00395838, 0.000784278, -0.0136034, -0.0147662, -0.0109428, -0.0073926, 0.00315458, -0.00406612, -0.00921277, -0.00545409, -0.0112802, -0.0139718, 0.000420406, 0.00139774, -0.0034474, -0.0126135, -0.0177156, -0.0128258, -0.00425085, -0.00624274, 0.00334885, 0.00219297, -0.00800091, -0.0153439, -0.0172547, -0.0117717, -0.00115895, 0.00101918, -0.00218111, -0.00130673, -0.00899673, -0.0108521, -0.0168055, -0.00727152, 0.00182915, -0.00222767, -0.0055112, -0.00591139, -0.00898531, -0.0133185, -0.0136757, -0.00299191, 0.00196245, -0.00221283, -0.0121512, -0.0128391, -0.00145674, -0.00567195, -0.0044946, -0.00279311, -0.00452223, -0.00928485, -0.0147957, -0.0128041, 0.00211664, -0.00145763, -0.00256439, -0.00094714, -0.00986704, -0.013877, -0.0158801, -0.0117081, 0.00221631, 0.000311235, -0.00228034, -0.00187182, -0.00842076, -0.0128294, -0.00908415, -0.00722303, 0.00240996, -0.00298264, -0.00900475, -0.00628573, -0.0128411, -0.0132862, -0.00399766, -0.00116576, -0.00121426, -0.0108078, -0.0165651, -0.0142219, -0.00452207, -0.00501899, 0.00213181, -0.000391046, -0.00267935, -0.0107178, -0.01783, -0.0105385, -0.00142816, -0.000503077, -0.00594606, -0.00457414, -0.00587953, 0.00423988, 0.00525791, -0.00251114, -0.00371739, -0.00320594, -0.000374816, -0.0025157, -0.0061924, -0.00466324, 0.00222641, 0.000367909, 0.00158893, 0.00102112, -0.00393608, -0.00387089, -0.00231332, 0.00662816, 0.00718531, 0.00591821, 0.00117792, 0.00228493, -0.0131391, -0.0105427, -0.0106549, -0.00852444, -0.00539488, -0.00775466, -0.00541642, -0.00855777, -0.00856532, -0.0111481, -0.00831684, -0.010531, -0.00921133, -0.0119498, -0.0099741, -0.0102593, -0.00329498, -0.00215931, -0.00469629, -0.00283366, -0.00526638, -0.00763072, -0.00410899, -0.00470343, -0.000849947, -0.00250003, -0.00460455, -0.00713446, -0.0104302, -0.0102074, -0.00709722, 1.56504e-05, -0.00600506, -0.00525596, -0.00444898, -0.0153303, -0.0155125, -0.0103684, -0.00827129, -0.00383639, -0.00195552, -0.00403452, -0.00953597, -0.0126907, -0.0045806, -0.00670592, -0.000237704, 0.00121958, 0.00122495, -0.00443985, -0.0115387, -0.00855202, -0.00447825, -0.00148987, 0.00269212, 0.00294749, -0.00644866, -0.00901022, -0.00165802, 0.00106078, 0.00536948, 0.0059494, 0.00196042, -0.0013474, -0.0117416, -0.0143819, -0.00887289, -0.00513801, -0.00266289, -0.00647444, -0.00925287, -0.0128681, -0.0148859, -0.010179, -0.00726287, -0.00504458, -0.00649565, -0.0113667, -0.0153162, -0.0142347, -0.00695929, 5.78635e-05, 0.000283269, -0.00152376, -0.00268914, -0.00886024, -0.0119893, -0.0106852, -0.00023231, 2.59554e-05, -0.00287504, -0.00418086, -0.00803055, -0.0127022, -0.00845607, -0.0015758, -0.0033558, -0.00184786, -0.00756381, -0.00715933, -0.0127178, -0.0111232, -0.00680724, -0.00485804, 0.000258205, -0.00241436, -0.0127438, -0.0140353, -0.0102947, -0.00622527, 0.00318013, 0.00417061, -0.00121696, -0.00102882, -0.0153136, -0.0144739, -0.00707718, -0.00120308, 0.00422631, 0.00248673, -0.0106256, -0.0137101, -0.00156936, 0.000715102, 0.00382941, 0.000245545, 0.000590022, -0.00729939, -0.0170498, -0.0149504, -0.0044223, -0.00167441, 0.000572197, -0.000669433, -0.00918366, -0.0140258, -0.0117546, -0.0100592, -0.00145519, 0.000796908, -0.00384196, -0.00539791, -0.017793, -0.0185138, -0.00751582, -0.00441256, 0.00150103, -0.00036221, -0.000287266, -0.00542628, -0.0151516, -0.0153579, -0.00210478, -0.000150759, -0.000886925, -0.00807637, -0.0140286, -0.0129375, -0.00490243, -0.00255098, 0.000241653, -0.00179895, -0.00967156, -0.0146085, -0.018242, -0.0143788, -0.00368563, -0.000160043, 0.00187315, -0.000676534, -0.0141514, -0.0158512, -0.0122358, -0.00586165, 0.00213383, 0.00223205, 1.77086e-05, -0.00391961, -0.0151422, -0.0163916, -0.0123553, -0.0067069, 0.00215433, -1.72513e-05, -0.0139731, -0.0165938, -0.00370684, 0.0013164, 0.00131712, 0.00213082, -0.00219585, -0.0101393, -0.0154813, -0.0173888, 0.00140329, 0.00457987, 0.000914137, 0.00033918, -0.0123409, -0.0148203, -0.0160755, -0.010669, 0.00193937, -1.58288e-05, 0.000112499, -0.000902793, -0.0178683, -0.0184019, -0.00754158, -0.00521004, 0.0043647, -0.00112799, -0.00298192, -0.00323098, -0.0165185, -0.0158635, -0.000211403, 0.000395899, -0.00437304, -0.0116955, -0.015794, -0.0182029, -0.00191972, -0.0018871, 0.0013423, 0.00041551, -0.00738264, -0.0176838, -0.0164099, -0.017358, -0.00338597, 0.00172485, 0.000553978, 0.000380203, -0.0126149, -0.0130422, -0.0134715, -0.0076296, 0.00130211, 0.00257472, -0.00177354, -0.00557149, -0.0152086, -0.0165453, -0.0168599, -0.00745424, -0.00117304, -0.0018096, -0.0144631, -0.0175572, -0.00450917, -0.00254537, -0.000858867, 0.00152953, -0.00688382, -0.00997561, -0.0167761, -0.0145979, 0.000479071, 0.00260849, 0.00136488, 0.00124108, -0.0128824, -0.0177867, -0.0176752, -0.0117072, 0.00156039, 0.00136493, 0.00084757, -7.6344e-05, -0.0147196, -0.0182532, -0.010582, -0.00760974, 0.00284742, -0.00235866, -0.00642547, -0.00416254, -0.0150113, -0.0150138, 0.000945412, 0.00103207, -0.00226256, -0.0143105, -0.0201075, -0.017015, -0.00360114, -0.00300576, 0.00277634, -0.00134869, -0.00634311, -0.0210608, -0.0189007, -0.0145905, -0.000950965, 0.00163975, 0.0028294, -0.00166378, -0.00967177, -0.00999339, -0.0149694, -0.00639364, 0.00222819, 0.00137268, -0.0019236, -0.00390499, -0.0108394, -0.0140847, -0.0122171, -0.0063255, 0.00214812, 0.00062376, -0.0141952, -0.0158576, 0.00147844, -0.00123818, -0.000978644, 0.002225, -0.0028571, -0.00370363, -0.0164296, -0.0133956, 0.00385664, 0.00255847, 0.00223143, 0.000862789, -0.0110435, -0.01162, -0.0208386, -0.013948, 0.00431545, 0.00231243, 0.000875648, 0.000282509, -0.0141121, -0.0163293, -0.0128867, -0.00880883, 0.00352061, -0.00115138, -0.00504664, -0.0048734, -0.0129696, -0.015182, 0.000172329, -0.00194779, -0.00436478, -0.0107719, -0.0175147, -0.0146959, -0.00141342, -0.00167455, 0.0022489, -0.000342618, -0.0065223, -0.00566962, -0.0178353, -0.0149335, 8.52493e-05, 0.00353343, -0.00444624, -0.00339105, -0.00585112, 0, 0, 0.000393519, -0.00467036, -0.00244636, -0.00254042, -0.00267865, -0.00458508, -0.0096202, 0, 0.000687004, -0.000148835, 0.00174267, -0.00429649, -0.000926484, -0.00149441, -0.000960648, 0.00847441, -0.00431504, 0.00301079, 0.00164988, -0.00997999, -0.0129613, -0.00743065, -0.00704815, -0.00868247, -0.00944472, -0.00737439, -0.00222721, -0.00925991, -0.00969586, -0.00649535, -0.00868665, -0.0145468, -0.0122213, -0.0102251, -0.00926496, -0.00181427, -0.00290786, 0.00339027, 0.00720123, -0.00495238, -0.00716728, -0.0062786, -0.00553769, -5.99894e-05, 0.00434049, 0.00493788, 0, -0.00475958, -0.00772004, -0.00416284, -0.00156339, -0.00611003, -0.0068773, 0.00193597, 0, 0, -0.00942934, -0.00743191, -0.00575504, -0.00239055, -0.00620249, -0.0090688, -0.00684826, -0.00619818, -0.00512259, -0.00268647, 0.000804423, -0.00158352, -0.00568102, -0.00790816, -0.0108241, -0.00691175, 0.00130225, 0.00201737, 0.000357935, -0.00552469, -0.00574358, -0.000547375, 0.00132485, 0.00269334, 0.00422983, 0.0011598, -0.00155437, -0.0110619, -0.0157364, -0.00903193, -0.00501306, -0.00543302, -0.00505791, -0.00864452, -0.00853402, -0.0114671, -0.00967127, -0.008074, -0.00458578, -0.00770926, -0.0109168, -0.0141327, -0.0153883, -0.00676705, -0.00404579, -0.00143928, -0.000864438, -0.00299156, -0.00522891, -0.0118093, -0.0103483, 0.00214195, 0.000947497, -0.00506653, -0.00542419, -0.0068057, -0.00970076, -0.00698691, -0.00152084, -0.00252555, -0.00329225, -0.00845727, -0.00609525, -0.00876812, -0.0117853, -0.00957426, -0.00366082, 0.000686717, -0.00193488, -0.0124244, -0.0154658, -0.0101318, -0.00661368, 0.00187939, 0.00318862, 0.000342123, -0.00365098, -0.0139179, -0.0128213, -0.00964401, -0.00210616, 0.00300907, 0.00142877, -0.00910884, -0.00984764, -0.00171037, 0.00336654, 0.00361932, 0.0039998, 9.74095e-05, -0.00151374, -0.0150177, -0.0146392, -0.00450527, -0.000220358, -0.000855324, -0.00174025, -0.0135419, -0.0138014, -0.0213699, -0.0113897, -0.00419836, -0.00130931, -0.00159565, -0.00587189, -0.0169554, -0.0176113, -0.00626023, -0.00457237, -0.00241768, -0.00148003, -0.000938258, -0.00337382, -0.0116866, -0.0134719, -0.000969341, 0.00173739, -0.00481516, -0.00924244, -0.0124144, -0.014024, -0.00495701, -0.00310541, -0.00128722, -0.00179449, -0.00998689, -0.0163471, -0.0129494, -0.0119359, -0.0040046, -0.000594212, 0.00214706, -0.00163817, -0.0150068, -0.0146303, -0.0133607, -0.00596733, 0.00261351, 0.00327574, -0.00149378, -0.00235706, -0.0156833, -0.0144218, -0.0133356, -0.00301276, 0.00168303, -7.37962e-06, -0.0128497, -0.0153148, -0.00122216, 0.00235162, 0.00367757, 0.00454534, -0.00204182, -0.0055854, -0.014159, -0.0172235, -0.00160789, 0.00355166, 0.00157711, -0.000975477, -0.0100923, -0.0138179, -0.0192782, -0.0112386, 0.00112747, 0.000440897, -0.00056652, -0.00266756, -0.01812, -0.0202069, -0.0097347, -0.00274602, 0.00364, 0.000938871, -0.000667311, -0.00599901, -0.0167584, -0.015744, -0.000578892, 0.00151608, -0.00256997, -0.0108392, -0.0154532, -0.0154645, -0.00590816, -0.00247331, 0.00134997, 0.000994598, -0.0086914, -0.0191019, -0.018322, -0.0140786, -0.00058266, 0.000456911, 0.00575075, 0.000169101, -0.0155759, -0.0136432, -0.017331, -0.00983235, 0.00196296, 0.00357202, -0.00152813, -0.00345431, -0.017275, -0.0151885, -0.0116187, -0.00153568, 0.00161548, 0.00194897, -0.0138543, -0.0182657, -0.0022684, 0.00215601, 0.00326778, 0.00311296, -0.000171419, -0.00923871, -0.0144251, -0.0180982, 0.00213776, 0.00295575, 0.000899545, 0.000631143, -0.0108905, -0.0164028, -0.0147841, -0.0132872, 0.00125484, 0.00177382, -0.00171669, -0.00272276, -0.0155347, -0.0169297, -0.00910693, -0.011223, 0.00223747, -0.00249504, -0.00480845, -0.00938807, -0.0186658, -0.0135318, 0.00135221, 0.00206892, -0.00744449, -0.0113909, -0.0186097, -0.0200718, -0.000428386, -0.0012569, 0.00408208, 2.64618e-05, -0.00786425, -0.00918233, -0.0196563, -0.0128631, -0.00134462, 0.00218777, 0.00112196, 0.000101019, -0.013029, -0.0130618, -0.0165351, -0.00720072, 0.00291875, 0.00327864, 0.000819146, -0.00308051, -0.0139325, -0.0137484, -0.014026, -0.0054715, -0.000320049, 0.00399475, -0.0131279, -0.0171775, 0.000161567, 0.000947198, 0.00120654, 0.0030604, -0.00226922, -0.00709221, -0.0177925, -0.0167273, 0.00399889, 0.00428056, 0.00384764, 0.000649669, -0.0107418, -0.00887935, -0.0227186, -0.0143737, 0.00329971, 0.00439772, 0.00384701, -0.00108868, -0.0159336, -0.0219753, -0.00604373, -0.00641337, 0.00546831, 0.00232296, -0.00550814, -0.00694122, -0.0163865, -0.0140593, 0.00159781, 0.00253803, -0.00297356, -0.0115701, -0.0183179, -0.0179541, 4.1297e-05, 0.000398761, 0.00303079, 0.00131767, -0.00884736, -0.00799838, -0.0177699, -0.0150907, -0.000352595, 0.00277031, -0.00737755, -0.00583881, -0.00127537, 0, 0, 0.00812628, 0.00456106, -0.0055825, -0.00343972, 6.50408e-06, -0.00491561, 0, 0, -0.0101716, 0.00107714, -0.00382629, -0.000635991, 0.000567324, -0.0030616, -0.00994136, 0, 0.00493332, -0.0155868, 0.00459869, 0.00342612, -0.00854862, -0.0110515, 0, 0, -0.00361817, -0.021958, 0, 0, 0, -0.00966278, 0, 0, -0.0125992, -0.0139301, 0, -0.00427055, -0.000171519, 0.0038738, 0, -0.0062131, -0.00595923, -0.00812925, -0.00736749, -0.00969019, -0.00572724, 0, 0, 0.00862235, -0.00827717, -0.00206776, -0.00530144, -0.00881101, -0.00553214, -0.0218367, 0, 0, -0.00629313, -0.00804351, -0.00526079, -0.00341195, -0.00881149, -0.00848554, -0.0135977, -0.00384869, -0.00106558, -0.00367561, -0.00127426, -0.00171705, -0.00728753, -0.00869187, -0.0108276, 0.00311985, 0.00216861, -0.00361127, -0.000330571, -0.00314885, -0.00695595, -0.00226133, 0.00356467, 0.00580952, -0.000566251, 0.00204843, -0.00672348, -0.0101244, -0.010579, -0.00901833, -0.00647736, -0.00191667, -0.008595, -0.015411, -0.00944487, -0.0147301, -0.00800843, -0.00905323, -0.00651676, -0.00936431, -0.0147257, -0.0160713, -0.0196297, -0.00375116, 0.000292053, -0.000428639, -0.000686176, -0.00530186, -0.0102706, -0.0136893, -0.00707448, -0.00184335, -0.00290678, 0.000223137, -0.0112561, -0.0134809, -0.0081487, -0.00771706, -0.00400058, -0.00397056, -0.0052971, -0.0117908, -0.0139898, -0.00884768, -0.00991853, -0.0074991, -0.00482261, -0.00109101, -0.00255922, -0.0101984, -0.0143384, -0.00656971, -0.00683958, -0.000609904, 0.00260202, 0.000288149, -0.00430879, -0.01237, -0.0112775, -0.0109834, -0.000139506, -0.000557032, 0.000869403, -0.00603206, -0.00554253, -0.00107293, 0.00221686, 0.00414219, 0.00707824, 0.00154918, -0.00408386, -0.0138471, -0.014774, -0.00566359, 0.00151082, 0.000929375, -0.00230877, -0.0123872, -0.0179185, -0.0203445, -0.0102126, -0.00457476, -0.00299045, -0.00174407, -0.00684593, -0.0151384, -0.0182978, -0.00948352, -0.00825815, 3.74464e-05, 0.000476445, -0.00185248, -0.00539808, -0.0109422, -0.0118513, 0.00121238, 0.00204641, -0.00211797, -0.0148545, -0.0135491, -0.0123773, -0.00420569, -0.000901149, -0.00226931, -0.0019414, -0.00730076, -0.0106229, -0.0139794, -0.0125855, -0.00494095, -0.000627619, 0.00174294, 0.000386005, -0.0141648, -0.0149263, -0.00980703, -0.00669486, 0.000664465, 0.00391032, -0.000301637, -0.0006921, -0.0138947, -0.0136809, -0.0148212, -0.00386799, 0.00230715, 0.00213464, -0.00985042, -0.00816951, 0.00057787, 0.00446104, 0.00579274, 0.00830853, 0.0049268, -0.00833778, -0.0159722, -0.0146684, -0.000116704, 0.00149948, 0.00319987, 0.000354865, -0.0122833, -0.0165351, -0.01414, -0.0121299, 0.000151243, -0.00018962, -0.000424571, -0.00365787, -0.0195762, -0.0201643, -0.010467, -0.00737714, -0.00385951, -0.00161571, -0.00199187, -0.00311056, -0.0152369, -0.0161025, 0.00202681, 0.000652277, -0.00635232, -0.00725907, -0.0157741, -0.0130499, -0.00395502, -0.0002744, 0.00132679, -0.000263051, -0.0108018, -0.0162249, -0.0165728, -0.0139329, -0.00177529, 0.00245932, 0.00187179, 0.000450559, -0.0152712, -0.016731, -0.0101005, -0.00905998, 0.00281803, 0.00536764, 0.000249018, -0.00251145, -0.01528, -0.01512, -0.0112, -0.0105626, 0.00205908, 0.00248843, -0.0132093, -0.0137377, -0.00051879, 0.00245169, 0.00398687, 0.00459611, -0.00187902, -0.00861971, -0.0171727, -0.0162746, 0.000400471, 0.00216417, 0.00390147, -0.00111676, -0.0128496, -0.0122348, -0.0186335, -0.0130168, 0.00126961, 0.000896535, 0.00379926, -0.00384744, -0.0186479, -0.0156665, -0.00781453, -0.00517317, 0.00099756, 0.00208397, -0.000643508, -0.00294832, -0.0178052, -0.0144459, 0.00245318, 0.00202403, -0.00797756, -0.0134696, -0.016148, -0.0171679, -0.00315068, -0.00044724, 0.00276651, 0.0020057, -0.00742952, -0.0108973, -0.0170276, -0.0146347, 0.00177849, 0.00200555, 0.00470987, 0.000141737, -0.0157394, -0.0139269, -0.0133831, -0.00991671, 0.0047557, 0.00647444, 0.000181235, -0.00312928, -0.0154097, -0.0162485, -0.00925583, -0.0061353, 0.00327732, 0.00445745, -0.0146105, -0.0179833, -0.000688783, 0.00506717, 0.00363332, 0.00175404, -0.00364132, -0.0123674, -0.01887, -0.0152816, -0.000307305, 0.0080257, 0.00451058, -0.000551515, -0.0111011, 0, -0.0200292, -0.00919809, 0.00362695, 0.00337317, 0.00191791, -0.000959119, -0.01676, -0.0197253, -0.0117541, -0.0140378, 0.00135636, 0.000946546, -0.00245374, -0.00259497, -0.0188612, -0.0182524, 0.0036063, 0.00104331, -0.00536285, -0.0141949, -0.0201104, -0.020669, -0.00454941, 0.00133845, 0.00406418, 0.000975019, -0.00973983, -0.00934129, -0.0175157, -0.0159638, 0.00132799, 0.00343766, 
0.0039084, 0.00230416, 0.00243712, 0.00559242, 0, 0.00340253, 0.00232054, 0.00183318, 0.00137502, 0.00423039, 0.00167758, 0.00245543, 0.0032073, 0.00198, 0.00141694, 0.000938386, 0.000893828, 0.00147697, 0.00347669, 0.00266316, 0.0021377, 0.00145106, 0.00163317, 0.00116261, 0.000961052, 0.00087549, 0.00143172, 0, 0.00206551, 0.000958406, 0.00113967, 0.00115492, 0.00117198, 0.00114182, 0.00100444, 0.00201186, 0, 0.00154191, 0.00088334, 0.000969264, 0.00107419, 0.00153281, 0.00141016, 0.00200147, 0.00271175, 0.00367373, 0.00129404, 0.000823151, 0.000954695, 0.00148189, 0.00202342, 0.00348189, 0.00226651, 0.00147002, 0.00352613, 0.00131346, 0.00179142, 0.0021306, 0.00338584, 0, 0.00576992, 0.00222666, 0.00269879, 0.00392406, 0.00193906, 0.00188672, 0.00197063, 0.00287412, 0.0040783, 0.00331758, 0.00185605, 0.00149565, 0.000971446, 0.00148783, 0.00112185, 0.00103264, 0.00165938, 0.00185453, 0.00134218, 0.000859141, 0.000763597, 0.00101572, 0.00167074, 0.00109208, 0.000979207, 0.00133673, 0.00150343, 0.00112315, 0.000960113, 0.00078706, 0.0010159, 0.00134433, 0.000833571, 0.000832299, 0.00109572, 0.00122709, 0.00123567, 0.0011363, 0.000862105, 0.000907866, 0.00128511, 0.00105982, 0.000795749, 0.00100964, 0.00103102, 0.00145451, 0.00119711, 0.000931168, 0.000999995, 0.00146557, 0.000978893, 0.000785003, 0.000824132, 0.00131627, 0.00167588, 0.00162032, 0.00101601, 0.00114637, 0.00153023, 0.0010365, 0.00153417, 0.00177393, 0.00318273, 0.00446499, 0.00283952, 0.00181682, 0.00185011, 0.00187234, 0.00166324, 0.00171631, 0.00206445, 0.00325352, 0.0045803, 0.00347233, 0.00202441, 0.0017523, 0.000934777, 0.00110273, 0.00107642, 0.00110281, 0.001819, 0.00205627, 0.00159531, 0.000994117, 0.000933482, 0.000950303, 0.00117459, 0.00103078, 0.000993521, 0.00156476, 0.00179724, 0.00143515, 0.00124906, 0.000885457, 0.000914729, 0.000954469, 0.000860567, 0.000935106, 0.00133963, 0.00163989, 0.00148428, 0.00132344, 0.000917321, 0.000866271, 0.000933864, 0.00090886, 0.000895235, 0.00135495, 0.00138045, 0.00169379, 0.00143611, 0.0010007, 0.000956216, 0.00113549, 0.000930528, 0.000883884, 0.00097311, 0.00160066, 0.00217359, 0.0018205, 0.00111282, 0.0010834, 0.00106585, 0.000933369, 0.00156609, 0.00217506, 0.00371194, 0.00599452, 0.00299179, 0.00207755, 0.00178691, 0.00164725, 0.00189066, 0.00199296, 0.00267406, 0.00442973, 0.00735866, 0.00598718, 0.0027879, 0.00197992, 0.000978561, 0.00110514, 0.00119746, 0.00140249, 0.00257955, 0.00271921, 0.00218268, 0.00115209, 0.0011312, 0.000997748, 0.00120571, 0.00114187, 0.00129212, 0.00216256, 0.00241807, 0.00194469, 0.00169077, 0.00105394, 0.000983565, 0.00100453, 0.000935602, 0.00114189, 0.00193791, 0.00212324, 0.00196585, 0.00191331, 0.00119362, 0.000947321, 0.0009748, 0.000999451, 0.0010854, 0.00166706, 0.00179254, 0.00234884, 0.00197993, 0.001218, 0.00105747, 0.00100684, 0.00102174, 0.0010109, 0.00116388, 0.00200364, 0.00284413, 0.00243623, 0.00137983, 0.00118275, 0.00108411, 0.00100085, 0.00216826, 0.00285736, 0.00515645, 0.00566976, 0.0042714, 0.00241444, 0.00227382, 0.00178571, 0.00275699, 0.00409715, 0.0045375, 0, 0, 0, 0.00565736, 0.00279361, 0.00147653, 0.00135306, 0.00150383, 0.00198961, 0.00355308, 0.00477509, 0.00351115, 0.00191055, 0.00170604, 0.00137444, 0.0013762, 0.00148897, 0.00193301, 0.00296318, 0.00343856, 0.00334739, 0.0027973, 0.00161763, 0.00120824, 0.00116401, 0.00129965, 0.00172257, 0.00288117, 0.00285924, 0.00336111, 0.00300997, 0.00189008, 0.00126489, 0.00116956, 0.00133156, 0.00176402, 0.00281189, 0.0028096, 0.00360126, 0.00329809, 0.00204826, 0.00131716, 0.0012307, 0.0012986, 0.001651, 0.00194898, 0.00335479, 0.00371497, 0.00374718, 0.0018398, 0.00147151, 0.0013476, 0.00138335, 0.00348784, 0.00728219, 0, 0, 0, 0.00398232, 0.00349192, 0.00267069, 0, 0.00756701, 0, 0, 0, 0, 0, 0, 0.00268588, 0.0022815, 0.00240474, 0.00376595, 0.00728777, 0.00628227, 0.00570247, 0.00431634, 0.00448838, 0.00222102, 0.0019581, 0.00249184, 0.00333311, 0.00481701, 0.0068679, 0, 0.00668298, 0.00339358, 0.00206135, 0.00199346, 0.00198363, 0.00334833, 0.00608136, 0, 0, 0.00483614, 0.0030175, 0.00197445, 0.00192272, 0.00214841, 0.00315419, 0, 0, 0.00613111, 0.0045858, 0.00356015, 0.00198792, 0.00186774, 0.00210625, 0.00378541, 0.00436606, 0.00618735, 0.00547346, 0.00573845, 0.00331744, 0.00235671, 0.00205099, 0.00262433, 0, 0, 0, 0, 0, 0, 0.00500768, 0, 0.00120874, 0.000969611, 0.00102386, 0.00292338, 0.0039929, 0.00152677, 0.000896016, 0.000843611, 0.000963493, 0.00167795, 0.00107588, 0.0018791, 0.00280021, 0.00172042, 0.00127524, 0.000802606, 0.000782707, 0.00100269, 0.00161301, 0.0019765, 0.00174555, 0.00133953, 0.00154843, 0.00113905, 0.00100579, 0.000806738, 0.00105143, 0.0025841, 0.00158355, 0.000881972, 0.00114251, 0.00122319, 0.0011999, 0.00112049, 0.000847927, 0.00150421, 0.00247177, 0.000995185, 0.000787478, 0.000977164, 0.00108645, 0.00145925, 0.00132543, 0.001898, 0.00183933, 0.00166115, 0.00102566, 0.000783497, 0.000824988, 0.00126637, 0.0018137, 0.00315172, 0.0019134, 0.00106106, 0.00163974, 0.00100661, 0.000879657, 0.000869805, 0.00156648, 0.00443997, 0.0027147, 0.00100023, 0.00104122, 0.00125293, 0.00174317, 0.000936993, 0.000827768, 0.00124189, 0.00174996, 0.00129148, 0.000777655, 0.000813841, 0.000935765, 0.00218037, 0.000904381, 0.000818796, 0.00128743, 0.00144992, 0.00108758, 0.000729935, 0.000688964, 0.000882371, 0.00259776, 0.000981699, 0.000776807, 0.00106547, 0.00136187, 0.000973473, 0.000865601, 0.00067114, 0.000989987, 0.00167944, 0.000790225, 0.000745608, 0.00100845, 0.00115617, 0.00110985, 0.000908287, 0.000730373, 0.00082511, 0.00185061, 0.000946006, 0.000693446, 0.000901515, 0.000927312, 0.00129935, 0.00105728, 0.000815009, 0.000999052, 0.00264012, 0.000905058, 0.000701135, 0.000691795, 0.00107675, 0.00150541, 0.00130149, 0.000854221, 0.00096816, 0.00244119, 0.000988064, 0.000769694, 0.000758798, 0.00125384, 0.0020054, 0.00132009, 0.000835468, 0.00097169, 0.00198108, 0.00113943, 0.000915981, 0.000853273, 0.00136219, 0.00186698, 0.00133696, 0.000819994, 0.000787006, 0.000890052, 0.00133734, 0.000965701, 0.000854507, 0.00125465, 0.00156256, 0.00111642, 0.000758907, 0.000743998, 0.000865565, 0.00152496, 0.000948881, 0.00078986, 0.0011244, 0.00145212, 0.00110715, 0.000990566, 0.000736374, 0.000961275, 0.00116335, 0.000779376, 0.000787044, 0.00110188, 0.00133063, 0.00129811, 0.0010554, 0.000766891, 0.00079448, 0.00118125, 0.000946785, 0.000715616, 0.000940126, 0.00106742, 0.00134669, 0.00113681, 0.000797494, 0.000919646, 0.00138645, 0.00086578, 0.000752212, 0.000812464, 0.00115726, 0.00159258, 0.00135906, 0.000869005, 0.000964956, 0.00153286, 0.000950737, 0.000800371, 0.000811206, 0.00132601, 0.00185258, 0.0013669, 0.000863807, 0.000943866, 0.00117701, 0.000836074, 0.000872911, 0.000947448, 0.00159363, 0.00217311, 0.00166559, 0.00093628, 0.000795849, 0.000830459, 0.0010697, 0.000956076, 0.00095516, 0.00152927, 0.00181453, 0.00137219, 0.000871257, 0.000803898, 0.000837394, 0.00104502, 0.000906973, 0.000834702, 0.0013435, 0.00172708, 0.0012756, 0.00117692, 0.000799258, 0.000883021, 0.000857075, 0.0007729, 0.000865901, 0.00130256, 0.0015529, 0.00148908, 0.00126148, 0.000848527, 0.000794816, 0.000918641, 0.000859063, 0.000794143, 0.00117488, 0.00123288, 0.0016249, 0.0013265, 0.000873698, 0.000902809, 0.00104497, 0.000842386, 0.000825237, 0.000859886, 0.0014288, 0.00199395, 0.00161532, 0.000930421, 0.000940836, 0.00111346, 0.000941885, 0.00080116, 0.000919305, 0.00162754, 0.00227614, 0.001608, 0.000980616, 0.000870249, 0.00087431, 0.000872405, 0.000984532, 0.00130064, 0.0026681, 0.00337049, 0.00273452, 0.00119858, 0.000958025, 0.000960888, 0.000992865, 0.00100221, 0.00118464, 0.00201201, 0.00263719, 0.00204611, 0.00107076, 0.0010267, 0.000936498, 0.00101162, 0.000967415, 0.00105786, 0.00183242, 0.00231787, 0.00199882, 0.00172116, 0.0010551, 0.000962884, 0.000913837, 0.000947977, 0.00107359, 0.00185322, 0.00217952, 0.00219814, 0.00189784, 0.0011095, 0.000862646, 0.000888995, 0.000908656, 0.000999522, 0.00172471, 0.00187695, 0.00238062, 0.00202319, 0.00118599, 0.000959725, 0.00100415, 0.000939262, 0.00100693, 0.00114038, 0.0021315, 0.00266754, 0.00230961, 0.00115687, 0.00100811, 0.00105553, 0.000990936, 0.000987458, 0.00127626, 0.00300413, 0.00345627, 0.00252258, 0.00125998, 0.00100626, 0.000953834, 0.00175687, 0.00175814, 0.00212914, 0.00376376, 0.00635229, 0.00433502, 0.002236, 0.00193178, 0.00167978, 0.00123408, 0.00134438, 0.00165947, 0.00361081, 0.00412845, 0.00320878, 0.00209952, 0.00184195, 0.00123207, 0.0012155, 0.00121955, 0.00161379, 0.00311495, 0.00344212, 0.00376745, 0.00348389, 0.00157175, 0.00123043, 0.00108333, 0.00120768, 0.00164688, 0.0030995, 0.00455643, 0.00461249, 0.00306006, 0.00146794, 0.00115008, 0.00104286, 0.00123789, 0.00155834, 0.00329581, 0.00329918, 0.00355047, 0.00300354, 0.00163754, 0.00118192, 0.001262, 0.00137675, 0.00183421, 0.00211302, 0.00294779, 0.00470177, 0.00330791, 0.0015585, 0.00138452, 0.00136663, 0.00164723, 0.00196921, 0.00221719, 0.00460461, 0.00567048, 0.00380466, 0.00213534, 0.00162619, 0.00175886, 0.000934637, 0.000952138, 0.00119369, 0.00306529, 0.00444671, 0.00180465, 0.000975163, 0.000830571, 0.00092228, 0.00112429, 0.00100573, 0.00196034, 0.0036216, 0.00200382, 0.00151089, 0.000919902, 0.000904759, 0.000955572, 0.00117835, 0.00197577, 0.00196344, 0.00164882, 0.00186422, 0.00144666, 0.00123656, 0.000921307, 0.00096406, 0.00188925, 0.00162898, 0.000992074, 0.00151858, 0.00164078, 0.00148287, 0.00138262, 0.0010131, 0.00152209, 0.00163647, 0.000955789, 0.00093759, 0.00127085, 0.00130299, 0.00179236, 0.00157072, 0.00221386, 0.00181838, 0.00118508, 0.000966114, 0.000881131, 0.000921403, 0.00150128, 0.0021545, 0.00339361, 0.0019441, 0.00105693, 0.00117562, 0.000915294, 0.000872406, 0.00102368, 0.0018183, 0.00425375, 0.00331197, 0.00106908, 0.000975633, 0.000907177, 0.00109097, 0.000898999, 0.000828049, 0.0014, 0.00183367, 0.00124601, 0.000764572, 0.000823438, 0.000884893, 0.00145773, 0.000923621, 0.000843042, 0.00130414, 0.00149927, 0.00111207, 0.000789182, 0.000703929, 0.000874321, 0.00164537, 0.000925366, 0.000809477, 0.00116805, 0.00147665, 0.00110087, 0.000953629, 0.000760264, 0.00100107, 0.00133526, 0.000808296, 0.000784024, 0.00112779, 0.00136146, 0.00127212, 0.00111136, 0.00080983, 0.000809329, 0.00114159, 0.00097002, 0.00075072, 0.001044, 0.00102648, 0.00136693, 0.00111045, 0.000805912, 0.000889051, 0.00134563, 0.000839157, 0.000739172, 0.000749754, 0.00111767, 0.001532, 0.0013327, 0.000851738, 0.000999508, 0.00148142, 0.000927121, 0.000776317, 0.000794694, 0.00128547, 0.00195758, 0.00125963, 0.000860114, 0.000942771, 0.00119278, 0.0018679, 0.000994937, 0.000843916, 0.00120176, 0.00167797, 0.00127235, 0.000787844, 0.000883788, 0.00102182, 0.00226153, 0.00097861, 0.000836061, 0.0012099, 0.00152589, 0.00106488, 0.000778389, 0.000747255, 0.000886376, 0.00235998, 0.00101517, 0.000793742, 0.00111584, 0.00142316, 0.00109397, 0.000970475, 0.00075945, 0.00104223, 0.00172881, 0.000910831, 0.000808834, 0.00109266, 0.00135768, 0.00137107, 0.00108133, 0.000795066, 0.000882005, 0.00201666, 0.00105208, 0.000781394, 0.00101938, 0.00106903, 0.0014008, 0.00109078, 0.000801939, 0.000975688, 0.0026668, 0.000912408, 0.000736749, 0.000779049, 0.00105608, 0.00149519, 0.00127138, 0.000850951, 0.000973502, 0.00229939, 0.00101572, 0.000921853, 0.0007778, 0.00123196, 0.00170865, 0.00120148, 0.000855384, 0.00105603, 0.00200205, 0.00132807, 0.00090074, 0.000878032, 0.00124639, 0.00176322, 0.00129584, 0.000811347, 0.00079763, 0.00096578, 0.00165985, 0.00093579, 0.00084912, 0.00124545, 0.0016713, 0.00120733, 0.000797409, 0.000728327, 0.000906317, 0.00160462, 0.000987659, 0.000797337, 0.00114022, 0.00152979, 0.00115205, 0.00107508, 0.000788029, 0.000984906, 0.00133309, 0.000862263, 0.000825974, 0.00120899, 0.0014676, 0.00141724, 0.00116955, 0.000811001, 0.000834778, 0.00137527, 0.000967991, 0.000789452, 0.00110687, 0.00113376, 0.00150917, 0.0011975, 0.000821709, 0.00098631, 0.00164421, 0.000901122, 0.000761075, 0.000809597, 0.00118612, 0.00172, 0.00130657, 0.000857726, 0.000949655, 0.00148033, 0.000980552, 0.000883249, 0.000846425, 0.00136766, 0.00169438, 0.00119732, 0.000870934, 0.00100944, 0.00142991, 0.000905952, 0.000932836, 0.000973413, 0.0016977, 0.00239924, 0.00170664, 0.000918648, 0.000808232, 0.000927332, 0.00120776, 0.00101077, 0.000966759, 0.0015299, 0.00224973, 0.00143562, 0.000917327, 0.000910125, 0.000901524, 0.00115943, 0.000911425, 0.000906399, 0.00147414, 0.00193192, 0.00144638, 0.00138499, 0.000879358, 0.000930484, 0.000997027, 0.000885676, 0.000950555, 0.001543, 0.00189559, 0.00205138, 0.00152005, 0.000898955, 0.000836863, 0.000915612, 0.000927643, 0.000937397, 0.00140601, 0.00143356, 0.00195293, 0.00150746, 0.000915745, 0.000912871, 0.00115704, 0.000926186, 0.000895973, 0.000909398, 0.00155928, 0.00209338, 0.0016835, 0.000993855, 0.000964926, 0.0011492, 0.000920144, 0.000810539, 0.000935523, 0.00184854, 0.00242163, 0.00171227, 0.000965725, 0.000942466, 0.00104536, 0.00116805, 0.00100787, 0.00135251, 0.00247419, 0.00350739, 0.00302355, 0.00135101, 0.00111947, 0.00127595, 0.00109984, 0.00105557, 0.00118031, 0.00214597, 0.00283595, 0.00219223, 0.0014663, 0.0014109, 0.0010233, 0.000997477, 0.000922008, 0.00115732, 0.00212589, 0.00281391, 0.00261614, 0.00244233, 0.00121953, 0.000952169, 0.000877237, 0.000896701, 0.00124539, 0.00225884, 0.00333113, 0.00328366, 0.00210057, 0.00119765, 0.000938231, 0.00091412, 0.00103627, 0.00121139, 0.00240111, 0.00264715, 0.00271772, 0.00209833, 0.00115165, 0.000946772, 0.00107476, 0.00106204, 0.00132381, 0.00153219, 0.0023289, 0.00292161, 0.00211079, 0.00123185, 0.00111389, 0.00120316, 0.00120014, 0.00116008, 0.00125087, 0.00274451, 0.00340886, 0.00223683, 0.00128344, 0.00107132, 0.00115969, 0.000923414, 0.00103455, 0.00131462, 0.0049359, 0.00592056, 0.00229516, 0.00120792, 0.000945552, 0.000981967, 0.00102673, 0.00114105, 0.00231483, 0.00477624, 0.00276187, 0.00190983, 0.00116428, 0.00121591, 0.00104477, 0.00116824, 0.00217287, 0.002921, 0.0022049, 0.00275666, 0.00202307, 0.00173543, 0.00109452, 0.00103504, 0.00174762, 0.001856, 0.00122549, 0.00194233, 0.00205278, 0.0020474, 0.00187134, 0.00124084, 0.00192214, 0.00170941, 0.001087, 0.00113053, 0.00178741, 0.00176152, 0.00243804, 0.00214111, 0.00280735, 0.00189972, 0.00110443, 0.000990328, 0.00107728, 0.00112896, 0.00206624, 0.00275919, 0.00404269, 0.00226436, 0.00109825, 0.00120263, 0.000999731, 0.000914364, 0.00116084, 0.00220077, 0.00576433, 0.0037793, 0.00126881, 0.00104154, 0.00094925, 0.000855208, 0.000870835, 0.000852614, 0.00150471, 0.00215485, 0.00149885, 0.000820659, 0.000816993, 0.000857379, 0.00098608, 0.000876416, 0.000967874, 0.00157803, 0.00187271, 0.0013144, 0.000866124, 0.000831528, 0.000900387, 0.00105159, 0.00089755, 0.000905524, 0.00144292, 0.00175713, 0.00138166, 0.0011108, 0.000806104, 0.000873495, 0.000895136, 0.000814653, 0.000878406, 0.00130278, 0.00158417, 0.00152206, 0.00133935, 0.000898817, 0.000828179, 0.00089956, 0.000901705, 0.000824714, 0.00122679, 0.00123751, 0.0015842, 0.00142704, 0.000908302, 0.000855886, 0.0010229, 0.000893547, 0.000824019, 0.000839045, 0.00126636, 0.00191057, 0.00164045, 0.00095716, 0.00092233, 0.00111345, 0.000910327, 0.000760082, 0.000845728, 0.00150432, 0.00222089, 0.00158291, 0.000930482, 0.000873223, 0.000927379, 0.00121179, 0.000949283, 0.000826916, 0.00123498, 0.00172944, 0.00124043, 0.000794187, 0.000821891, 0.000997281, 0.00168219, 0.000943175, 0.000852896, 0.00126181, 0.0017496, 0.00112765, 0.000827706, 0.000818246, 0.000918936, 0.00161511, 0.00101049, 0.000814956, 0.00125352, 0.00163063, 0.00118955, 0.00108394, 0.000768749, 0.000952335, 0.00126122, 0.000834805, 0.000818069, 0.00111831, 0.00145838, 0.00143892, 0.00113156, 0.000809057, 0.000889312, 0.00133672, 0.000970696, 0.000777902, 0.00108809, 0.00114597, 0.00149248, 0.00119859, 0.000843751, 0.000985863, 0.00143016, 0.000928336, 0.00080395, 0.000830058, 0.00118024, 0.00163718, 0.00132172, 0.000860791, 0.000988668, 0.00159014, 0.000994726, 0.000821675, 0.000804844, 0.00127364, 0.00178821, 0.0012425, 0.000834587, 0.000945106, 0.00142378, 0.00182692, 0.00100657, 0.000833739, 0.00115299, 0.00169909, 0.00121202, 0.000778838, 0.000892018, 0.00106429, 0.00206392, 0.00104181, 0.000821368, 0.00126746, 0.00163454, 0.00115217, 0.000792549, 0.000779757, 0.000946484, 0.00243692, 0.00102798, 0.000812629, 0.00116833, 0.00158489, 0.00110045, 0.00102805, 0.000756858, 0.00105599, 0.00206215, 0.000867911, 0.000818699, 0.00109772, 0.00134165, 0.00143624, 0.00112114, 0.0008484, 0.000898542, 0.00222237, 0.00100402, 0.0007628, 0.00105655, 0.00115036, 0.00149756, 0.00116032, 0.000800732, 0.00100841, 0.00246873, 0.000945725, 0.000746813, 0.000790662, 0.00111463, 0.00169672, 0.0012868, 0.00082527, 0.0010214, 0.00260717, 0.00103361, 0.000849113, 0.000784438, 0.00127337, 0.00163185, 0.0011979, 0.000825176, 0.00102451, 0.00206703, 0.00142868, 0.000957196, 0.000882243, 0.0012802, 0.00203385, 0.00140315, 0.00083369, 0.000866893, 0.00104481, 0.00155802, 0.00104764, 0.000854116, 0.00138155, 0.00199767, 0.00123077, 0.000871348, 0.000822145, 0.000929822, 0.00165208, 0.00105058, 0.000834688, 0.00131505, 0.00184734, 0.00138115, 0.00118843, 0.000828133, 0.00106448, 0.00142146, 0.000886459, 0.000819909, 0.00129366, 0.00169236, 0.00170234, 0.00129863, 0.000849468, 0.0008626, 0.00137906, 0.00104703, 0.000812447, 0.00121614, 0.00129879, 0.00191998, 0.00130273, 0.000860127, 0.00101997, 0.00172656, 0.000939076, 0.00080145, 0.000878253, 0.00131127, 0.00201287, 0.00148315, 0.000882451, 0.00103997, 0.0017129, 0.00102337, 0.00085144, 0.000851793, 0.00148181, 0.00194755, 0.00139546, 0.000890907, 0.000950887, 0.001408, 0.00106348, 0.000889549, 0.000996197, 0.00161484, 0.00237123, 0.00196732, 0.000968625, 0.000968739, 0.00108995, 0.00113008, 0.000917003, 0.000911683, 0.00172101, 0.00255693, 0.0017437, 0.00120682, 0.00115889, 0.00093592, 0.00114564, 0.000845723, 0.000938897, 0.00178739, 0.00262161, 0.00212091, 0.00179267, 0.000967495, 0.000896434, 0.000902989, 0.000773619, 0.000947523, 0.00165644, 0.00278385, 0.00279576, 0.0017009, 0.000939966, 0.000786925, 0.000907235, 0.000957952, 0.000978215, 0.00187349, 0.00211798, 0.00240334, 0.00175341, 0.00092185, 0.000854792, 0.00109965, 0.000957762, 0.00112942, 0.00118827, 0.00174485, 0.00256351, 0.0016938, 0.000932957, 0.00102121, 0.001156, 0.00107383, 0.00100121, 0.000964073, 0.00198908, 0.00264181, 0.00165362, 0.00102729, 0.000962151, 0.0010103, 0.00116585, 0.00132987, 0.00210659, 0, 0, 0.00323255, 0.00191444, 0.00130742, 0.00127334, 0.00139219, 0.00154477, 0.00389181, 0, 0.00463705, 0.00357171, 0.00189446, 0.00183168, 0.00133539, 0.00136179, 0.002711, 0.0048396, 0.00370983, 0.00383831, 0.00312468, 0.0026342, 0.00179868, 0.00141096, 0.00252001, 0.00295018, 0.00183546, 0.00317938, 0.00350678, 0.0030926, 0.00307095, 0.00208202, 0.00316636, 0.00295148, 0.00127441, 0.00174738, 0.00300668, 0.00297509, 0.00390821, 0.00325183, 0.00516772, 0.00319276, 0.00134183, 0.00125218, 0.00177028, 0.00159974, 0.00297057, 0.0053251, 0, 0.002684, 0.00148267, 0.00123672, 0.00131296, 0.00122841, 0.00183112, 0.00416893, 0, 0, 0.00186499, 0.00139707, 0.00120722, 0.000856656, 0.000891746, 0.00112555, 0.00270719, 0.00345106, 0.00202774, 0.00104128, 0.000904422, 0.000964288, 0.00102322, 0.00103899, 0.00131574, 0.0026499, 0.00271632, 0.0018799, 0.00111786, 0.00103361, 0.000950644, 0.00108738, 0.00102424, 0.00121485, 0.00192267, 0.00244035, 0.00187407, 0.00178546, 0.00104067, 0.00095198, 0.000915895, 0.00097436, 0.00110438, 0.00202062, 0.00212864, 0.00209533, 0.00201751, 0.00112412, 0.00096473, 0.000945126, 0.000986332, 0.00106185, 0.00183937, 0.00187917, 0.00226616, 0.00195691, 0.0013019, 0.000997812, 0.00103089, 0.000949376, 0.00103029, 0.00106346, 0.00185604, 0.00256308, 0.00258865, 0.00124221, 0.00104523, 0.000992407, 0.00100981, 0.000854492, 0.00107089, 0.00198676, 0.00425315, 0.00233839, 0.00114086, 0.000920445, 0.000927721, 0.000961922, 0.000893826, 0.000903474, 0.00150704, 0.00218969, 0.00153514, 0.000881112, 0.000839694, 0.000920639, 0.00114602, 0.00098125, 0.00098801, 0.00176753, 0.00216629, 0.00138846, 0.00094292, 0.000892859, 0.000904695, 0.00116434, 0.000980752, 0.000967075, 0.001547, 0.00202263, 0.00152539, 0.00136899, 0.000880219, 0.000965024, 0.000985925, 0.000827877, 0.000975953, 0.00147022, 0.00221562, 0.00194049, 0.0014858, 0.000884744, 0.000850495, 0.000932584, 0.000964856, 0.000859518, 0.00135952, 0.00147934, 0.00186865, 0.00152074, 0.000973982, 0.000926743, 0.00105466, 0.000882319, 0.000885292, 0.000902346, 0.00146565, 0.00207729, 0.00174845, 0.000964643, 0.00093124, 0.0011008, 0.000973848, 0.000823101, 0.000891719, 0.00156778, 0.00235016, 0.0015374, 0.000968573, 0.00091034, 0.00100791, 0.00155819, 0.000951438, 0.000886781, 0.00125501, 0.00199797, 0.00138568, 0.00083588, 0.000889879, 0.00101431, 0.00167761, 0.000995765, 0.000867015, 0.00148771, 0.00192457, 0.00131181, 0.000827845, 0.000836494, 0.000973221, 0.00179072, 0.00101465, 0.000837514, 0.00133445, 0.00185901, 0.00132935, 0.00119825, 0.000812727, 0.00105074, 0.00146256, 0.000859778, 0.000861891, 0.00132533, 0.00176891, 0.0017174, 0.00127888, 0.000860591, 0.000917017, 0.00142246, 0.00104007, 0.000798645, 0.00121097, 0.00127364, 0.0018513, 0.0013535, 0.000844134, 0.00104233, 0.00150675, 0.000934465, 0.000801382, 0.000826186, 0.00130642, 0.00203215, 0.00149324, 0.000860937, 0.000965043, 0.00154567, 0.00103306, 0.000841445, 0.000823375, 0.00141996, 0.00203631, 0.00130325, 0.0008324, 0.00101303, 0.00141017, 0.00255444, 0.0010885, 0.000863837, 0.00130612, 0.00202565, 0.00144727, 0.000825573, 0.000923666, 0.00102716, 0.0027392, 0.00107597, 0.000892814, 0.00154173, 0.00233263, 0.00135259, 0.000879304, 0.000813055, 0.000977155, 0.00278131, 0.00111365, 0.000850737, 0.0013695, 0.00206262, 0.00144172, 0.00131764, 0.000819109, 0.00108165, 0.00190721, 0.00098466, 0.000892026, 0.00142692, 0.00221459, 0.00209824, 0.00142299, 0.000849145, 0.00094791, 0.00229949, 0.00108013, 0.00085458, 0.00127629, 0.00135172, 0.00197837, 0.00135908, 0.00086416, 0.00116356, 0.00217292, 0.000981619, 0.000812696, 0.000855969, 0.00140598, 0.00228867, 0.00153307, 0.000881878, 0.00100829, 0.00254104, 0.00107919, 0.000945004, 0.000816683, 0.00156402, 0.00214947, 0.00132398, 0.000889912, 0.00106124, 0.0022652, 0.00123674, 0.00094, 0.000900232, 0.00146492, 0.00240204, 0.00177851, 0.000867357, 0.000932871, 0.00104301, 0.00159257, 0.000910512, 0.000864168, 0.00165677, 0.00273286, 0.00171764, 0.00107235, 0.00104903, 0.000946949, 0.00146777, 0.000866568, 0.000843421, 0.00150459, 0.00293871, 0.00234029, 0.00186157, 0.000926726, 0.000943986, 0.00105432, 0.000798521, 0.000848646, 0.00187662, 0.00324622, 0.0032394, 0.00175547, 0.000870653, 0.000768306, 0.00115657, 0.000982711, 0.000975905, 0.00190295, 0.00215299, 0.00291827, 0.00149967, 0.000814912, 0.000856586, 0.00152788, 0.00102222, 0.00104965, 0.00114058, 0.00164016, 0.00269778, 0.00157726, 0.000854597, 0.00102634, 0.00171067, 0.00104757, 0.00091531, 0.000889984, 0.00180021, 0.00272974, 0.00143252, 0.000927305, 0.000975966, 0.00140435, 0.00171396, 0.00198213, 0.00337901, 0, 0, 0.00569515, 0.00331737, 0.002199, 0.00198867, 0.00201153, 0.00238131, 0, 0, 0.00748522, 0.00626301, 0.00358356, 0.00354606, 0.00230607, 0.00222184, 0.00574454, 0, 0.00739064, 0.0072539, 0.00578676, 0.0061911, 0.00348566, 0.00335922, 0, 0, 0.00456866, 0.00593764, 0, 0, 0, 0.00505827, 0, 0, 0.00260868, 0.00384129, 0, 0.00538483, 0.00617603, 0.00696696, 0, 0.00437444, 0.00220789, 0.00217204, 0.00349324, 0.00290083, 0.00529375, 0, 0, 0.00725662, 0.00251116, 0.00195498, 0.00233904, 0.00194835, 0.00354096, 0.00549315, 0, 0, 0.00377192, 0.00220842, 0.00181734, 0.00106949, 0.00110926, 0.00165834, 0.00422058, 0.00519114, 0.00316796, 0.00157228, 0.00115052, 0.00122043, 0.00120253, 0.00133783, 0.00217961, 0.00528414, 0.00402609, 0.00294675, 0.00156163, 0.00159161, 0.0013431, 0.00131661, 0.00162084, 0.00234728, 0.00324194, 0.00396419, 0.00318415, 0.00351225, 0.00214845, 0.00162871, 0.00173523, 0.00199567, 0.00205943, 0.0038863, 0.00500402, 0.00431663, 0.0038882, 0.00238583, 0.00195823, 0.00182769, 0.00178278, 0.00210534, 0.00337984, 0.00316763, 0.00353887, 0.0036077, 0.0022234, 0.00159053, 0.00131229, 0.00129857, 0.00170191, 0.00161831, 0.00296732, 0.00480238, 0.00576736, 0.00210388, 0.00134601, 0.00126897, 0.00120032, 0.00106848, 0.00151256, 0.00323581, 0.00533994, 0.0038711, 0.00159364, 0.00113481, 0.00105588, 0.000913805, 0.000900074, 0.00112101, 0.00241802, 0.00333517, 0.00218736, 0.00108914, 0.000863252, 0.000986892, 0.000992796, 0.00103383, 0.00135424, 0.00294158, 0.00311287, 0.00195943, 0.00112487, 0.00122866, 0.00106962, 0.00108499, 0.0010478, 0.00124721, 0.00206264, 0.00318949, 0.00226086, 0.00243534, 0.00138178, 0.00133075, 0.00113198, 0.00120765, 0.00158894, 0.00277174, 0.00347841, 0.00353581, 0.00274184, 0.00158415, 0.00120565, 0.00111692, 0.00125749, 0.00147629, 0.00257164, 0.00230611, 0.00276516, 0.00225333, 0.00134568, 0.00103737, 0.00106469, 0.00110607, 0.00124008, 0.00117183, 0.0020409, 0.00327617, 0.00265914, 0.00136378, 0.00106854, 0.00102181, 0.000997968, 0.000854521, 0.0010534, 0.00207525, 0.00325223, 0.00223354, 0.00121643, 0.000892465, 0.000853665, 0.000855257, 0.000819998, 0.000928581, 0.00152613, 0.00255437, 0.00163782, 0.000885441, 0.000768801, 0.000904289, 0.00106058, 0.000928988, 0.00102489, 0.00204835, 0.00252649, 0.00178301, 0.000917945, 0.00095829, 0.00095496, 0.00116552, 0.000927242, 0.000981912, 0.0016312, 0.00262184, 0.00178465, 0.00190075, 0.00118962, 0.0011362, 0.00111923, 0.000973429, 0.00123708, 0.00224291, 0.00296759, 0.00287346, 0.00225154, 0.00127295, 0.000998901, 0.00104173, 0.00113977, 0.00123114, 0.00197525, 0.00178095, 0.00254237, 0.00186668, 0.00102135, 0.000968081, 0.00110898, 0.000973313, 0.00101418, 0.00095448, 0.00158095, 0.00284672, 0.00212342, 0.00104369, 0.00100978, 0.0010922, 0.00094747, 0.000771206, 0.000891386, 0.00166988, 0.00236216, 0.00156625, 0.000901193, 0.000819265, 0.000837855, 0.00101444, 0.00082516, 0.000817618, 0.00139589, 0.00237266, 0.00154803, 0.000783366, 0.000772113, 0.000943566, 0.00135293, 0.000923541, 0.000911301, 0.0018672, 0.0027834, 0.00152486, 0.000870591, 0.00092166, 0.000917248, 0.00160512, 0.000955788, 0.00088401, 0.00168438, 0.00263765, 0.00170982, 0.0019263, 0.00108448, 0.00107255, 0.00131422, 0.000948945, 0.00111184, 0.00221437, 0.00365275, 0.00330475, 0.00231694, 0.00108593, 0.000952131, 0.00130061, 0.00116759, 0.00106639, 0.00177561, 0.00177558, 0.00275217, 0.00174127, 0.000949224, 0.00102462, 0.00158584, 0.000923853, 0.000933922, 0.000871964, 0.00156177, 0.00284794, 0.00190558, 0.000965242, 0.000965351, 0.00143232, 0.00104318, 0.000759531, 0.000802897, 0.00161711, 0.00247559, 0.00143979, 0.000816549, 0.000841141, 0.0010737, 0.00129774, 0.000767859, 0.000741821, 0.00132156, 0.0024937, 0.0017218, 0.000772957, 0.000746267, 0.00101727, 0.00181854, 0.000830018, 0.000786365, 0.00169527, 0.00335287, 0.00159936, 0.00100989, 0.00100282, 0.000867928, 0.00172908, 0.000846295, 0.000778117, 0.0016336, 0.0035392, 0.00276503, 0.00291346, 0.00104777, 0.000992222, 0.00132946, 0.000769015, 0.00109512, 0.00314536, 0, 0.00668399, 0.00298546, 0.00100195, 0.00074887, 0.00131158, 0.00106779, 0.00117813, 0.00291109, 0.00263098, 0.00350753, 0.00153002, 0.000789109, 0.000883781, 0.00228281, 0.000993914, 0.00103866, 0.00102669, 0.00158624, 0.00319174, 0.00180893, 0.000825932, 0.000914031, 0.00206866, 0.00107588, 0.00073475, 0.000739692, 0.00157658, 0.0025304, 0.00132468, 0.000793073, 0.000898345, 0.00121606, 
